<?xml version="1.0"?>
<opencv_storage>
<opencv_ml_ann_mlp>
  <format>3</format>
  <layer_sizes>
    225 13 2</layer_sizes>
  <activation_function>SIGMOID_SYM</activation_function>
  <f_param1>6.6666666666666663e-01</f_param1>
  <f_param2>1.7159000000000000e+00</f_param2>
  <min_val>-9.4999999999999996e-01</min_val>
  <max_val>9.4999999999999996e-01</max_val>
  <min_val1>-9.7999999999999998e-01</min_val1>
  <max_val1>9.7999999999999998e-01</max_val1>
  <training_params>
    <train_method>BACKPROP</train_method>
    <dw_scale>1.0000000000000000e-02</dw_scale>
    <moment_scale>0.</moment_scale>
    <term_criteria>
      <epsilon>1.0000000000000000e-04</epsilon>
      <iterations>100000</iterations></term_criteria></training_params>
  <input_scale>
    1.9503361951806311e-02 -2.5062252418184037e+00
    1.9579318731450916e-02 -2.5176784320531289e+00
    1.9342884748081397e-02 -2.5023494320836495e+00
    1.9120692298485797e-02 -2.4973634296934257e+00
    1.8714225485986231e-02 -2.4822541573443488e+00
    1.8246076570838363e-02 -2.4814548581707045e+00
    1.7962122082799618e-02 -2.5029176252102245e+00
    1.7711166570710660e-02 -2.5035950959461974e+00
    1.7851769202156580e-02 -2.5213956400859776e+00
    1.8046869601670373e-02 -2.5057489832809443e+00
    1.8237367737662838e-02 -2.4691132127006639e+00
    1.8532181572124256e-02 -2.4437480595565875e+00
    1.8554085051296184e-02 -2.3853573561831065e+00
    1.8664457012660726e-02 -2.3513610605180593e+00
    1.8945910331731597e-02 -2.3447513820463324e+00
    1.9461045488132621e-02 -2.4979342639259321e+00
    1.9584228027493517e-02 -2.5395435297196922e+00
    1.9027007643419306e-02 -2.5101611796783665e+00
    1.8297499264432148e-02 -2.5001232520904799e+00
    1.7251687889864163e-02 -2.4528425805258292e+00
    1.6383604185225407e-02 -2.4393412346610215e+00
    1.5954729390576381e-02 -2.4789193465570487e+00
    1.5885325710095637e-02 -2.5168532992547030e+00
    1.6144557192979209e-02 -2.5366790411061197e+00
    1.6347336065145324e-02 -2.4688773939982509e+00
    1.6889050873164380e-02 -2.4478695124795551e+00
    1.7880685328883022e-02 -2.4686613190148776e+00
    1.8565266509518293e-02 -2.4426082467086112e+00
    1.8887386323624644e-02 -2.4021549691468955e+00
    1.9412891912661014e-02 -2.4115077919865509e+00
    1.9253683778455242e-02 -2.5129715408866065e+00
    1.9232647119594548e-02 -2.5798361031299324e+00
    1.8048268845799461e-02 -2.5562989625613661e+00
    1.6856587461422701e-02 -2.5583581203008405e+00
    1.5823018755745495e-02 -2.5475811765088867e+00
    1.5211363659330717e-02 -2.5323741423749815e+00
    1.5015139077643154e-02 -2.5678550418679698e+00
    1.5118794531061911e-02 -2.6290999619556947e+00
    1.5204764037066052e-02 -2.6125231927601753e+00
    1.5304326128990426e-02 -2.5369367894043919e+00
    1.5719576822245295e-02 -2.4759329035050412e+00
    1.6754209165816908e-02 -2.4815540940128331e+00
    1.7808596838305508e-02 -2.4262775195929769e+00
    1.8665457382986844e-02 -2.4144106025169236e+00
    1.9494520894841876e-02 -2.4478587147307480e+00
    1.8994359665593444e-02 -2.5347365491047236e+00
    1.8127637057055907e-02 -2.5734298946276182e+00
    1.6872539323977979e-02 -2.6331312651522039e+00
    1.5882573486964164e-02 -2.6845220592160537e+00
    1.5123703349006879e-02 -2.6379847613902152e+00
    1.4671147021179203e-02 -2.5673671059557650e+00
    1.4689317289718694e-02 -2.6012324948106702e+00
    1.5060546876094545e-02 -2.7018182346406268e+00
    1.5099131916874516e-02 -2.6812720984154454e+00
    1.4747988519090380e-02 -2.5537650543949915e+00
    1.4957961943537540e-02 -2.4731081252023350e+00
    1.5975736699674510e-02 -2.5033544350329104e+00
    1.6935027049098314e-02 -2.4422582738640433e+00
    1.8549160083225862e-02 -2.4827504516841850e+00
    1.9381234989576595e-02 -2.4726908552898603e+00
    1.8453395102681989e-02 -2.5432728576603258e+00
    1.7088413344776364e-02 -2.5588952032461458e+00
    1.5890198472324344e-02 -2.6552732979849241e+00
    1.5000433773439207e-02 -2.6716827045839655e+00
    1.4513104997399206e-02 -2.5976573723353145e+00
    1.4554039665984201e-02 -2.5811206831697624e+00
    1.4977036731992209e-02 -2.6892791817330317e+00
    1.5304176619123873e-02 -2.7901045363556944e+00
    1.5041273940285659e-02 -2.7139973639580854e+00
    1.4626090465827440e-02 -2.5569629617155605e+00
    1.4551126778540185e-02 -2.4212098126407571e+00
    1.5254483477752876e-02 -2.4263033669858638e+00
    1.6556050426778442e-02 -2.5018352135576549e+00
    1.8021180693896851e-02 -2.5278443691826968e+00
    1.9245249513282669e-02 -2.4919855763057304e+00
    1.8047075605430035e-02 -2.5350540803180395e+00
    1.6151532341701684e-02 -2.4736598572902957e+00
    1.5283286588216285e-02 -2.5864857348001955e+00
    1.4704347294264217e-02 -2.6225608490585142e+00
    1.4688922934784033e-02 -2.6462248161141635e+00
    1.4848153181165447e-02 -2.6821839317100586e+00
    1.5197083465196605e-02 -2.7780393692862639e+00
    1.5561643059326698e-02 -2.8692900439967355e+00
    1.5458000102750913e-02 -2.8103163043042736e+00
    1.5061640257331876e-02 -2.6522747240608164e+00
    1.4904485848460294e-02 -2.5048975418477548e+00
    1.5261045066911578e-02 -2.4477546821554736e+00
    1.6262143399976420e-02 -2.5026810452698354e+00
    1.7897507226589227e-02 -2.5958809713661037e+00
    1.8772991916023416e-02 -2.4698730209769342e+00
    1.7896440311242809e-02 -2.5159572903042791e+00
    1.5905546641955676e-02 -2.4172200161390345e+00
    1.5201376452038015e-02 -2.5239964968715407e+00
    1.4666980676180042e-02 -2.5305046723806361e+00
    1.4552300418288706e-02 -2.5563249223385820e+00
    1.4863558563990284e-02 -2.6428000162993555e+00
    1.5262553472359880e-02 -2.7597238825945110e+00
    1.5654490920362744e-02 -2.8641323737877733e+00
    1.5629097856099020e-02 -2.8182757463389603e+00
    1.5435719026114540e-02 -2.6978293592349334e+00
    1.5082529088475202e-02 -2.4999745681773802e+00
    1.5412622216025421e-02 -2.4224464414720233e+00
    1.6323131251940702e-02 -2.4671446318105041e+00
    1.7972045394498867e-02 -2.5891354922418071e+00
    1.8791411567016986e-02 -2.4721178941582989e+00
    1.7961405822403898e-02 -2.5014982978442730e+00
    1.5867474817829484e-02 -2.3536720816227907e+00
    1.5137764026297360e-02 -2.4027197848060560e+00
    1.4354587348499434e-02 -2.3348931780368738e+00
    1.4171235657170747e-02 -2.3296739586147721e+00
    1.4548173822961774e-02 -2.4599635185400683e+00
    1.5298795800463874e-02 -2.6728129866392436e+00
    1.5956215159578440e-02 -2.8339309281617080e+00
    1.5917583911336426e-02 -2.7840045796135966e+00
    1.5840983832541032e-02 -2.6721602848006962e+00
    1.5296310868779615e-02 -2.4229831095838215e+00
    1.5180877422698738e-02 -2.2620564925696036e+00
    1.6128756046756888e-02 -2.3226736597314770e+00
    1.7880386309417289e-02 -2.4990189569854739e+00
    1.8925214865298086e-02 -2.4652519439954639e+00
    1.8470678605643848e-02 -2.5456314989252711e+00
    1.6457161639790739e-02 -2.3593722756830453e+00
    1.5160241253089487e-02 -2.2622171525089878e+00
    1.4364238729455232e-02 -2.1911468114073087e+00
    1.4287460730824420e-02 -2.2107108332837382e+00
    1.4566376246381903e-02 -2.3375205473832916e+00
    1.5102234862044019e-02 -2.5012944979348846e+00
    1.5507681826292878e-02 -2.5941140161532887e+00
    1.5641566470556686e-02 -2.5791298714739548e+00
    1.5267049715754169e-02 -2.3962548231344907e+00
    1.4725118127143182e-02 -2.1444304233405331e+00
    1.4958088110247092e-02 -2.0469797809261987e+00
    1.6017972411128876e-02 -2.1364515963645294e+00
    1.7982005664161405e-02 -2.3711990559616001e+00
    1.9359322721012963e-02 -2.4465512670496103e+00
    1.8814170413810321e-02 -2.5520665548334160e+00
    1.7551105982838086e-02 -2.4618566221639822e+00
    1.5829342259257168e-02 -2.2416814768427833e+00
    1.4894359711784934e-02 -2.1320818437587317e+00
    1.4533589577291514e-02 -2.1166024015293239e+00
    1.4839842830368242e-02 -2.2570940430551407e+00
    1.5175773972181016e-02 -2.3787280848649699e+00
    1.5202199839485611e-02 -2.3831590420315343e+00
    1.5159254436624118e-02 -2.3175082240957718e+00
    1.4825675085629691e-02 -2.1380191483445907e+00
    1.4673230898186234e-02 -1.9625934194989163e+00
    1.5027435101891889e-02 -1.8876276246117101e+00
    1.6380603188342526e-02 -2.0145911503874419e+00
    1.8283324647285971e-02 -2.2365809249893225e+00
    1.9672123555835180e-02 -2.3612590686207144e+00
    1.9056026065364533e-02 -2.5309938660172788e+00
    1.8448657945426414e-02 -2.5087779634862373e+00
    1.6948070955611069e-02 -2.3066925642134168e+00
    1.5802680786279558e-02 -2.1237541964866713e+00
    1.5284632825996288e-02 -2.0964388832213801e+00
    1.4980478422019387e-02 -2.1156107124766184e+00
    1.5097931234856162e-02 -2.1811203888429631e+00
    1.4922185866499786e-02 -2.1531939272337626e+00
    1.4927244895829679e-02 -2.1016785617583125e+00
    1.4772446664022441e-02 -1.9563341035256925e+00
    1.5076190617669214e-02 -1.8532304676460105e+00
    1.5805165614194632e-02 -1.8320128810137932e+00
    1.7246456374401805e-02 -1.9668988224661748e+00
    1.8973206570941412e-02 -2.1475290677507042e+00
    1.9789270930580753e-02 -2.2274083977478534e+00
    1.9725156636340904e-02 -2.5464002952333198e+00
    1.9349476154758440e-02 -2.5063147308601166e+00
    1.8245843756472167e-02 -2.3650727200837141e+00
    1.6753596909768204e-02 -2.1323700158001206e+00
    1.5862173868695005e-02 -2.0030942020709603e+00
    1.5360710621834943e-02 -1.9759525900763513e+00
    1.5283930206906693e-02 -2.0147201298645849e+00
    1.5178255046980112e-02 -2.0001268148482203e+00
    1.5390362009806383e-02 -1.9839044105129895e+00
    1.5525201513737350e-02 -1.8956575849569648e+00
    1.6050578040256974e-02 -1.8279107791147244e+00
    1.7126616196627625e-02 -1.8551737223907487e+00
    1.8379413051569881e-02 -1.9531356441467673e+00
    1.9595362555204322e-02 -2.1111924481143998e+00
    2.0456887633316878e-02 -2.2372113535047871e+00
    2.0002597934915801e-02 -2.5006161033290115e+00
    1.9849916480763938e-02 -2.4337141584137139e+00
    1.9024693891202482e-02 -2.2791739913085896e+00
    1.7904506713464208e-02 -2.1016477799579905e+00
    1.6773299003215079e-02 -1.9259072171832778e+00
    1.6026204644497000e-02 -1.8582429958455069e+00
    1.5840516395383999e-02 -1.8816908294906785e+00
    1.5950286292756580e-02 -1.9117009060277961e+00
    1.6228235461193917e-02 -1.9016069539741198e+00
    1.6653053997258409e-02 -1.8583711416345252e+00
    1.7395727298013579e-02 -1.8413526073458155e+00
    1.8599760259266553e-02 -1.9086016182954029e+00
    1.9813466521516210e-02 -2.0449530244110039e+00
    2.0344644073645834e-02 -2.1540648878038597e+00
    2.0807774526149295e-02 -2.2614519254716554e+00
    2.0305422919963380e-02 -2.4647748542119197e+00
    2.0151042227947620e-02 -2.3534222275211025e+00
    1.9785019767879657e-02 -2.1999087527844403e+00
    1.8838371785982303e-02 -2.0118701024875709e+00
    1.7926311647770109e-02 -1.8615208792030202e+00
    1.7325710431120071e-02 -1.7971776188044928e+00
    1.7277423973142667e-02 -1.8383222875438929e+00
    1.7487553439100138e-02 -1.8833895702446690e+00
    1.7925854698754386e-02 -1.9145017166201652e+00
    1.8331513110368857e-02 -1.9081259226054494e+00
    1.8968683794278015e-02 -1.9250631234842741e+00
    1.9698531035748510e-02 -1.9757664054817192e+00
    2.0021025157588832e-02 -2.0441669558857365e+00
    2.0257987819252872e-02 -2.1479753607743972e+00
    2.0498706919777506e-02 -2.2611995080598266e+00
    2.0581088028330141e-02 -2.4589251663283784e+00
    2.0599293964839133e-02 -2.3576733395868414e+00
    2.0314078136955550e-02 -2.1859054478606588e+00
    1.9813952061525312e-02 -2.0093405330942771e+00
    1.9302687971272343e-02 -1.8750012529105642e+00
    1.8970684252923128e-02 -1.8192754040524919e+00
    1.8861476409445257e-02 -1.8386296212125603e+00
    1.9092744334411906e-02 -1.8920558977019868e+00
    1.9284624354946236e-02 -1.9205360762759027e+00
    1.9335753412128134e-02 -1.9144600080422423e+00
    1.9241391073052869e-02 -1.9012541595945880e+00
    1.9289324531577161e-02 -1.9371722564487539e+00
    1.9349777977186382e-02 -2.0107164315299113e+00
    1.9565845444256880e-02 -2.1339782387765309e+00
    1.9723675223046876e-02 -2.2356767128456734e+00</input_scale>
  <output_scale>
    5.2631578947368418e-01 4.9999999999999994e-01 5.2631578947368418e-01
    4.9999999999999994e-01</output_scale>
  <inv_output_scale>
    1.8999999999999999e+00 -9.4999999999999996e-01
    1.8999999999999999e+00 -9.4999999999999996e-01</inv_output_scale>
  <weights>
    <_>
      7.1819518319621509e-02 -1.8471805806494601e-02
      4.8814142051141068e-02 -9.6112415587485567e-02
      8.5590399517180074e-02 -3.7523816951541493e-02
      1.7747038099905887e-01 -4.3741026297823518e-02
      -1.8741658232608358e-01 2.9531678515893899e-02
      7.2824485737291098e-03 -4.9167376554957724e-02
      2.0223384052659468e-01 2.9830436727362120e-02
      -3.9581574275975452e-02 -3.2512472250646557e-01
      6.7205624438846381e-02 -6.4202805010800695e-02
      -2.0325025390848812e-02 -8.3724331549031902e-02
      -5.0437767780307702e-02 -8.1970699572086997e-02
      1.7365352466816444e-01 -1.7629022339283040e-01
      -1.6219243745783316e-01 4.8936149195922561e-02
      2.4196235637160272e-02 -1.9635217918599849e-02
      -1.9200735992746712e-01 2.6790445745538995e-02
      -3.6661446017309807e-02 -1.7736379010439750e-02
      -1.1184643697579483e-01 2.6772346999711996e-02
      9.7919694937016563e-02 9.1586207261062105e-02
      -1.6925275408023205e-01 -8.4729442171696631e-02
      -3.7031444979794451e-02 9.0184811425512816e-03
      1.2671688510563795e-02 -1.1376788301173879e-01
      1.1285990696154853e-01 -1.2346354144224171e-01
      2.2614730853909967e-02 -7.8590600892365619e-03
      -8.3721388153572066e-02 1.1893206907614566e-01
      -1.6091349773123296e-02 -2.4513862007028669e-01
      2.3116790144886584e-02 -1.1261208695050495e-02
      3.5579603025467928e-02 2.6325495159356851e-02
      -1.5387414777019065e-01 -1.9948578427670938e-01
      2.3174780710656734e-01 1.7445581982666034e-02
      1.6217837006129862e-01 -1.5641729002547700e-01
      -1.4891731231095584e-01 -1.5227594012929874e-01
      -1.6247345273626648e-01 1.5235245449258542e-01
      1.0159931977247577e-01 1.1280586348072409e-01
      9.2310152320388653e-02 1.4257556110535360e-01
      -1.4147655981381710e-01 1.8417318224975751e-01
      1.0554925188270824e-01 1.4695386683967288e-01
      1.5611461476003696e-01 -1.9549070615504771e-01
      -8.8702221257771330e-02 -2.7340064387028856e-01
      1.2984517957407182e-01 1.9932373155152786e-01
      1.1952901655801447e-01 7.1899385090596776e-02
      3.4097807624673189e-02 -9.3031903303902888e-02
      8.8792637340789668e-02 1.0939781010318754e-01
      2.0366984275891531e-01 2.4213735578170900e-01
      -3.8742480119336642e-01 -2.2129275299026743e-01
      1.4133172094516394e-01 1.6046608679462032e-01
      -8.0011678712073306e-02 4.5017716839810332e-02
      4.0383351209879924e-02 9.4748946063779579e-02
      7.9140686756346681e-02 -9.8333995979643082e-02
      4.1023830875632092e-02 2.0312130830014136e-01
      -1.3490944552880108e-01 -1.4634582916192079e-01
      -2.9185298533163345e-01 -2.9113248048907919e-01
      6.6973640312835037e-02 -1.4081727330938063e-01
      -7.8426627656751707e-02 1.2706045462780714e-02
      -2.7043720445543301e-01 -1.6350960394735978e-01
      1.6612682676000110e-01 -2.0323007876924836e-03
      -3.5415478784623575e-03 -1.1281460931623770e-01
      3.5882477623982202e-02 -2.0204915226483680e-01
      -7.7780370856553135e-02 1.8457928548040506e-01
      1.8486002503060797e-01 -6.0858884221201212e-02
      2.5097828088022547e-03 -4.0958742890155392e-01
      -9.9105781179612440e-02 1.4493979919633845e-01
      3.0836993519498886e-03 -1.0445687186531934e-01
      -4.8974703324130711e-03 1.9947242919219565e-01
      -1.5593816641770425e-02 8.5620625421902064e-03
      9.4417790011014385e-02 -2.5295292242523404e-01
      7.0036152622621764e-02 -1.6782437286901111e-02
      -1.6420910052046656e-01 -5.2379924548160081e-02
      5.9998682882647432e-02 -2.3837784731459116e-02
      3.5699025038202506e-02 -1.5991285223898011e-01
      5.4523718129477920e-02 -2.0562894442172483e-01
      -3.8458560545250070e-01 1.3786311153128369e-01
      -5.3703295976281340e-01 3.4235228004134387e-03
      -3.9819359360248718e-02 -3.5175523389875556e-02
      8.1112446395774557e-02 -1.1577706432480393e-01
      -3.2066415014702386e-02 3.5527850325663683e-02
      -1.1970397138514385e-01 -5.4685919716283012e-02
      -1.1802475751083039e-01 -2.8440008200374961e-01
      -2.5934202438054783e-02 -2.7619979623698132e-01
      -3.0936766566711037e-02 4.6541802727339265e-02
      -9.2597114548407078e-02 -9.7727965954919629e-02
      1.2396389245657301e-01 7.4556323199052865e-02
      -1.1718305651628740e-01 5.0426825810374554e-01
      -5.7222232169767771e-03 9.5752490335824683e-02
      5.3769898662132151e-02 -5.5145993580112122e-02
      1.5433048073830397e-01 2.3539178674275931e-02
      1.1423006612604006e-03 2.5339228997890617e-01
      -2.6191838397354582e-02 1.6352873995382183e-02
      -2.0234397898739195e-02 6.1547223809289208e-03
      2.5924958614657001e-01 -1.7919406446397623e-01
      -2.1330129415605967e-01 -9.7538155308477259e-02
      -1.8237023215883191e-01 -1.5071426966916532e-01
      -1.0518054692795168e-04 8.7316671138148484e-03
      -1.5640578672021513e-01 -5.5996115087030472e-02
      3.3889027687776359e-02 1.8664535607982171e-02
      -5.4732146634901911e-02 2.1883196040304212e-01
      7.6852026133435898e-03 -1.7895189229136657e-01
      -2.0468727231362849e-01 -7.9473722588874210e-02
      -2.7708479023198423e-01 -3.8423175738747657e-02
      -5.7836829358903170e-02 -2.0808978847170240e-01
      4.6324430055765337e-02 -3.5564892935578837e-02
      -7.4794643579934816e-02 7.9585356245346267e-02
      4.1920454368834065e-01 -3.1840616911906275e-02
      1.5321828858916517e-01 -5.2569463591594756e-02
      -1.6671573085536476e-02 2.3419278353085204e-01
      -7.7588340816435305e-03 -6.3717451988217502e-02
      -2.2167480575384865e-01 1.5152582303284551e-01
      -1.7527989302800451e-01 -5.8219434135107273e-02
      1.3146870556168089e-02 5.2115627483577738e-02
      6.2547915393806408e-04 -8.5416380837681105e-02
      -1.9879045319140595e-01 -1.5410326615376996e-01
      -6.4066834576981757e-02 5.4366268929150821e-02
      -5.4127890027181942e-02 -2.6995365776255029e-02
      -1.2174964458855454e-01 1.2280772015178912e-01
      -5.4605799587778316e-02 1.2278585410987286e-01
      -1.1081368573379977e-03 7.8151578174724137e-02
      -2.8753894835891181e-01 -1.3040028262257072e-01
      1.3893991937052402e-01 1.5369406032888067e-01
      -4.3657185868176643e-02 2.2652656767560474e-02
      1.9766757560674772e-01 -9.4536642465751858e-02
      8.5357122473437075e-02 7.0455482711293746e-03
      2.1603861934863941e-01 4.3854680165221357e-02
      -2.6527737912707461e-02 -4.3061458390130836e-01
      1.0657105788604913e-01 2.1362481794576618e-01
      3.3411825205285400e-01 -9.3355485950483194e-02
      7.9441069505909370e-03 -6.2457207984461888e-02
      -3.3321208976598085e-02 4.9266318854773901e-02
      1.0318537072761574e-02 -2.7842122034309208e-01
      1.1490614805933111e-01 3.1524199702344408e-01
      -1.8982457957539756e-01 5.9447463756765004e-02
      1.6457530342392268e-01 7.5298595276130476e-02
      -4.8778072376087736e-02 -2.7167250403231764e-02
      4.7489423732897128e-02 -1.1633774392644414e-01
      1.0037794139914116e-01 -4.4905016629516847e-02
      -1.8709372410899236e-01 1.7867786929478938e-01
      4.2297165677892622e-02 -4.6782940779279948e-02
      -1.8890353987633801e-01 -1.2944843176699828e-03
      -4.8444396430089665e-01 -7.3653906771020447e-02
      3.7395534762186301e-02 -2.0888700556002474e-01
      -2.0141427263282011e-01 2.0434800793709509e-01
      4.4004172270872610e-02 -1.0111520157426156e-01
      3.2951453026714023e-01 -8.0595232280606791e-02
      1.7465862587188719e-01 2.0604929046669709e-01
      -1.7308336360869733e-01 -2.4501213761201843e-01
      -2.2480024256674620e-02 1.5986240012866713e-02
      4.4771979060524636e-01 4.8503883285267009e-02
      -4.8473739238939335e-02 5.7910626473524967e-03
      2.5602312964972798e-02 2.7527223072016688e-01
      1.0846841779896264e-01 -8.2291865378337478e-02
      2.8519606500143524e-01 8.7603965109528184e-02
      1.2655131318242815e-01 -5.4234401373554154e-02
      -1.0478690155094835e-02 3.1258614250019690e-01
      3.8179680732204993e-04 1.1053471717413579e-02
      -2.8838029165015313e-03 1.3861316412840510e-01
      4.0341818794823003e-01 2.1806288986291428e-01
      -8.7863734050789163e-02 1.4573882721823536e-01
      2.8408240725436856e-01 -1.9033204236914619e-01
      -1.2235472911007095e-02 -2.7339159294610419e-03
      -1.4515436595610731e-01 -6.7430037918220775e-02
      7.3463543391138086e-02 3.7038774387673323e-03
      -9.7682651855803323e-03 -1.4761183433763789e-01
      8.6393257250467204e-03 1.4497490143924460e-01
      -1.3910826334327378e-01 -1.3379403037431280e-02
      -4.1517174186961775e-01 9.2481539037243612e-03
      2.0988848044128507e-02 9.6259003322647210e-02
      2.0832528124789312e-01 -2.1519059984348993e-01
      1.7475781897197559e-02 5.6880322205541720e-02
      5.2742053279245839e-02 7.0888934831254136e-02
      8.1785941239742102e-02 5.0281295108563016e-02
      1.8280683622518007e-01 -1.0692545925692400e-01
      -2.7692659287021602e-03 5.9836249620443663e-02
      -2.0677138718528468e-01 8.6625092705189671e-02
      -1.1925627409630442e-01 6.5515506589415323e-02
      1.1398684771089446e-01 1.2387174854864698e-01
      -7.2690446277844878e-02 -7.3404080292481175e-02
      1.5043353708680768e-01 5.6825960079843973e-02
      2.7383297039119757e-02 2.5856045597505099e-02
      4.1609405446595658e-03 -4.9833619260264077e-02
      5.0887504422781234e-03 -1.5343641439422106e-02
      3.4718745885623271e-03 2.2903173329617929e-02
      1.6620593351842666e-01 -1.9074809131480433e-01
      -2.6378984761374052e-01 2.4222976723371085e-02
      5.0069125146616572e-02 -3.7074576055072618e-02
      4.5531303664244030e-02 2.4151236881983618e-02
      1.1715916275903959e-01 2.4754375870842164e-02
      -1.4327603633020823e-02 2.9180067077281966e-02
      8.8139661529602464e-03 1.0037705737820246e-01
      -5.0341774263431881e-03 -1.2786466360725987e-01
      -1.8042230091507161e-01 2.7216667655460710e-02
      -1.7223752146398291e-01 -2.1509518816917168e-02
      3.8673685866631564e-02 -1.8155335714637219e-02
      -1.0112294401085713e-01 1.1074051109901409e-01
      6.3226130574643546e-02 -2.2742274237387552e-01
      4.6143510346397626e-01 1.6283999170896807e-01
      2.1406948084207636e-01 -1.3069618454408588e-01
      9.3596707613540872e-02 1.2313077010902511e-01
      3.3533911412735860e-03 -5.6788780351039465e-02
      -7.5580861537268007e-02 -1.1138414611291102e-01
      1.4227903250244478e-01 -7.9381220789452908e-02
      -8.1943920016950555e-02 -1.1911832546999655e-02
      3.0546221374442482e-02 -6.8441938655351198e-02
      1.9766964367368947e-01 5.9804318333540891e-02
      4.3389931152343006e-02 7.6643510259623127e-02
      -8.6890344272124789e-02 2.2258136529583018e-02
      -1.5081787867427973e-01 1.6465288691219176e-01
      -1.1569671883946175e-01 6.2322865429491038e-02
      1.0227905207266652e-01 -1.5402679033695802e-02
      -2.8208008624721947e-01 -1.1758863929871745e-01
      1.6492045793572666e-02 1.6565129704024234e-01
      2.5802950643380757e-02 5.0838696395897037e-03
      6.6861141591779666e-02 -1.2973920897031793e-01
      1.2615418676920370e-01 5.3968425023334231e-02
      3.1943346686178686e-01 2.6899873867249242e-02
      -2.8121540102876017e-02 -1.9685287166623747e-01
      -1.5397827027823952e-01 -3.1735180435969761e-04
      1.3296662531274426e-03 4.8075472866920432e-02
      5.3948784455402242e-03 -5.9819267298640920e-02
      -5.0972421092259163e-02 3.9511123019417983e-02
      2.0981520992505547e-02 -2.9743883529266747e-02
      2.9555169091403077e-01 3.3439561800536405e-01
      1.0042673491319844e-01 -2.5835536172158247e-01
      1.0839957897944738e-01 2.1461988421502340e-01
      2.3484858141313056e-02 -1.0858024373475264e-01
      -1.1843211364946905e-01 -2.3275247884502283e-02
      5.6481485611965560e-02 -1.4417581888808120e-01
      -3.0324243118880395e-01 -4.8373469545220690e-02
      1.8872385983752135e-01 -1.5235313071121981e-01
      -3.7167893822620868e-01 2.3994373189784918e-01
      -2.2641853040473944e-02 6.5614037842014750e-02
      -8.5444836351413297e-02 -2.4962779157367318e-02
      -3.4012990746301830e-01 3.6455153502180998e-01
      -8.3970979719229205e-02 1.8552083579495521e-01
      1.2363785023966692e-01 -2.9774169398944544e-01
      -4.8967064275187662e-02 9.3834643320486757e-02
      -2.1330022788932784e-02 4.6520616207172474e-02
      8.5707626394671249e-02 -6.3579230595000077e-02
      -7.4582153950009250e-02 -1.3326787538265594e-01
      1.2892000540775900e-01 -7.4283531722138224e-02
      4.2286724977228712e-01 2.1405616616697706e-02
      -3.1117999394213225e-01 -3.4212027580607801e-01
      -9.9209716189820329e-02 -1.0039182180723859e-01
      1.5980805981885671e-01 5.0098379862090925e-02
      -2.0135181196784015e-02 -5.0509046411292863e-02
      -1.8882897585857183e-01 2.1183093163600125e-01
      -1.9674409127324502e-02 1.0404428353969117e-01
      4.1683978294360663e-01 -1.3371224944020845e-02
      -2.2013262980503631e-01 2.9882744205532930e-01
      -8.5295132973550680e-02 2.0467993208594235e-01
      -6.1533203233856269e-02 2.2134023342905366e-02
      4.6235870244694305e-02 -1.3140075876458526e-01
      1.1519549607131613e-01 4.8603322719397671e-02
      -1.0908431467561808e-01 5.4967795897804539e-02
      1.8539030957798788e-01 3.8214699301498158e-02
      2.2985477400901313e-03 -9.6042010214090548e-02
      -1.2674181877259336e-01 -9.4805052097790013e-02
      9.6244265895464712e-02 -1.2434988893996436e-01
      1.4772222705629398e-01 -1.5697938129414901e-01
      1.0299468072018425e-01 -9.6519448960887960e-02
      2.4945750682965528e-01 2.4759516988427530e-01
      -3.7836188695159596e-02 -7.0946960929138700e-02
      2.1541493557373653e-01 -2.4572061175024662e-01
      -6.4061011275606067e-02 3.7542185279269467e-02
      -3.2698257951911301e-02 2.8025685754493135e-01
      -3.1452330800573186e-01 6.0681513325001248e-02
      -6.9031273955956915e-02 1.7355590911166183e-01
      -1.9070374542984408e-02 7.6965787187414564e-02
      1.3782238782853649e-02 9.3259746933591015e-02
      -4.7329265285784961e-01 4.5023319535420367e-02
      -1.7546090573357567e-02 -4.6614337195124556e-01
      2.4272577159730999e-01 -2.4938222847229188e-01
      -4.6777131899369648e-02 2.6054463121769283e-01
      -2.4442654516443474e-01 -3.3362983427702823e-03
      1.4572247501129600e-02 6.2161115343127883e-03
      2.1770211732120648e-01 1.5317264383743009e-01
      -6.1510369886581769e-02 4.3412786680460766e-02
      -3.6819140163219083e-01 -2.7424187468146261e-02
      4.2279364795402813e-02 4.0468138828732951e-02
      2.9772345600594680e-01 1.4402684597169269e-01
      -5.1702548442893972e-02 6.6299378804291598e-02
      1.5216084801885030e-02 1.4308484997388748e-01
      -1.2913291885197012e-01 1.2090695788602755e-01
      3.2056343680842279e-02 1.5142514828693301e-01
      -3.7695531336453668e-02 4.5396027982408479e-02
      6.8968452712345779e-02 1.5060548665453849e-01
      2.7550581825721628e-02 4.6829005430647106e-03
      -1.4145987626116988e-01 -1.1507099749474768e-01
      2.1804552166004562e-01 -2.7125389907763420e-01
      -6.6321384025304769e-02 -9.8788210686110624e-03
      1.0588477556216187e-01 7.1983520717098778e-02
      -8.5009997382482577e-02 -3.3576113767958417e-02
      2.5162080664420113e-02 8.7120672330809043e-02
      -2.7776401746911098e-02 -4.5550162724374683e-02
      -3.3230049045457294e-01 8.3912525047528469e-02
      2.9148413971898635e-01 5.0513666015041460e-02
      -7.0368309736547327e-02 2.6642923299318683e-02
      -9.7400251132712529e-02 9.5224620270068172e-02
      -7.7621438655811267e-02 1.0046937401566070e-01
      -3.3364612488162376e-01 -1.6601416878929787e-01
      -3.5559663181550144e-01 6.5122272206211723e-02
      -2.3288044276059773e-02 1.0762916697959701e-01
      1.0135599149229464e-01 -6.2275769766082102e-02
      4.0740666688437446e-03 -1.0807988212840579e-01
      1.1808662192779870e-01 -6.2067659116537215e-02
      1.2800471800782612e-01 1.2237929260133081e-01
      6.9088062796320460e-02 -8.0234617384121673e-02
      -5.5000642730464205e-02 -3.2062302351408285e-02
      5.0598399667000110e-02 4.7668607549677215e-02
      -2.8016695513445902e-02 -1.4790466419726156e-01
      5.6208026844154629e-03 -1.2147755461785328e-02
      -7.9324379567547645e-03 1.7473575943522623e-02
      -1.3159695927960272e-01 1.3514270363258037e-02
      9.5595786828680918e-02 4.0586772045720636e-02
      -1.0724982877978480e-01 -2.3784851021022643e-01
      -3.4477318127085863e-02 -9.1100139714419798e-02
      -2.0271903349731202e-01 -4.4247114508337307e-02
      1.5889224644005672e-02 -9.6319519543082849e-02
      -7.6522902218408143e-02 1.3532513557516004e-01
      -4.9362850227608474e-02 -2.5516815692229862e-02
      6.9756653605986332e-03 -1.3894430604098543e-01
      2.1244351299928070e-02 4.8951613201944293e-02
      -6.6592199953520059e-02 -2.7428695304518691e-01
      -6.3630974497763740e-02 7.5342263606761189e-02
      -7.1710140509785372e-02 3.7172412460952287e-01
      2.5197483203601490e-01 -1.4689169811152722e-01
      -2.6719838403713320e-01 -2.0493825318799799e-01
      6.1425045510390157e-03 -1.1976523835559437e-01
      1.5983137954822149e-01 1.2579276457099872e-02
      -2.9952885352496167e-01 -2.4833854737391517e-01
      2.4662236319355507e-01 2.5988408320792893e-02
      5.7536001929983971e-01 4.6099638116871799e-01
      -3.0439254766730175e-02 6.6209271378648057e-02
      -4.1003588328502989e-02 2.4556864954792406e-02
      1.9016367486049648e-01 1.3281240484305712e-01
      -3.8666717816054574e-02 -3.2684125252066831e-01
      -4.1982706530274616e-01 4.4606127640638410e-01
      -3.7210553385849526e-02 3.2555434600490496e-01
      6.9003951533434540e-02 -4.0266052995861901e-01
      -2.4516125415428505e-01 3.1738551423101857e-01
      2.6788638828242860e-02 -4.4601755204000199e-01
      1.5020408165580831e-02 -8.6021103678385946e-02
      -1.1814981894415415e-01 4.2344924334929250e-02
      -4.3242948874753523e-02 -1.1465693502276456e-01
      -7.2866289978846061e-02 3.2297646690465243e-01
      1.8107654615123130e-02 -3.1420915741423872e-01
      -1.4603786164322372e-01 -1.1305037085366007e-01
      -1.5572834617693895e-01 -8.3309937475359405e-02
      -1.2611933226397849e-02 -1.1825532460516899e-01
      1.2814531380118821e-02 5.4558574535567639e-03
      3.1694320878036795e-03 -1.0674997276241951e-01
      5.8180265858766655e-01 2.5133100811515596e-01
      6.4726636425373019e-02 -3.2131842872273886e-01
      1.0735545574431680e-02 3.5305134434564650e-03
      -1.0631898433188794e-01 5.0840302125856732e-02
      -6.3824448330012620e-02 -1.7654389978380650e-02
      6.1660191703742573e-03 5.4453446229464915e-02
      8.3822551235394255e-02 4.2916979747837487e-02
      -2.1253319177494338e-02 1.4542455846888572e-01
      -1.3841794425946224e-01 1.8761963459180717e-02
      -1.3205090275038844e-01 -1.0034558211821938e-01
      1.5209511109549557e-02 9.3372084115091510e-03
      -4.6950620560197165e-02 4.9072828584710654e-02
      -2.7036465098367971e-05 5.7779490639165827e-02
      3.4581475904569453e-01 -3.9937639760353569e-02
      -8.1335110793191043e-02 -3.1871301873149455e-01
      1.4843905861069173e-01 -3.5042028609151829e-02
      -7.5134735043007841e-02 -1.7391820884014326e-02
      1.9076276280103038e-01 1.4990002001910563e-01
      -1.5708739885850184e-01 -1.0398286577976446e-02
      2.1145054012117984e-02 1.7425872710994678e-01
      2.2946228306030975e-01 3.5321279126511791e-02
      -6.3630689489753011e-04 2.3106399166073066e-01
      -3.4107445784559470e-01 -6.3596586899397067e-02
      -1.6763854544644047e-02 -1.4822605975393710e-01
      -5.3221432532622789e-03 -9.6247257709205386e-04
      -2.9311271844206808e-02 1.0180726631490603e-01
      1.0589139616732485e-01 -1.0689488803905291e-01
      2.2385095480007240e-02 -6.1963965120085389e-02
      2.8600519111663347e-01 1.1849180201693989e-01
      -2.3606072083245756e-02 -4.2483778652242683e-02
      9.2417946437872822e-02 -1.5820085599102099e-01
      1.6220567109991146e-01 -5.2757764598413852e-02
      1.3400477563894259e-01 -9.6642230955452005e-02
      1.0919419826749492e-01 4.8615409671480925e-02
      -1.2554274736649007e-01 9.4974929519646437e-02
      -6.2110667570011444e-03 -9.7641886761277205e-02
      -6.1253185309252285e-02 -2.0573763567178732e-01
      -1.1307863262911480e-01 1.1483571145628155e-01
      -9.8468471899267232e-02 -2.5716210662586923e-02
      1.6350207106806122e-01 -1.8317702711017268e-02
      -9.1394287022386375e-02 9.0304394103015384e-02
      1.1661042568247974e-01 -4.1806303273032253e-02
      5.0358452498898941e-02 -8.2655641143946718e-02
      -1.6097729027814195e-01 1.7257143069741457e-01
      -2.2123872009698017e-01 -6.5796579586876305e-02
      -4.1104256527944479e-02 -8.7737359701860140e-02
      2.4372702349038645e-02 -7.5358207550695971e-02
      -1.3750287217111670e-01 -7.9908000919800704e-03
      2.5262910476845396e-01 9.5668188522216424e-02
      -1.5107653741566418e-01 3.7949306433501161e-02
      5.8195211008490212e-02 -3.5991180266105302e-02
      -2.0555593682134055e-01 7.5687307072496726e-02
      3.4724393599984062e-02 6.5100148042094297e-02
      -3.7240841957475357e-03 2.0302415420526695e-01
      -5.5915114920836576e-02 5.1948733363542674e-03
      -4.8192178731898357e-02 -1.2740796027280635e-02
      -3.6889427420809626e-02 1.9631810096423996e-01
      -2.0862386107954697e-01 -1.1012497095986723e-02
      1.0032109296126017e-02 5.1594733172364446e-02
      -1.0371090007227246e-02 1.7867592637392657e-01
      2.7484440070925203e-01 -1.1717408580537232e-01
      -1.6721107743110798e-02 -7.5368351150341649e-03
      1.0719244558605708e-01 1.4793291887679852e-01
      1.1650043515441780e-01 -1.1391112325305122e-01
      1.3347906562342871e-01 1.6835298477051376e-02
      2.1381124310512786e-01 3.5440342594162366e-01
      -1.1698851666610577e-01 1.0100854671096852e-01
      5.5310097640958291e-03 -2.7830385753683451e-01
      3.9758048352790780e-02 -1.2511074266690769e-02
      8.7966248303730302e-02 -1.4439362988411106e-01
      1.7814965989989143e-01 -2.7939598695383663e-02
      6.0287772226833236e-01 1.3360843639537973e-01
      -1.6604098346756260e-01 1.5019550835019452e-01
      -1.8664815197842888e-01 2.3372952513954621e-02
      -3.5649415976443027e-02 2.1071916246636943e-01
      3.3176841222179045e-02 -3.8046060463403614e-01
      -5.1819993615701498e-01 5.3142945793367091e-01
      6.0930210492410382e-02 7.8096481644017191e-01
      5.1455219354443220e-03 -5.3599242529134261e-01
      1.5053799593087500e-01 -2.4969387874718391e-01
      -4.6282184268265122e-02 -4.8128679565256308e-02
      1.2719638255636753e-01 -6.4412527816551643e-02
      -6.0700955128974499e-01 -5.7198128328156694e-01
      6.3004221303780428e-01 -7.6941492216035329e-02
      5.3943738900578275e-01 -1.7796381037424880e-01
      -3.2191088041628391e-01 -1.0137010196371338e-01
      -3.9440496842931799e-01 -1.9860910467610762e-01
      2.8897424770969612e-02 -4.0049891532751167e-02
      -7.4401485912321028e-02 -1.9208369502821165e-01
      -3.3071299365395057e-01 3.5148045122691718e-01
      -8.7191055398927977e-02 1.6635077869992909e-01
      4.4156425719048442e-01 -2.4034186483412004e-02
      -2.5795709804829320e-01 -2.0292821342997908e-01
      -1.2590652435539725e-02 -1.1936349986645996e-01
      -1.6728795750698436e-01 -7.9841529053303745e-02
      -8.3867556902126397e-02 -1.3095889773998473e-01
      1.1023751756480542e-01 -8.4548690240108137e-02
      9.7482867063783202e-02 -4.5356108396670529e-02
      2.2795509986169774e-01 9.3181150951202579e-02
      -8.2089595373541241e-02 4.6433225806261136e-02
      -6.0522072097517379e-02 -7.0148514587044783e-02
      -1.8563574723066724e-02 -4.8780463432499107e-03
      2.2084596262964235e-02 -4.1589778638694896e-02
      -2.7868178049844722e-02 1.9137704040626893e-03
      -3.0520899470570262e-01 3.8376866318722630e-01
      1.8977276328820733e-01 1.3654245825396821e-01
      1.3415215085199253e-01 -4.2161425975955451e-02
      -4.9477006386129179e-03 -5.7537002464846596e-02
      -8.6142660080289007e-02 -7.1224405733193108e-02
      7.5805295329800473e-02 -4.8496497877339756e-02
      4.3961362902541844e-02 -1.5628674466876560e-01
      -4.1270965881774291e-01 2.5349718360816348e-01
      6.4130713638197070e-02 1.0153284747262488e-01
      -1.2218548711376870e-01 2.7436619561379549e-02
      -3.4773303307419109e-02 -2.1928639811509359e-01
      2.8756711964356883e-02 -4.4754830673055641e-02
      -3.8915515140201119e-02 1.7144550314179147e-01
      3.0988546369142256e-01 1.5740645775432058e-03
      5.6740482014614561e-02 -3.7598158708751959e-02
      1.3915275224028398e-01 -3.2190238005957311e-01
      6.0191547295464498e-02 -3.0534455973568603e-02
      2.7246839551533908e-01 -4.3976042463369149e-02
      7.3278203659455560e-02 -4.9346422279536360e-02
      4.0546634894401595e-01 3.9651819287399120e-01
      -7.0453176731643974e-02 -9.3158105054314544e-02
      2.8225637454949670e-01 2.5342045370233740e-01
      -1.9372148383453300e-01 -8.2653306773862956e-02
      -5.3968946551285112e-02 -1.6444528008105896e-01
      8.9152167282014499e-02 -1.1365783802255200e-01
      -5.6981811584775763e-02 3.7110567705283530e-02
      -2.7446889108499012e-01 8.4419307063791763e-02
      -1.6727914137769415e-01 1.9980857433215896e-01
      -5.6346547474989605e-03 -5.0869197647589470e-01
      5.0751770021323514e-02 8.0494971681473390e-03
      -3.3411002403855727e-01 -5.2619369278857749e-02
      7.2372272064082060e-02 2.6188092923961927e-02
      2.4620315099923809e-01 -4.2192226558407714e-01
      5.9942869625668254e-03 3.7974274280816228e-01
      -1.9794094716494612e-01 1.2028696876246404e-01
      7.1503969808137863e-02 1.1301290698742900e-01
      -1.1293923660381405e-01 -2.3504500236227804e-01
      1.6086118277764738e-02 -1.4657247566756385e-02
      -1.0766520835310690e-01 5.4040832018184715e-02
      2.5349609874451662e-01 1.0924676557783888e-02
      -4.2042185202767396e-02 1.0031679905366439e-01
      1.4631713174460370e-01 3.9393622078439418e-02
      5.0992922409379957e-02 -1.6062472190160954e-01
      2.6354999330540724e-01 -1.6377156624863634e-01
      2.0697501959696080e-01 -1.9628186591656391e-01
      2.4109413240469132e-01 7.6249536504306020e-02
      -2.4769833428988802e-01 -2.0441184521640346e-01
      2.4314538071583347e-01 -5.0671964103436419e-02
      -1.1180684155414551e-01 -1.3181298040862985e-01
      -2.5449852649209161e-02 1.3917552939410108e-01
      1.1913596454201039e-01 -1.5279202226481958e-01
      -2.6975454174564872e-02 -5.7095131896817634e-02
      4.8011948978531865e-01 1.6913302348151077e-01
      -1.6736646415946027e-01 5.6179176696039577e-02
      3.5636450986583417e-03 -5.8152097859337941e-02
      -1.1713173549454350e-01 1.1015442881390627e-01
      -1.5578649409836975e-01 9.3056528919868473e-02
      -1.1780945191430986e-01 1.3864080665512246e-01
      -2.5724372048755789e-01 -7.8712879774025399e-02
      4.1772350618196691e-01 -5.5643824093564637e-02
      -1.2897502381265086e-01 -1.0152436968434898e-01
      -1.8367563611979601e-01 8.9861860765790808e-02
      1.4691578701099350e-01 -1.5916638826944277e-01
      -1.4471154741007042e-01 1.8247556459719913e-01
      1.5265354176040780e-01 7.0417242058938512e-02
      2.5047944518306064e-01 1.1434485883036626e-02
      -1.7799635062161387e-01 -3.6551162650092661e-01
      -3.6006068331674553e-03 1.9549476313483460e-01
      1.0587038251357044e-01 9.9768258276687199e-02
      -1.0416736241736840e-01 -4.4965735185385713e-01
      4.7677924153372420e-01 9.9455801916903286e-02
      5.6793758843557274e-01 1.8937246478127073e-01
      -5.1548061410321178e-01 -1.0582634105220812e-01
      -2.0610246898018830e-01 -1.0871339105876898e-01
      -2.3981630695928898e-02 4.6139146543616963e-02
      -2.5408062801595072e-03 -3.4238817991733804e-02
      -4.2732196404676598e-01 4.5664633162436136e-01
      4.2586750345968115e-03 7.2667302158957514e-01
      9.4623139077159246e-02 -1.4517518622901754e-01
      -2.5148650267305106e-01 -3.3040516223001493e-01
      1.1663407870915889e-02 2.4306018095173676e-01
      -1.4015690676880813e-01 -4.3101381845831808e-02
      -2.7249816062515109e-01 -1.4940994402311675e-01
      1.3767575778270844e-01 -3.3410817072770362e-02
      4.0559128587577004e-01 2.6690658940630740e-01
      3.9769709881276083e-01 -1.7900108819824975e-01
      -7.8506160974207734e-02 -8.5579068088537866e-03
      1.5795315494458617e-01 -2.1873482038518566e-01
      -1.8490501076834767e-01 -1.7577538435860865e-01
      1.0327645018778951e-01 -1.1308957658169456e-01
      -2.0671558783481533e-01 1.6270621199724855e-01
      3.0173004698718076e-01 6.5119274039547759e-01
      -2.3826577994213494e-01 -5.8131985164801525e-01
      4.5335238562830560e-02 -2.3405596426810494e-02
      -1.8256825195259482e-01 -1.4383128935714343e-01
      -2.4082752266522147e-02 -7.7379777044011874e-02
      1.2937986495462370e-01 -2.0063681743378670e-01
      -3.3343045143988859e-01 -6.3746037101553091e-02
      6.0738481115022314e-01 -1.6677796301209688e-01
      -2.8802584398328368e-01 2.8689953765098675e-01
      1.9044625580054519e-01 4.2080220914238421e-03
      -1.4432227950073440e-01 -4.6039532069860539e-01
      9.4424686155258161e-02 -8.7592285299306960e-02
      -1.9542085884868660e-01 -2.4743473579463032e-01
      1.7975801157544494e-01 -6.4534705546024321e-02
      -3.2009439926755279e-01 -1.8977440023313175e-01
      -3.2076676881388988e-02 -1.2095615277303472e-01
      1.0439379848055710e-01 -4.1056114478784080e-02
      -3.0759663579056312e-01 -7.1112916994474765e-02
      9.2307569159956956e-02 -5.8525068608209371e-02
      1.4376753210807933e-01 2.0983372567385597e-01
      -2.3037836175617549e-01 -4.6087898969487606e-01
      1.2511932575789844e-01 5.5821416474967071e-02
      1.2279478493736183e-01 6.5098137288737562e-02
      2.8786004037953148e-02 -2.2177820388126315e-01
      -1.5293716217334068e-02 5.9198798797457245e-03
      5.0557492441903905e-02 1.8549815284935522e-01
      -3.2536806765923444e-02 -9.9859740346680562e-02
      1.1348232239747877e-01 3.6624998934330144e-01
      -1.2178859003248368e-01 -3.5359603266446488e-01
      -4.7794735018634904e-02 -3.5715831728481966e-02
      -3.1464550282198056e-01 9.0856780021357497e-03
      -3.8138945818680854e-03 -4.2333571609423054e-02
      1.5438208472589532e-01 -8.4991660970449925e-02
      4.1815106073492751e-02 2.0522735816432125e-01
      -7.1381184969615430e-02 8.7792577175676595e-02
      -6.9091577156142947e-02 3.6357925282154299e-02
      -1.7684531706541152e-02 -2.0451623270683705e-01
      -3.0748775727211190e-02 4.0627650386894081e-02
      -1.3588695136456518e-02 4.8417877617053497e-02
      -1.6984838958782605e-01 -4.3176814959490929e-03
      7.7232812189165487e-02 -2.5694348552948049e-01
      -3.1248481593324735e-02 1.3346680094436655e-01
      1.1368008428592197e-01 -1.3658351475462216e-01
      -6.0648475031103814e-02 3.7275047475368632e-02
      -5.9456471632329200e-02 -1.3874571955862924e-01
      2.7666712176989311e-01 -1.9179348594080037e-01
      -1.8868872077214754e-01 -1.2391825885133115e-02
      -2.3800467411489351e-01 3.3057157554912377e-02
      -2.2639307326977439e-02 6.0402873019911228e-02
      -2.2680955237917957e-01 1.8982860913672558e-02
      -2.7596439475413924e-02 1.1925445722248968e-03
      -2.5630140254571698e-01 2.2910074269124778e-01
      -1.2742149278317519e-01 -1.4863423475247289e-01
      -2.8549111250062037e-01 -2.9177695871490467e-01
      1.0917990488117153e-01 -5.7848872578366857e-02
      -9.3970148555128669e-02 -8.1764345239683608e-02
      -7.8066799369356038e-02 -1.1088207877229422e-01
      1.1504458129226738e-01 -8.7203799518995734e-02
      -1.7339633742422833e-01 3.7086790158230870e-01
      3.8772567938976693e-01 -6.3619678997452926e-03
      -4.5184160962077091e-01 1.6897793958223015e-01
      -3.0644621276002709e-01 -1.2420751397818017e-01
      1.3836593455443602e-01 -1.3336499574895572e-01
      2.1512295658318895e-01 -2.3925427343591824e-01
      1.8061993590947317e-01 -4.9366269976026950e-01
      -4.9518227089316066e-02 1.7628009917484436e-01
      4.2837901925367206e-01 -3.2434428410512994e-01
      -3.2741483616117546e-03 -1.6496407965568266e-01
      -6.9774531582351779e-02 1.5394663151054835e-01
      -2.3489213288856978e-01 -1.0370587623255322e-01
      1.1639932136428821e-01 1.6426577790057512e-01
      -2.5124184929443832e-01 -9.7848809463058378e-02
      -1.9044312497626770e-01 -4.5712607586103798e-01
      -4.3477434149853117e-01 1.3647753800906673e-01
      -1.2442685515254613e-01 1.5461716041163833e-02
      1.0809369275139630e-01 -2.4580851458488870e-01
      -1.8328123795293602e-01 1.9000794043750927e-01
      1.2748681818702895e-01 3.3222012566200992e-01
      2.3339585552039654e-01 -2.7382318119779392e-01
      -4.4723942200952937e-01 -1.0425649489055827e-01
      5.1846224076893965e-01 2.2154898018917190e-02
      4.4795584432502727e-02 -3.2089354816803237e-03
      -9.7624124786795732e-02 -4.0527212424977382e-01
      4.1246313062021200e-01 3.9073448469517848e-03
      5.0450028612766373e-01 -1.2634444044880150e-01
      -9.4221995693665725e-02 -4.2171330897521159e-01
      -3.3407241672563942e-01 2.7133407555692868e-01
      -1.3071601349666875e-01 -1.4988777029218783e-01
      -8.6066207269040379e-02 -2.3012838389495024e-01
      -1.6730488750830494e-01 1.8997910965804138e-01
      -1.1572168232614030e-01 3.0348621310201312e-01
      -1.0215742059821520e-01 5.7739091020486588e-01
      -1.5315546736211733e-01 1.6597885192614314e-01
      5.5955444637240823e-02 2.4271694559254844e-02
      -1.5568564761157266e-01 -1.0906078042543824e-01
      -2.8157239182753496e-01 -9.2746361764731569e-02
      5.2956818781484213e-02 -1.0713324372463601e-01
      1.2007745241303341e-01 1.5094714028221670e-01
      4.6746027175121085e-01 -2.8054148348885888e-01
      -4.7143900922496801e-01 -1.5590375607714144e-01
      1.7827043902388659e-01 -8.3076652438775572e-02
      -1.4927810355665638e-01 -1.0063010062687668e-01
      -1.5022032201334046e-01 1.4352242567415499e-01
      -1.6122720230688312e-01 -8.1475563701511725e-02
      1.2089556316205399e-01 7.7101519529699639e-02
      -2.4833530983438937e-01 -3.6201457464697973e-01
      1.5917906398656198e-01 3.8499198834947523e-01
      1.0759756063553487e-01 -7.2397568746552801e-02
      1.2789520949203628e-02 -5.3450198634063091e-02
      4.8618974290417741e-02 -5.7608133343731577e-02
      2.2367180174896330e-02 3.9149281885417281e-01
      -1.7648506019111473e-01 -2.7098361199767534e-01
      -3.4559734508481810e-01 7.8947955297506561e-02
      -2.1624791369582948e-02 1.8146179806927404e-01
      1.6394420239348791e-02 -5.1955293181996938e-02
      -1.0727482115326120e-02 6.8869227108149028e-03
      3.8637558659966806e-02 -1.9200163744892404e-02
      2.6143437883216392e-01 -6.8737495730759407e-02
      -1.9096869391904381e-01 -1.1998002912714177e-01
      -1.1722443859812415e-01 -2.6518945968941981e-02
      4.5379033080452741e-02 -2.1135782686370163e-03
      1.0846466150063427e-01 -6.8642480200225064e-02
      7.2410608162221848e-02 1.0214506645323747e-02
      6.4902377300281894e-02 2.0326714850623599e-02
      2.3351807523430204e-02 -8.9235223583332732e-02
      1.1093712501472743e-01 5.3568847393209874e-03
      -4.2162807647855644e-01 -4.8047725790357203e-02
      -4.5870442126211178e-02 -8.5056214755787549e-02
      3.6868286056740647e-02 -2.7796729206033183e-02
      -6.1657752223294643e-02 -5.2085121090234242e-02
      1.3792287597956690e-01 1.4535871205564382e-01
      5.0756105065898553e-02 5.9010371471126019e-02
      1.1545416074324343e-01 -1.6911146185237216e-01
      2.6682982010488455e-02 -1.7805675455095853e-02
      -1.8634455831623320e-02 -9.9741548069450223e-02
      1.1149986706855546e-01 -2.0270188776132077e-02
      1.3591531832224252e-01 6.8794722317962909e-01
      1.0582896025161423e-01 -1.8059291952169207e-01
      -2.6364487134007408e-01 1.3577523596814253e-01
      -2.1180108680494028e-03 1.1951411116493145e-01
      -1.2520923240477286e-01 -2.1622541461136385e-01
      -1.7996516939797379e-04 9.0008832332606290e-03
      -1.2514628708183270e-01 1.2132038540279318e-01
      1.8620492489648871e-01 5.7054216894517713e-05
      -1.5718764960997994e-01 -2.3868210774494102e-02
      4.2550106283345546e-02 -9.1355434663104154e-02
      2.2187394215776004e-02 -1.7662895970586101e-01
      -1.6392588646746473e-01 -6.4304303808064706e-02
      7.1586100598940078e-02 -2.0608257554826342e-01
      -5.7418785844197948e-02 2.2978960596393086e-01
      2.0709174450774490e-01 -2.6628669824009904e-01
      -1.2669820197946102e-01 8.5513632502387485e-02
      -2.1701828487037805e-01 -1.1682144984951943e-01
      -1.3051689593232610e-01 -2.3340611056500415e-01
      -7.4649148436613886e-03 1.4204127235882680e-02
      -1.7300479193141738e-01 -1.9203448102985635e-01
      1.2456776891182489e-01 1.7569375359421116e-01
      2.7286129695130568e-01 -3.0826944913090054e-01
      2.1562248964907077e-01 -3.7849429061200596e-01
      -1.2980022098351388e-01 1.0108828318558903e-01
      -1.7293196014726664e-01 -4.4135427433678188e-02
      6.1004619575275122e-02 9.2628953112453283e-02
      -3.6427248103047505e-01 3.3697721620262119e-02
      -1.6866012107900996e-01 4.6541465913865027e-01
      -4.1783953827780601e-01 1.7175057141786296e-01
      -4.2774842891602777e-01 -8.8877901220785524e-02
      8.2309282508626333e-02 -4.9616464489460971e-01
      -3.5800483683456354e-03 -3.6166920209937986e-03
      7.2652257929772160e-02 4.6358548952062248e-02
      2.8827685965774763e-01 -1.1289238464739168e-01
      1.0894625804575650e-01 -3.6828569852624449e-01
      3.1420102012713413e-01 -1.3743614725013650e-01
      7.8736292940308455e-02 4.5589627725213890e-02
      -1.2149890273373767e-01 -2.9133700486457614e-01
      3.1591669786017629e-01 4.8217684856128790e-02
      4.3824139711858962e-01 2.1205551367741546e-01
      -1.9492351273309505e-01 -3.1543297662918990e-01
      -2.3493972977398575e-01 1.3304212555914793e-02
      2.0912232130427349e-02 3.9344731137276575e-03
      -1.0763948015628759e-01 -2.5292837089313441e-01
      -1.3470532684821215e-01 1.3366746811509614e-01
      -1.2705219271401133e-01 5.1433540440242487e-01
      1.7298681597512189e-01 -2.6772334632321999e-02
      -3.0904625841451350e-01 -3.3957309316312911e-01
      -4.2890801338276260e-02 3.6794348682812067e-01
      -1.2576171530818298e-01 -1.1442425462016510e-01
      -4.1933599901626717e-01 -1.8242182398296156e-02
      5.0516885782200219e-02 -1.4263812477281482e-01
      -1.3484102769495859e-01 -2.8057469401695495e-01
      4.0836743855794644e-01 -3.1101491281561555e-01
      7.0223404714606608e-01 4.5009844717813628e-02
      5.8171925861082080e-02 -5.9368932358851795e-02
      -1.3466628897014266e-01 -1.1455900217842849e-02
      -6.2499497075885625e-02 4.5064955862134506e-02
      -1.3327387672097463e-01 -9.9165659737547318e-02
      -1.7437046543567492e-01 2.2259939917142268e-01
      -5.7851019443765850e-01 2.2081383232072690e-02
      -4.9901901000019497e-02 1.4141684073475064e-01
      3.2182969165712949e-02 -5.5526269301950912e-02
      4.2737829592043308e-02 -3.5607006346852133e-01
      3.9318144235252106e-01 -9.7815495042963871e-02
      3.6919268451197182e-02 1.2722253149610988e-01
      -2.6295881609312549e-01 -3.6548561316769429e-01
      -3.0448961927216550e-01 -7.7418375695780944e-02
      -1.3485112480572284e-02 5.7879704214920558e-02
      1.8250417181369709e-02 -1.9125125154960454e-01
      -2.8688763323184507e-01 3.0413956254810098e-01
      8.6542254736431141e-03 -1.5226052012576002e-01
      1.5214470249177364e-01 -3.7281666170946937e-01
      6.6374801543141862e-02 -7.6300194380635844e-02
      2.3467849499280546e-01 -1.2097411629999198e-01
      9.4107063137596286e-02 3.5115650488940303e-02
      1.2726637998530782e-01 -1.7606570617493982e-02
      1.7512497851418514e-03 4.7457505472464481e-02
      -2.2513221430468838e-01 -1.5742960571553730e-01
      -1.9593593635078710e-01 -3.4449121648231322e-02
      -2.7390220014267774e-01 1.4777101904083573e-01
      -1.4574959543051730e-01 -7.0039466271138197e-03
      6.6907872782912547e-03 -8.4198045350091108e-02
      4.5622622578171445e-03 -1.1895596106139810e-02
      9.8435473984551537e-03 -6.9653078607696164e-02
      3.1615499693072485e-01 4.0638842592937444e-02
      -2.7149234884296836e-01 -1.8181275302532651e-01
      6.8931317259639260e-02 -2.9832872072397332e-01
      -9.5143392092446044e-02 -4.1855129143877345e-02
      -8.7743952261757172e-02 -6.7077912300748332e-02
      5.6114109453586365e-02 -5.1832740189825192e-02
      -1.4656073967182115e-01 4.1587017804906690e-01
      1.2809474192451173e-01 -3.0741145084603211e-02
      9.4715744441325092e-02 1.7891456520004462e-01
      -5.6370681950070278e-01 3.5386297294528982e-02
      -6.4707970711497934e-02 1.2958426890442756e-01
      -5.5334875332071331e-03 1.0082857839314396e-02
      -6.1194567282983232e-02 3.3183586455470149e-02
      3.5114546806537728e-01 8.0165432706042414e-02
      -3.2744528674755374e-01 -2.9748767615920124e-01
      1.5290094675139018e-01 -7.5842632913764960e-02
      1.0383217359182401e-01 -1.0318223729792787e-01
      -2.7798111819938054e-01 -4.2091343321361219e-02
      4.8791379970196509e-02 -1.2008306702280340e-01
      3.5507753420557508e-02 1.7882703279807866e-01
      5.1302671907216442e-03 -1.9195951476137169e-01
      -4.6485106966862810e-02 1.2530412860041765e-01
      -3.3916688191326511e-01 -1.6967311817062843e-02
      -1.1743560113269115e-01 -1.3305006498183874e-01
      -1.0055366703929801e-01 1.1443749839754845e-01
      -1.2681315051345424e-01 1.0564637349858869e-01
      7.1719654158291579e-01 5.1998819907007977e-02
      2.6107799868645601e-02 7.3681170402535134e-02
      1.2730837873978376e-01 -1.1927049629661042e-01
      -1.2622745238307746e-02 -1.3538054685551754e-01
      -7.1176987485281756e-02 9.1100622136309442e-04
      8.1689808783912115e-03 -1.5395698478040254e-01
      -4.7269750442582949e-02 2.9592667206991130e-01
      5.8454137827936993e-02 1.6863062660710684e-01
      -2.5644059714431883e-01 1.2525410272022786e-01
      -4.4572536811449232e-01 -4.6435622183523061e-02
      -5.4971258434857825e-02 -2.4475255651038541e-01
      6.5369652939444703e-02 -6.9422764401271625e-02
      -5.2838225037945344e-02 1.8390555175434986e-01
      1.3619182759063383e-01 -1.5541896913755349e-01
      3.2542446223514587e-01 -5.7477533446037754e-01
      1.1921191388976203e-01 -5.0311376904699133e-02
      8.4193940875573262e-02 1.3283409943730637e-02
      -1.3415178568047653e-01 3.1325736459246627e-02
      -5.6409822800229804e-02 2.3844092803262697e-02
      2.4435397552364360e-01 -1.4674662406930167e-01
      -1.8900945418628637e-01 1.4627795245345301e-01
      -5.7066175868577074e-01 2.3427585673269435e-01
      5.6426201278152177e-02 1.0134608312723450e-01
      1.9164857210874464e-02 -3.2685582186733680e-01
      -2.5701151776506104e-01 2.6203074714094843e-01
      2.2219024884990668e-02 4.6360019680540809e-01
      -8.7056558582837128e-03 -2.9887082574362211e-01
      -7.1489422116659235e-02 4.2022482618316356e-02
      -2.3322862700120989e-01 -2.2843651953979412e-02
      1.0691538384865391e-01 -1.0602624919109513e-01
      1.6995896909672942e-01 1.0524777978139416e-02
      1.2601154015092044e-02 -1.1341241911592165e-01
      7.5722140949966071e-02 -2.6583764875009491e-01
      1.3136467690224300e-02 -3.3506160983603855e-01
      2.4334558366221726e-01 -1.8843439821610114e-01
      5.4702906983738775e-01 1.6744157337870842e-02
      -1.2975022014862245e-01 -3.1655524367978548e-02
      -9.9049899574906425e-02 1.1775513777019642e-01
      -1.5104327309186655e-01 -2.1876164230230119e-01
      -6.2210735513290134e-03 1.7387045809576959e-01
      -4.9829958569743577e-01 1.6894153820091284e+00
      -5.1695858526349732e-02 3.0257458208651555e-01
      -5.9765982526950825e-02 -9.4788302015090406e-02
      -6.3286392393577043e-02 -3.1775321642519443e-02
      -1.2115413590330917e-03 -1.0381520416982527e-01
      6.8596526346095629e-02 -3.0432250215610268e-01
      1.1759275630720400e-01 -5.0153498662472595e-01
      6.2858356849171182e-01 -1.7574120695771048e-01
      3.6256710235106498e-01 -1.8743086998587909e-02
      2.1051926553678536e-02 6.3854690475364474e-03
      -3.2692427494283699e-01 3.4308181247508202e-01
      3.9799153469646700e-02 1.6436310937824442e-01
      -9.4695679976965166e-02 -3.3840467620259190e-01
      -1.8253403386616213e-01 7.4309428119192361e-02
      -1.6601713991229872e-01 -1.8299219093110453e-01
      1.0137984208958312e-01 1.2460167673269941e-01
      5.2856899029494461e-02 -1.0523208264349082e-01
      9.3783721758049415e-02 1.6352119210140809e-01
      -1.6622176928495012e-02 -1.2733164024511590e-01
      -2.3983355095664485e-01 1.6160967144988125e-01
      -1.8119762578109405e-02 1.1518571070325798e-01
      -3.7487706866192355e-01 9.3320099172134019e-02
      1.0029829330130109e-01 6.5620752322571418e-02
      8.7871700933176752e-03 9.6473780069407551e-03
      1.2488050843747356e-01 1.3104612715215716e-01
      1.2666364269046328e-02 -5.4423578168499236e-02
      9.1515303354005512e-02 -2.8678898260365654e-01
      8.0374031769836249e-02 -4.5262030672153070e-01
      2.9666773181686524e-02 2.9839513882688479e-02
      -1.8181562642737079e-01 6.9856512308007809e-02
      -7.2315985978817859e-02 3.7634457673213384e-02
      4.7754848937866717e-02 3.5675359754746205e-01
      2.5618444319353129e-01 -7.9825576129807604e-02
      -3.8952291771751002e-01 1.1837865808925012e-01
      -4.1432262635611389e-01 -1.0728138792472197e-01
      -8.2470082511076362e-02 -3.4818918584433517e-01
      -6.3241743458070819e-03 1.3612589086832529e-02
      -1.0635720158234070e-01 6.2410258480606037e-02
      1.6194634129422850e-01 2.1580427080595874e-01
      -1.6701159219746131e-01 -1.9484959053536074e-01
      1.6672048018889083e-02 -4.1258040969866511e-01
      -3.8087371687838441e-02 -4.2235145394323201e-02
      -2.4174944049973626e-02 -1.2774333231979389e-02
      1.8079350749069752e-02 -5.6722676457229469e-02
      -1.2041734518527452e-02 2.0437953327728539e-01
      -7.2658915423656670e-02 -2.3905255317115218e-01
      -1.2884404325687512e-01 -4.9265119089951286e-02
      -2.0719603422388064e-01 1.9358475083445671e-02
      -1.0988598042168063e-01 -1.9652469263412364e-01
      -1.2842437911384456e-02 2.0919003976420877e-02
      -1.0256335398989411e-01 3.0250399032928161e-02
      2.6821620776848121e-01 1.3245609811019379e-01
      -1.8843121646495441e-02 2.7304897777980864e-03
      1.7085528434302844e-01 -1.3830030894927675e-01
      -3.9412506483899976e-02 -1.7422696290659090e-01
      -5.4981356030527666e-02 9.9064057725919918e-02
      -1.1916704312768986e-01 -1.9768095516107634e-01
      9.1875323346174126e-02 3.1375975365814607e-01
      8.8913265215774973e-02 -1.9692715416010539e-01
      -9.9029617563735683e-02 5.2321683653548383e-02
      -2.5313894865144859e-01 3.4546840326700683e-02
      -4.0229039937024258e-02 -7.4201844740243356e-02
      -1.4905953254058227e-01 1.3719988604578057e-01
      -2.0689643756187873e-02 7.3340486700378460e-02
      1.2595530939052518e-01 1.3661564467404241e-01
      1.6475899452074252e-01 3.9274861689578361e-01
      -4.2538061048041059e-02 -6.7279888035314483e-01
      1.2496328781364993e-02 -4.7094098980904650e-02
      -2.3057568657623595e-01 -9.7483503194494697e-02
      1.2896274518048220e-01 -8.7224071177514337e-02
      -1.0819239544475709e-01 -2.4485704009509562e-01
      -3.4850558835849287e-03 2.4319005297239416e-01
      -2.2756406885911593e-01 -6.5165309064406665e-02
      -4.8942513115376080e-01 1.7709724606802746e-01
      -3.6076816132007188e-02 -6.3013039917180061e-02
      -2.0900533177443209e-01 2.2893376028813839e-01
      -2.4722623417135180e-02 2.0472888796390853e-01
      -7.8925442429997494e-02 -1.2173135519110775e-01
      4.4387396708896781e-01 -2.0245270837561913e-01
      2.3914098868485806e-01 9.9551859249946528e-02
      5.1101019365874398e-02 -1.1107277138805054e-01
      -2.0595887682303640e-01 -2.2547750565592156e-01
      2.3950448877818206e-01 -1.3547392502214808e-01
      4.3534029669190732e-01 8.4014484679385715e-02
      -2.7027793890133545e-01 1.9735721843765971e-01
      -9.1175578953764741e-02 -6.3759947833669603e-02
      -1.0487229806455592e-02 9.4020856470511074e-02
      -1.4904746016789666e-01 -1.4995035251679018e-02
      -9.3210433293444153e-02 1.1278184300367425e-01
      -1.4657712422853061e-01 -2.3303459332676968e-01
      -3.1964963187192946e-01 2.2014594342656105e-01
      -3.8651073455577262e-01 6.6706857569514078e-01
      -1.7443256422669412e-01 -2.2072735837382482e-01
      -3.0182817736155963e-03 -8.0737788903811322e-02
      1.4719605395051349e-01 -2.4382834604287973e-01
      2.6514709652795548e-01 -8.5012422507996635e-02
      -2.0271307950262807e-01 -1.9667467674045322e-01
      2.2173574397865384e-01 -4.9676602860583263e-01
      9.6769450826306780e-01 7.1081192192674122e-04
      2.7750748836491435e-01 -6.2591626898986369e-02
      9.8210368100003671e-03 -1.0700672635898159e-01
      -2.3004439335100338e-01 2.4911514675066912e-01
      1.0647583479135388e-04 -7.7025074838078730e-02
      9.4268601751872461e-02 1.1650729303377587e-01
      -2.1241878073356321e-01 5.1092354952483787e-01
      -1.2989630229753685e-01 2.2812726736892650e-02
      6.9475194479026822e-02 1.0944656413190347e-01
      2.2738804547099761e-01 -1.5313197845941739e-01
      1.5884905415609496e-01 1.3136875591435723e-01
      1.2741916017696764e-01 -7.8334813667934589e-01
      -1.0876970254444551e-01 -1.4625323748990041e-01
      -3.3612675609828080e-01 -2.1134169508750569e-01
      9.1478517258080608e-02 7.3729345134343413e-02
      1.7323485310544398e-01 1.2012685596778591e-01
      1.6477377515207350e-02 -1.2163928640870155e-02
      2.0281284255320173e-01 9.6821639193400491e-02
      -8.9299171844164207e-02 -1.5126147548143543e-01
      1.4470808028327897e-01 -4.3982807235105142e-02
      5.6492659715013827e-02 -5.9963215841695373e-02
      1.0589067153068255e-02 1.1556357148871060e-01
      -3.2429925729847969e-01 -2.1253756878643770e-01
      2.3664807004146329e-01 1.3506972351197960e-01
      3.4586895842553778e-01 6.1425674108211248e-01
      -2.2035373928667331e-02 5.1883528823902736e-01
      -1.6329885246231385e-01 1.8963842297188360e-01
      1.0922891641584734e-01 -2.4329302442838437e-02
      -1.2797647903099535e-02 -3.8839324075977358e-02
      -1.0206628636136865e-01 1.0340675931143677e-01
      -2.6103912850923283e-02 2.2515041966013835e-01
      6.7225411899821119e-02 6.0225003545239977e-02
      -2.6479308186637528e-03 -2.2587107078820359e-01
      7.3273547379387599e-02 -3.6947447166134945e-01
      -6.0483529972695106e-02 -8.1358579271787052e-02
      6.1748138715569535e-02 -1.2898859093285797e-01
      1.5749167989090224e-01 -9.2952603456854063e-02
      1.3595641501683273e-01 7.7091277598417093e-02
      1.1267915924077365e-01 -1.4744871330003270e-01
      -1.7962040479857461e-01 -4.9718356922456471e-02
      1.7122392859119439e-02 -8.0347960198394186e-02
      -4.4990733188963121e-02 -2.5315180632521883e-01
      -8.0808181409076932e-02 6.5328475469990724e-02
      -7.1537712905693079e-02 -1.6106726791578438e-01
      5.3999194570516584e-01 -7.9806578999073050e-02
      -3.3220102349649228e-02 -1.6895739510396451e-02
      -5.1900116307416347e-03 -9.0520265139318688e-03
      1.0602617382201349e-02 -7.6608013720686846e-02
      -1.6951470915987246e-01 9.8753545458925035e-02
      -1.2230322940803177e-01 -9.8040017353011807e-02
      8.7511073228599551e-02 1.2080111022064023e-01
      4.6044513626758245e-02 -1.0652120170941988e-01
      5.1955273230527940e-02 4.0289950156748014e-03
      1.0725970269522905e-01 -5.2491278186070543e-02
      -1.0098508330334229e-01 -8.6348390552487317e-02
      -1.5043807947278781e-01 1.6950610162009233e-01
      -1.3298926054637294e-01 1.3624662728763590e-01
      -1.4463943631795942e-01 8.6378558714245254e-02
      -7.6008994779040592e-02 7.3278497351106725e-02
      1.0873683680386983e-02 -1.4284115455416577e-01
      -7.1295093145631788e-02 -6.1833259324970899e-02
      -2.0294986574594426e-01 -3.8985927389649809e-02
      2.7067888646638501e-02 -7.5124925869571937e-02
      3.6675848926134380e-01 3.0682758216651307e-01
      -1.8335465106013710e-01 -3.0721689732022789e-01
      -7.6385575015938428e-02 1.4867494368173828e-01
      -3.9452384656104766e-01 -4.7399324333681714e-02
      3.5751302245973062e-03 -3.1750319489439521e-01
      -7.3694940906411419e-02 7.0381980653268270e-02
      2.0047424868418148e-02 5.8100438802608990e-02
      4.6407394332243182e-02 -1.0008064411718203e-03
      3.2650473844599148e-01 -2.5211869677590404e-01
      1.1591787286838852e-02 -4.2674439179069740e-01
      1.3456509869920791e-01 -4.0291831248396137e-02
      -6.1831320471923176e-02 -1.3235323778626307e-01
      1.2715764682067995e-01 -3.4391688176450295e-02
      3.9101402696555343e-01 -1.3684011089893094e-01
      9.2614848338726741e-02 3.1477413968974005e-01
      -2.1936818642967243e-01 7.4687681144131629e-02
      -2.3266276107204008e-02 1.0687058027815982e-01
      -1.5598955461902017e-01 1.2548467090354537e-01
      -1.7427489215022604e-01 1.5925902596427119e-01
      -1.7272999245410553e-01 4.3345486840301589e-01
      -3.4657296865505083e-01 -1.8244340633210665e-01
      1.4263578535928556e-01 -2.6217820113697099e-01
      -1.5532593147206250e-02 4.2932786261238188e-03
      -4.0897542960162290e-03 -1.5052423074236956e-01
      -3.9676695219451760e-02 -4.8957032967464467e-02
      5.4168072036027477e-02 -1.6394762704378976e-01
      -5.9775352418395128e-02 5.2345389208367170e-02
      4.7957039410318050e-02 -4.0901457980360739e-02
      1.4151585910048456e-01 2.2737909596931182e-02
      -3.9303432617779133e-01 1.3293993199644935e-02
      -1.1030185720173748e-01 6.7900062280698064e-03
      -1.2024569365326374e-02 -2.2257080711579565e-02
      -1.1966301943208831e-01 1.5416190544193731e-02
      1.3028145788043144e-01 3.8155587654037572e-02
      -5.7843031432246272e-01 1.6290444411201457e-01
      5.8194984764663359e-02 1.3460821007699136e-01
      5.2521104625470515e-02 3.5290016456243592e-02
      1.3793705054620735e-02 -8.7871821863460362e-02
      6.9998653611371045e-02 4.3419996894929813e-02
      -5.6457533817871200e-03 -2.0024492989614701e-02
      -3.1025752395970732e-02 -1.6477369946812567e-01
      -1.0743913679985750e-01 -4.2433808675670197e-03
      -1.0912386831089277e-01 -1.7454746186520282e-02
      1.6250045008072816e-01 1.7039731272504460e-01
      1.0209216194942347e-02 -5.8412434534985281e-03
      2.1082134289922325e-01 1.6730497356005411e-01
      -1.5329999065810385e-01 1.2735026268286534e-01
      5.9112080057002317e-02 -1.2645405642241089e-01
      6.9530111447798651e-02 1.7164045860192223e-01
      1.3413891678270113e-03 1.4630933018317777e-01
      1.2612359324879105e-02 -5.2630184256790606e-02
      6.1082087049357740e-02 1.5038898763128042e-01
      -4.3738283881081669e-02 1.0226440060626195e-01
      -2.3284328612516547e-01 1.8491119627453231e-01
      -3.0598204708030069e-01 -1.5276965565399753e-01
      -1.9042633676470519e-01 3.6454042503685537e-02
      3.7944460933483477e-02 2.7473545372489827e-01
      -1.5012379764254422e-01 1.7174044651700776e-01
      2.8465123504123016e-02 1.2391406939766342e-01
      2.5410615152959282e-01 -2.3998520312581845e-01
      -1.0137814428404682e-01 -1.8437923347801702e-01
      -1.8216164078491462e-01 5.4867583934490691e-02
      -2.1694086535329286e-02 -3.9588611536943352e-03
      1.3623664085713225e-01 -6.5859090871707521e-02
      5.1486484786554626e-02 2.0808824581573928e-02
      1.5699370046494196e-01 2.3574268283988697e-01
      -7.5564513680276266e-02 8.1127815538299994e-02
      -6.8153142397052542e-03 -1.8170090907967976e-01
      8.5150715362880866e-02 2.1589669058203580e-02
      -1.7983129995534339e-02 2.4048655618463588e-01
      4.3629687869534434e-03 -2.3207773311505898e-02
      -2.8731663906249932e-03 -1.0526305423996185e-01
      5.2900352363497626e-02 7.3839681950848043e-02
      -1.2916745844816169e-01 -6.0649406467897368e-03
      2.3361134659666976e-02 2.2174860009800981e-01
      -3.2412282171572340e-02 -4.3717285651782931e-03
      -5.7522104846844190e-02 -2.9647440062007955e-02
      5.6509087016903749e-02 -1.8239542963159602e-02
      -1.6971007931276672e-01 3.5683603205321685e-01
      1.1998990650831400e-01 -1.3248168034686619e-01
      -2.4022578709042675e-01 2.1527287650591757e-02
      -7.7385501051971978e-02 -3.2107914032613732e-02
      -9.3824469271088326e-02 -1.0000027664172008e-01
      1.4248177863354819e-01 -1.4584017268756899e-01
      -1.1504300022303564e-01 3.1263570280009402e-02
      1.0570058140376486e-01 3.0846611733215557e-02
      -1.5021356015159429e-01 7.3979423487510479e-02
      -7.7450443273906364e-02 8.0882901651582503e-02
      -1.2683545470651231e-02 -5.8214650067987976e-02
      9.0058565306958202e-02 -3.8940990996661179e-02
      2.6266340474360318e-02 -6.2625313562339788e-02
      3.5350968764178516e-02 -1.3374827065673536e-01
      -3.7497341459370330e-02 3.7618320241379254e-02
      6.2824225536080539e-02 -3.0035623088462093e-02
      -1.9855879283374595e-01 -2.5215068357559638e-02
      1.0347322194952432e-02 -1.6911624145365572e-01
      -9.7839180033503503e-02 1.0809965880047653e-01
      -1.2314890366794970e-02 2.4487257407879812e-01
      -1.5312934143058560e-01 -8.1181247755680738e-02
      -1.5030467804889266e-01 -1.4315446482918504e-01
      2.2546240695226399e-01 7.3190300573332479e-02
      -6.8657939631045328e-02 4.3138910732025547e-02
      -2.5111841509540189e-01 -8.5542005699121033e-03
      3.1402399758402678e-02 4.9513618344986153e-02
      6.4066376415882267e-02 6.0899253884098636e-01
      2.2444249539533589e-01 2.2042593529010845e-01
      -2.3280199545776906e-01 -7.8910385028516696e-03
      -4.0185648747317976e-01 8.2566989540784383e-02
      6.0752031344558616e-02 2.4280475824964322e-02
      8.9434264450115888e-02 -8.3194335038456871e-02
      9.4222452527132128e-02 2.6728212440268478e-01
      -1.5959417163331005e-01 1.4145246596238181e-01
      3.6718542909657848e-01 -4.0938950241442879e-01
      -1.8416259732490989e-02 3.1320937182504455e-01
      8.3096133846573939e-02 -4.3959748000189187e-03
      -1.0845169617828322e-01 -9.4501726201077163e-02
      1.0178063500675705e-01 -9.3294566106194386e-03
      1.0291178410723785e-02 2.0192046706910477e-01
      4.6186618931789020e-02 2.9658814521349275e-01
      1.0665808729912628e-01 -4.8514159923156379e-02
      -1.3408566394604667e-02 2.9507660120490255e-02
      -9.8671128906858571e-02 -8.5685296565907718e-02
      -1.0745470207438335e-01 1.1075429044014105e-01
      -1.0725164765072211e-01 6.1215290622529346e-02
      9.5577867667645436e-02 -1.2588210136552710e-01
      -9.6709540238723760e-02 -2.3150465872225076e-01
      7.8367790733849862e-02 -2.1215620871492757e-01
      6.4426735214097378e-02 2.7036140880207149e-03
      -4.0365211805052759e-02 -1.9403694490642501e-01
      2.2448255486937668e-01 4.1886224808239461e-03
      -2.4755041802347295e-02 1.5056210231740580e-01
      1.5657742852831794e-02 -3.4635200082544965e-01
      -2.7069533163076170e-01 1.1193319285061230e-01
      3.6306458348945864e-01 -7.2035445013330160e-02
      4.5018853599653713e-02 3.2268149707497074e-01
      -1.3138053903275423e-01 1.4388446524466458e-01
      7.7950679878993415e-02 -8.9438623095694954e-03
      5.5341229210952546e-02 3.4150243954164293e-02
      -2.8475200594075506e-01 3.6612050483128773e-02
      2.0207373924128247e-02 -2.7480629144878772e-02
      -2.3658744400327534e-02 1.2479636706567909e-01
      2.3438589406213745e-01 -9.5604925503539342e-02
      8.6183511210189481e-02 1.2995205828388581e-01
      -1.6442070619410987e-02 -2.9232304400877346e-01
      5.4691348470198443e-02 -4.7069976551305571e-04
      1.0957036109984985e-02 1.8928096604600864e-01
      -2.1402183014826115e-01 1.4807931162044731e-03
      5.0514938485978808e-02 9.0856515128617088e-02
      -1.0060436044139859e-01 1.0843465583791238e-01
      6.3349728966450983e-02 -1.3236878788967724e-01
      -1.3473089817663664e-01 -1.0775208127988620e-01
      5.2304660714487569e-02 -2.0221776955311566e-01
      -1.6915295289110296e-01 -3.8978263359465576e-01
      4.1395579081841591e-02 6.6160730292334664e-03
      2.1066499370969438e-01 -3.0562145714064830e-02
      4.3526141769172938e-02 9.1609707745405923e-03
      4.3174226212530013e-04 1.3880624676073058e-01
      5.4820415483976259e-03 3.7551368445137040e-02
      -5.7351765479130269e-02 -4.1728311883843655e-02
      5.6376098319595495e-02 4.9866686345957298e-02
      -8.1854951668724491e-03 2.0646852589834672e-01
      -4.1569302261415364e-02 3.1864721993750199e-02
      -6.3433399423765153e-03 7.2518538874272939e-02
      -2.0464466511165272e-01 -2.8459211020789278e-02
      -5.2279486345696263e-02 1.7373438229272287e-01
      4.3556266613719509e-02 3.7321175614788726e-01
      -1.5802133220182701e-02 2.0829339647960465e-02
      2.8240773029955984e-01 -4.9826696768898379e-02
      4.8760298946099796e-02 3.0161970310773289e-02
      -1.5053569754957835e-01 1.3111925564239030e-01
      -1.5197540652355210e-01 5.8772875555254074e-02
      -3.4955590939371145e-02 2.3374634298406947e-02
      1.3142849909579518e-01 -6.9723324493729422e-02
      5.1996547717116315e-02 2.5090382598333966e-01
      -1.6850564752009498e-01 2.1801631509310876e-01
      6.5293982123276459e-02 -1.5917979555560696e-01
      3.3292472693146863e-01 6.5951361141902531e-02
      3.4681226668167064e-01 -1.3507011979641728e-01
      -1.4638313899926517e-02 -4.7365150264980400e-02
      1.3170031166017083e-03 -9.2752516564486038e-03
      1.4708878423085067e-01 8.3441373084948769e-03
      -2.2227207866963007e-02 -1.0104402061341958e-02
      -1.2572746744302019e-01 1.6122279241491697e-01
      6.4967174432346689e-02 1.1956383625582613e-01
      5.3408654423688140e-02 5.5408776103071052e-02
      -2.0041262274581309e-01 -2.1021798433826341e-02
      2.7583547569524219e-02 2.5395054274525936e-01
      -2.7414367417951551e-03 5.9783213391604488e-04
      4.8515287920655389e-02 -1.2568386399541352e-02
      6.5888452403404369e-04 -5.6846412242176833e-02
      2.0247666277818319e-01 2.2607123201074661e-01
      2.2456989639307732e-02 -2.0213485629670302e-01
      -7.1636849912372014e-02 1.3768004205480608e-01
      -2.0012701385715670e-01 -5.0277187622830975e-02
      4.4321278589866495e-02 1.7307583994136796e-01
      -1.3065872367650769e-01 -6.7197397460165523e-02
      -2.0009486223410453e-02 2.3460365836712280e-01
      -6.0596228437462811e-02 5.0122514215491472e-02
      6.9504047759474052e-02 -2.6835783774753215e-02
      3.8054863679745123e-02 -1.3008399828310560e-01
      9.6464257488856966e-02 -9.0350124934900883e-02
      5.5923513135799088e-02 -1.7577179776006180e-01
      5.0518448250277445e-02 2.3051506934086177e-01
      1.1349191529418450e-02 -3.6678323259738443e-01
      2.7914856403038063e-01 -4.9834979585296852e-03
      6.6922542155144774e-02 3.6035949231604802e-02
      1.3035127580324558e-02 6.0565539064262534e-02
      -5.9495622408684279e-02 2.4749597500574934e-02
      -1.1600845238851222e-01 -4.4990925242927096e-02
      -1.1148271664470352e-02 -1.7973083348774962e-01
      -2.3799480536631581e-01 3.0409039902442364e-01
      6.0142035750325736e-02 -3.6687497556752324e-02
      -2.7710660276940458e-02 -1.6383132026917374e-01
      7.0925178278391024e-03 -9.7026838880418451e-03
      -2.3571842909995325e-02 4.6101506464714288e-02
      1.8512572613842979e-01 -1.4926447276546226e-01
      -4.8454306931055857e-01 -1.1157181977749217e-01
      1.0088287360364745e-01 1.2829700042434733e-01
      5.7174262193968747e-02 -2.3682155753939841e-02
      2.9224735309383881e-01 -3.2707710741169294e-02
      3.2470161301454137e-02 -5.7001790896008868e-02
      2.5602306373028821e-01 -2.9908955600423581e-01
      -1.1621471946683284e-01 -5.6189533242181244e-01
      -2.6779752351708669e-01 2.5789687931297441e-02
      -1.0192201684784233e-01 -1.4728421556071394e-02
      6.8838153073603553e-02 3.6724281336790267e-02
      -3.2051104500648026e-01 3.5690457227164968e-01
      7.7575917636494809e-02 -2.4415173110037727e-01
      -9.5258531918286343e-02 8.6170571838678517e-02
      7.6967827633020996e-03 3.0751950506186190e-02
      1.3520334078177879e-01 4.7525679885617994e-01
      -1.0600952031949373e-01 6.2817886461916633e-02
      4.5765349147991907e-01 -4.6334047525800372e-02
      2.5664001507057714e-02 9.4112650742172371e-02
      -2.9542976800693660e-01 -2.8066747456310270e-01
      5.3696986587889031e-02 -7.7070254442681693e-03
      8.0007616444669957e-02 1.1646762528356215e-01
      -6.9257522038029457e-02 -1.1378794958420728e-01
      6.1446804039730442e-02 1.8737243164276263e-01
      -1.0242986238460221e-02 2.7993016697241184e-02
      5.1676102352576130e-02 -1.8371426358268830e-01
      1.6700297390725977e-01 -5.3636364784131058e-02
      5.2534561438616822e-03 1.0518909577166566e-01
      2.7482076354796969e-01 -4.6861740540869468e-01
      -6.1833620030939472e-02 -3.7308296308764505e-02
      1.2655373262780889e-01 5.0933801630949761e-04
      -1.4561195231345574e-02 -5.5497276727539908e-02
      -5.5033451812120361e-02 -1.8683031992345425e-01
      -2.7034039636240396e-02 1.4276362289080580e-01
      -3.6411071573408060e-01 5.3181114174395304e-03
      -3.7352568474815179e-01 -1.5476931783935983e-02
      -1.9746674284377770e-02 1.4521953133149326e-01
      2.0074340313619356e-02 -4.8631014775238728e-02
      -9.3249530059931972e-04 -9.4049042664958501e-03
      -1.9397056524814077e-02 9.4718765001772953e-02
      -8.6211993530343464e-02 -1.5322642375295836e-01
      1.1159959898477810e-01 1.4889654717247031e-01
      4.1155624785048174e-02 1.9045302101407785e-02
      3.5171587197567622e-01 1.5773440023094998e-02
      -6.5962025640402960e-04 1.7251044695813622e-02
      -2.7202726526625570e-01 -6.8828313026265672e-02
      3.3856358317533211e-02 -1.1814310476120631e-01
      3.4371255971149406e-01 1.4687252922334537e-01
      2.0228176593315808e-01 5.3449694791851445e-02
      3.7490147034194218e-02 2.8328779818456407e-01
      -1.1018592685293320e-01 7.5451940940802903e-02
      3.8355525809175055e-02 -7.2830446975718666e-02
      7.6225681187391592e-02 -2.4058307729751618e-02
      1.0668885274498004e-02 -3.2366665436031228e-02
      1.1595817140676128e-02 -8.1676899185439925e-02
      -1.2344111560701998e-02 3.3088654222643128e-02
      5.1298378788101862e-01 -1.3890118977734359e-02
      1.0969233931411271e-02 4.8302367996571248e-02
      -6.4945775044613439e-03 -8.5403578852893319e-02
      1.0456967132941490e-01 1.7912130562943995e-01
      -2.8771193041176812e-01 -9.5808776747034155e-02
      -3.2758768274276207e-02 2.3912793563620086e-02
      4.5966933176603266e-03 2.8386526769821008e-01
      1.1371229383233890e-01 -1.5264330388647560e-01
      7.4457527221291489e-03 -8.1790224746362841e-02
      3.8294063098465926e-02 -1.4286243953084937e-01
      4.4825829390570116e-02 -1.7639157327177232e-01
      -2.6991519487643036e-02 -3.2323743049978919e-02
      -3.5427056775545453e-02 4.0843152108672072e-02
      2.0602911582873595e-01 3.2702029769560534e-02
      -2.4962315076982437e-02 5.2794818752449492e-02
      -9.0710057664398949e-02 -1.8411348000363120e-01
      -6.5823799198186053e-02 2.8587648179583885e-01
      8.9139110588350542e-02 2.8440245765909221e-02
      1.0612356040027089e-01 -6.5917400821547484e-02
      1.0093297371889091e-01 -2.8997599186037382e-02
      -8.5925222901993142e-02 9.2845077887843921e-02
      8.8327737114256913e-02 4.7687569316876212e-02
      -2.2950871899424560e-01 -8.6414817022679571e-02
      3.4583472708033558e-01 2.2949283769837472e-02
      -1.9548562808622435e-02 3.8412622899238608e-02
      -8.9711368335229857e-02 8.7160913646217239e-02
      -1.0731633734465147e-01 6.6435699111254590e-02
      -7.7172853360037361e-02 1.0475497856818955e-01
      9.0123501181654492e-02 -1.2184491480285059e-01
      7.6777456426560912e-03 6.5206849466787439e-02
      1.9466719714802672e-01 2.7765987523811342e-01
      -7.9418699858811156e-02 -6.6486652908523486e-02
      -1.2930615462158514e-02 -5.7898683308644797e-02
      6.3761139542090978e-02 -9.4371711338586961e-02
      -2.4165737322339450e-02 -2.6769607198851453e-02
      2.7051879533244017e-01 -1.9779370053072290e-01
      -2.6732012101370428e-01 3.6925036008898793e-02
      2.7594638596301702e-01 -9.3137390939303066e-02
      2.6787898241522851e-02 -3.2635638293166281e-04
      5.2786698374628793e-02 -3.1400686645587379e-02
      4.0067067403943397e-02 -9.5886652128244973e-03
      -2.0419934822638311e-01 1.4348523615763886e-01
      2.6821631824362140e-02 -2.5225497652857010e-01
      9.3027473279442691e-03 2.0884597725574683e-01
      7.4147786115501324e-02 1.1573520076596382e-02
      -1.1264987814225230e-02 -2.1655578387523043e-02
      1.7487898435640789e-02 1.7888171523750548e-02
      -2.3495962973621071e-02 -3.4877991705093353e-01
      -2.2399540134950333e-01 4.1990905873761850e-02
      -1.0892287420977802e-01 -4.7913324039970909e-02
      1.6255975876155043e-02 5.8060904805284780e-02
      1.4452025490462511e-02 -1.8845946785163797e-02
      1.5220599526041151e-01 1.8577275410405869e-01
      -2.1902945638078539e-01 -5.1184541630589782e-02
      -3.5258217233921479e-01 -1.1078150792692947e-01
      3.4183915511108810e-02 -4.8499600402033405e-01
      1.1825855935422326e-01 -2.9160796178864984e-01
      -1.1723424255489621e-01 -6.2231390188723472e-02
      -7.3268235819987327e-03 4.9109536614275012e-01
      1.5399808875687773e-01 -1.6525238350101146e-01
      2.4859768222389032e-02 -5.0232462819530210e-01
      3.4426398696885879e-02 1.9832354579946765e-01
      9.0409623481224097e-02 1.1718370220370991e-01
      -2.3092214315508564e-02 -3.9118180053056378e-01
      -2.4603004332399470e-02 2.0704489140391229e-02
      2.1331259878418957e-01 -1.1024591777078305e-02
      1.3894006287077224e-02 2.4069301317553402e-02
      -5.7044635970421775e-01 3.3332528995383476e-01
      1.9680654766697758e-01 2.8015755585814001e-01
      7.6386255856042293e-02 1.4122794722628321e-01
      -5.3566522048209042e-01 -1.8666917898126269e-02
      -1.6696585706097576e-02 4.5077508468978525e-02
      -1.6320371892499633e-02 4.0525747459701278e-02
      -1.6553574109290703e-02 -3.7858164123867527e-01
      9.2577074834891346e-02 1.4429769496876202e-01
      8.6169927744465136e-02 -1.1641661983936307e-02
      -7.9421134860021385e-03 -6.2866083679171292e-01
      -4.3484562759207479e-02 -8.3436493634472336e-02
      2.2278150524575199e-02 2.1463683821118845e-01
      -2.2508866470006111e-01 -1.4649429502001843e-01
      -4.0735762036271904e-02 1.0976301846909256e-01
      -1.2090741943610012e-01 -1.1549893752571724e-01
      1.3842642403355540e-01 8.6685855687078206e-02
      -3.0502542498156848e-01 -1.5541091974880395e-02
      -2.8648264832259202e-02 -1.9486238574187117e-02
      7.4995285772223932e-02 -5.4928665914971128e-02
      -2.8771887560087861e-02 -2.0191945101184108e-01
      3.1084976845918166e-01 -1.0871013640320135e-01
      9.4278793771817762e-02 3.8480952334298435e-01
      5.8339939970427572e-02 6.7314169177836683e-02
      4.9608490496687425e-02 2.0524035758119754e-02
      7.6401385528386448e-02 7.2979041534052935e-02
      -8.2982377106083846e-02 5.9582472985254195e-02
      9.9633580626334553e-02 -2.6671359905958925e-01
      -9.5893881393813954e-02 -1.6625388218739604e-02
      4.3561856789964756e-02 7.7638590371459093e-02
      3.3408890481440717e-01 2.9427185094034150e-02
      7.1478668620765282e-02 2.3346983298217289e-01
      1.1881282220474056e-01 -8.9712348440619080e-02
      5.4002105991567725e-02 8.5437392620550140e-02
      -3.6275349370932369e-01 1.2730313292409962e-01
      6.1587058916998019e-02 2.6981018650736783e-02
      7.3223223509676055e-02 5.1839818627878165e-01
      2.0044099647205989e-02 1.2618920533649369e-01
      6.8904678987170165e-01 1.3900723716999402e-01
      -1.3942598954835761e-01 1.5669866445304628e-01
      -1.6509084233642871e-01 -6.9124656266378903e-01
      8.2329375875928715e-02 4.0177565962995970e-01
      -8.1177787421954761e-03 -1.1405059030458825e-02
      4.7645995760719850e-01 -1.4076461697506832e-03
      5.7643715377578446e-02 1.1492610779563621e-01
      8.2107967832883794e-02 -7.0228871623220598e-02
      7.3929173069172432e-02 -1.8832030512414666e-01
      -8.2031508631386404e-02 7.2395187462303529e-02
      9.2051316458687346e-02 1.6908905817280451e-01
      4.1994091895266115e-02 3.6149061302358521e-01
      -1.0683875445685938e-02 7.9018864971647382e-02
      -1.2113619844325295e-01 -1.9598402167686733e-03
      1.6563399517969809e-02 6.3194986844902323e-02
      -2.4065093435409093e-01 1.6635147716418750e-02
      -1.6493507318901899e-02 9.9883420509125631e-02
      1.1158618981373347e-01 2.2903288768642723e-02
      1.4429901928383221e-01 2.8139357458036883e-02
      8.9363888289367699e-02 1.3651095358135809e-01
      -1.1336365253847641e-01 1.1876298765396025e-01
      1.0929263514459296e-01 1.8841258701646688e-01
      -2.1055679296469240e-01 -1.3764947060454122e-02
      4.7512818500747775e-02 1.3522269345922425e-01
      1.7155743476872570e-01 -2.1277815238212566e-02
      3.9361281719555018e-02 2.7511652026732385e-02
      4.1873646704554235e-01 3.5029735190004433e-03
      -2.4509135455915720e-02 3.1953513027179248e-02
      3.6226848680177554e-01 -3.0746344231014161e-01
      -9.4379288229976044e-02 -1.0266071985544963e-01
      -6.6074165634525103e-02 1.2917885369549928e-01
      -5.1889391530677054e-01 8.5214153018362299e-02
      4.5137333027894945e-02 8.2111600189510386e-02
      -7.9742942475090645e-02 9.0100561596419659e-02
      7.8636277325134424e-02 1.5206832465001274e-01
      -3.7366957685507278e-03 3.6683207993513128e-02
      -2.3358366812157053e-01 6.0178626272837432e-02
      1.0233643965272582e-01 -2.1810825332597247e-01
      8.9936677957710279e-02 4.2482828369335868e-02
      3.2855010490168779e-01 1.3799347125427230e-01
      -1.4726185225767294e-01 4.3857699576020190e-02
      5.5626761639627077e-02 4.5893348198637343e-02
      -4.5563187833036506e-02 -2.4397339109841595e-01
      3.0006844142286193e-01 -4.5533607583343591e-03
      -3.2491397557941823e-02 -2.4054081230523338e-02
      1.7261835304095117e-02 -3.1329683738400317e-02
      1.2286397979597402e-01 -1.2531881547038778e-01
      -4.8135394540494325e-04 -8.2811527827377551e-02
      1.6358211295155076e-01 -1.2925160638019764e-01
      1.5273718147958976e-01 2.4470522642000153e-01
      -2.4032337819597566e-01 -1.1613323424250239e-02
      -4.1918237924490682e-02 2.0694443910641253e-02
      -1.6982836584178065e-02 -5.6680843187930742e-02
      8.1639837882856614e-02 3.0493500314339696e-02
      -1.8057721197760440e-01 8.8762779001785835e-02
      -9.5867479878049888e-02 4.2287795562589781e-01
      2.1096808735923148e-01 -1.7699664552298158e-01
      -1.6948035579643322e-01 2.0797474423351139e-02
      -2.2077273348796993e-02 -1.8978991291340333e-01
      -3.1329669497810017e-03 -2.0237563473976632e-02
      -3.3092889650211066e-02 -1.2758081117887396e-01
      -3.2830695074817035e-01 -1.1234713684056039e-01
      -9.1604667570830189e-02 7.4252187267987574e-02
      -1.0724913875709269e-01 -4.2573400385620108e-01
      6.4977574531353902e-02 -2.1487355242946034e-02
      -6.7330381560807603e-02 -1.9011171059437983e-02
      3.7503638773809703e-02 -7.5311519368520437e-03
      6.9852566025323179e-02 5.3563971825979571e-02
      9.7609612405598026e-02 4.5791776568231468e-02
      -8.5681363529039448e-02 1.5335480199740603e-01
      -3.0870970511828666e-01 4.7468966592494458e-02
      -2.5831999527435475e-02 -9.7384168757316106e-02
      1.9858418610505701e-01 -2.0587793253986122e-01
      -3.9270686014929716e-02 4.8076122959320081e-02
      5.6905909018657212e-02 -9.8735587573686528e-02
      -1.3751043478039407e-01 -2.8668706156325452e-01
      1.3465666132009466e-01 -2.0913245222626151e-01
      2.7828400317316326e-02 1.0864170985509186e-02
      -1.9333612640725439e-01 -5.3902031428730471e-02
      2.2107725262358911e-02 8.6452863440493830e-03
      -6.1060919467538534e-02 -6.8771495569123112e-02
      -2.8616034818489289e-01 -9.6830062620791427e-02
      -1.9631714709403714e-01 8.1311003989485250e-02
      4.7892635845263043e-02 2.0631989665694971e-02
      9.1577833974670810e-03 -8.8950999658892707e-02
      -7.3354936642041929e-02 5.8483074252451035e-02
      2.7725812694717390e-02 1.5092025457906480e-01
      -9.4152784883452051e-02 -1.4674927240790187e-01
      -3.7076323642877197e-02 -1.4302477788771296e-02
      7.6005495059693867e-02 2.4017039195225431e-01
      1.1767376802110589e-02 4.7750446992898439e-02
      -6.4575135006363249e-02 1.4648668216856005e-02
      -1.8087924153143135e-02 5.4017768662542341e-02
      1.5263320201005906e-01 -2.5528912350773381e-01
      3.8785609268573454e-02 2.5125183148262664e-01
      1.1869930924885187e-01 9.8703932485684820e-02
      4.2718405788424596e-01 1.5906226541263749e-01
      1.9183033661441539e-02 -5.7221196124222939e-01
      -1.2316275010744200e-01 1.1924089905943114e-01
      -6.4895521370743879e-04 9.1182290776468902e-02
      1.1607643959874709e+00 -2.3616829891153528e+00
      -1.8952232503036161e-02 -2.1462675839579795e-01
      3.0090185958013962e-02 5.4036486955078367e-01</_>
    <_>
      4.1232373398892541e-01 -5.2023073137909515e-01
      -4.4212051106482791e-01 -8.8006246765040008e-01
      -9.5992305039615100e-01 9.4389770304716769e-01
      1.4688057436246146e-01 1.2425921720761808e+00
      1.2933266062286730e+00 4.2794980677003006e-02
      9.8879758276127494e-01 2.1686121640474718e-01
      -8.4470777942123632e-01 8.4870235481322964e-01
      9.1757901288324528e-01 -9.2174854103773241e-01
      6.7925411904132049e-01 -7.3796642304221804e-01
      8.6488008879950828e-01 -8.6914353760113661e-01
      8.7370824439852091e-01 -8.6788438603450313e-01
      7.0133024630670693e-01 -6.9398920863116209e-01
      8.3155545440918122e-01 -8.2667152772507624e-01
      -1.1458011273503661e+00 1.1161744389661925e+00</_></weights></opencv_ml_ann_mlp>
</opencv_storage>
