<?xml version="1.0"?>
<opencv_storage>
<opencv_ml_ann_mlp>
  <format>3</format>
  <layer_sizes>
    225 10 2</layer_sizes>
  <activation_function>SIGMOID_SYM</activation_function>
  <f_param1>6.6666666666666663e-01</f_param1>
  <f_param2>1.7159000000000000e+00</f_param2>
  <min_val>-9.4999999999999996e-01</min_val>
  <max_val>9.4999999999999996e-01</max_val>
  <min_val1>-9.7999999999999998e-01</min_val1>
  <max_val1>9.7999999999999998e-01</max_val1>
  <training_params>
    <train_method>BACKPROP</train_method>
    <dw_scale>1.0000000000000000e-02</dw_scale>
    <moment_scale>0.</moment_scale>
    <term_criteria>
      <epsilon>1.0000000000000000e-04</epsilon>
      <iterations>100000</iterations></term_criteria></training_params>
  <input_scale>
    1.9503361951806311e-02 -2.5062252418184037e+00
    1.9579318731450916e-02 -2.5176784320531289e+00
    1.9342884748081397e-02 -2.5023494320836495e+00
    1.9120692298485797e-02 -2.4973634296934257e+00
    1.8714225485986231e-02 -2.4822541573443488e+00
    1.8246076570838363e-02 -2.4814548581707045e+00
    1.7962122082799618e-02 -2.5029176252102245e+00
    1.7711166570710660e-02 -2.5035950959461974e+00
    1.7851769202156580e-02 -2.5213956400859776e+00
    1.8046869601670373e-02 -2.5057489832809443e+00
    1.8237367737662838e-02 -2.4691132127006639e+00
    1.8532181572124256e-02 -2.4437480595565875e+00
    1.8554085051296184e-02 -2.3853573561831065e+00
    1.8664457012660726e-02 -2.3513610605180593e+00
    1.8945910331731597e-02 -2.3447513820463324e+00
    1.9461045488132621e-02 -2.4979342639259321e+00
    1.9584228027493517e-02 -2.5395435297196922e+00
    1.9027007643419306e-02 -2.5101611796783665e+00
    1.8297499264432148e-02 -2.5001232520904799e+00
    1.7251687889864163e-02 -2.4528425805258292e+00
    1.6383604185225407e-02 -2.4393412346610215e+00
    1.5954729390576381e-02 -2.4789193465570487e+00
    1.5885325710095637e-02 -2.5168532992547030e+00
    1.6144557192979209e-02 -2.5366790411061197e+00
    1.6347336065145324e-02 -2.4688773939982509e+00
    1.6889050873164380e-02 -2.4478695124795551e+00
    1.7880685328883022e-02 -2.4686613190148776e+00
    1.8565266509518293e-02 -2.4426082467086112e+00
    1.8887386323624644e-02 -2.4021549691468955e+00
    1.9412891912661014e-02 -2.4115077919865509e+00
    1.9253683778455242e-02 -2.5129715408866065e+00
    1.9232647119594548e-02 -2.5798361031299324e+00
    1.8048268845799461e-02 -2.5562989625613661e+00
    1.6856587461422701e-02 -2.5583581203008405e+00
    1.5823018755745495e-02 -2.5475811765088867e+00
    1.5211363659330717e-02 -2.5323741423749815e+00
    1.5015139077643154e-02 -2.5678550418679698e+00
    1.5118794531061911e-02 -2.6290999619556947e+00
    1.5204764037066052e-02 -2.6125231927601753e+00
    1.5304326128990426e-02 -2.5369367894043919e+00
    1.5719576822245295e-02 -2.4759329035050412e+00
    1.6754209165816908e-02 -2.4815540940128331e+00
    1.7808596838305508e-02 -2.4262775195929769e+00
    1.8665457382986844e-02 -2.4144106025169236e+00
    1.9494520894841876e-02 -2.4478587147307480e+00
    1.8994359665593444e-02 -2.5347365491047236e+00
    1.8127637057055907e-02 -2.5734298946276182e+00
    1.6872539323977979e-02 -2.6331312651522039e+00
    1.5882573486964164e-02 -2.6845220592160537e+00
    1.5123703349006879e-02 -2.6379847613902152e+00
    1.4671147021179203e-02 -2.5673671059557650e+00
    1.4689317289718694e-02 -2.6012324948106702e+00
    1.5060546876094545e-02 -2.7018182346406268e+00
    1.5099131916874516e-02 -2.6812720984154454e+00
    1.4747988519090380e-02 -2.5537650543949915e+00
    1.4957961943537540e-02 -2.4731081252023350e+00
    1.5975736699674510e-02 -2.5033544350329104e+00
    1.6935027049098314e-02 -2.4422582738640433e+00
    1.8549160083225862e-02 -2.4827504516841850e+00
    1.9381234989576595e-02 -2.4726908552898603e+00
    1.8453395102681989e-02 -2.5432728576603258e+00
    1.7088413344776364e-02 -2.5588952032461458e+00
    1.5890198472324344e-02 -2.6552732979849241e+00
    1.5000433773439207e-02 -2.6716827045839655e+00
    1.4513104997399206e-02 -2.5976573723353145e+00
    1.4554039665984201e-02 -2.5811206831697624e+00
    1.4977036731992209e-02 -2.6892791817330317e+00
    1.5304176619123873e-02 -2.7901045363556944e+00
    1.5041273940285659e-02 -2.7139973639580854e+00
    1.4626090465827440e-02 -2.5569629617155605e+00
    1.4551126778540185e-02 -2.4212098126407571e+00
    1.5254483477752876e-02 -2.4263033669858638e+00
    1.6556050426778442e-02 -2.5018352135576549e+00
    1.8021180693896851e-02 -2.5278443691826968e+00
    1.9245249513282669e-02 -2.4919855763057304e+00
    1.8047075605430035e-02 -2.5350540803180395e+00
    1.6151532341701684e-02 -2.4736598572902957e+00
    1.5283286588216285e-02 -2.5864857348001955e+00
    1.4704347294264217e-02 -2.6225608490585142e+00
    1.4688922934784033e-02 -2.6462248161141635e+00
    1.4848153181165447e-02 -2.6821839317100586e+00
    1.5197083465196605e-02 -2.7780393692862639e+00
    1.5561643059326698e-02 -2.8692900439967355e+00
    1.5458000102750913e-02 -2.8103163043042736e+00
    1.5061640257331876e-02 -2.6522747240608164e+00
    1.4904485848460294e-02 -2.5048975418477548e+00
    1.5261045066911578e-02 -2.4477546821554736e+00
    1.6262143399976420e-02 -2.5026810452698354e+00
    1.7897507226589227e-02 -2.5958809713661037e+00
    1.8772991916023416e-02 -2.4698730209769342e+00
    1.7896440311242809e-02 -2.5159572903042791e+00
    1.5905546641955676e-02 -2.4172200161390345e+00
    1.5201376452038015e-02 -2.5239964968715407e+00
    1.4666980676180042e-02 -2.5305046723806361e+00
    1.4552300418288706e-02 -2.5563249223385820e+00
    1.4863558563990284e-02 -2.6428000162993555e+00
    1.5262553472359880e-02 -2.7597238825945110e+00
    1.5654490920362744e-02 -2.8641323737877733e+00
    1.5629097856099020e-02 -2.8182757463389603e+00
    1.5435719026114540e-02 -2.6978293592349334e+00
    1.5082529088475202e-02 -2.4999745681773802e+00
    1.5412622216025421e-02 -2.4224464414720233e+00
    1.6323131251940702e-02 -2.4671446318105041e+00
    1.7972045394498867e-02 -2.5891354922418071e+00
    1.8791411567016986e-02 -2.4721178941582989e+00
    1.7961405822403898e-02 -2.5014982978442730e+00
    1.5867474817829484e-02 -2.3536720816227907e+00
    1.5137764026297360e-02 -2.4027197848060560e+00
    1.4354587348499434e-02 -2.3348931780368738e+00
    1.4171235657170747e-02 -2.3296739586147721e+00
    1.4548173822961774e-02 -2.4599635185400683e+00
    1.5298795800463874e-02 -2.6728129866392436e+00
    1.5956215159578440e-02 -2.8339309281617080e+00
    1.5917583911336426e-02 -2.7840045796135966e+00
    1.5840983832541032e-02 -2.6721602848006962e+00
    1.5296310868779615e-02 -2.4229831095838215e+00
    1.5180877422698738e-02 -2.2620564925696036e+00
    1.6128756046756888e-02 -2.3226736597314770e+00
    1.7880386309417289e-02 -2.4990189569854739e+00
    1.8925214865298086e-02 -2.4652519439954639e+00
    1.8470678605643848e-02 -2.5456314989252711e+00
    1.6457161639790739e-02 -2.3593722756830453e+00
    1.5160241253089487e-02 -2.2622171525089878e+00
    1.4364238729455232e-02 -2.1911468114073087e+00
    1.4287460730824420e-02 -2.2107108332837382e+00
    1.4566376246381903e-02 -2.3375205473832916e+00
    1.5102234862044019e-02 -2.5012944979348846e+00
    1.5507681826292878e-02 -2.5941140161532887e+00
    1.5641566470556686e-02 -2.5791298714739548e+00
    1.5267049715754169e-02 -2.3962548231344907e+00
    1.4725118127143182e-02 -2.1444304233405331e+00
    1.4958088110247092e-02 -2.0469797809261987e+00
    1.6017972411128876e-02 -2.1364515963645294e+00
    1.7982005664161405e-02 -2.3711990559616001e+00
    1.9359322721012963e-02 -2.4465512670496103e+00
    1.8814170413810321e-02 -2.5520665548334160e+00
    1.7551105982838086e-02 -2.4618566221639822e+00
    1.5829342259257168e-02 -2.2416814768427833e+00
    1.4894359711784934e-02 -2.1320818437587317e+00
    1.4533589577291514e-02 -2.1166024015293239e+00
    1.4839842830368242e-02 -2.2570940430551407e+00
    1.5175773972181016e-02 -2.3787280848649699e+00
    1.5202199839485611e-02 -2.3831590420315343e+00
    1.5159254436624118e-02 -2.3175082240957718e+00
    1.4825675085629691e-02 -2.1380191483445907e+00
    1.4673230898186234e-02 -1.9625934194989163e+00
    1.5027435101891889e-02 -1.8876276246117101e+00
    1.6380603188342526e-02 -2.0145911503874419e+00
    1.8283324647285971e-02 -2.2365809249893225e+00
    1.9672123555835180e-02 -2.3612590686207144e+00
    1.9056026065364533e-02 -2.5309938660172788e+00
    1.8448657945426414e-02 -2.5087779634862373e+00
    1.6948070955611069e-02 -2.3066925642134168e+00
    1.5802680786279558e-02 -2.1237541964866713e+00
    1.5284632825996288e-02 -2.0964388832213801e+00
    1.4980478422019387e-02 -2.1156107124766184e+00
    1.5097931234856162e-02 -2.1811203888429631e+00
    1.4922185866499786e-02 -2.1531939272337626e+00
    1.4927244895829679e-02 -2.1016785617583125e+00
    1.4772446664022441e-02 -1.9563341035256925e+00
    1.5076190617669214e-02 -1.8532304676460105e+00
    1.5805165614194632e-02 -1.8320128810137932e+00
    1.7246456374401805e-02 -1.9668988224661748e+00
    1.8973206570941412e-02 -2.1475290677507042e+00
    1.9789270930580753e-02 -2.2274083977478534e+00
    1.9725156636340904e-02 -2.5464002952333198e+00
    1.9349476154758440e-02 -2.5063147308601166e+00
    1.8245843756472167e-02 -2.3650727200837141e+00
    1.6753596909768204e-02 -2.1323700158001206e+00
    1.5862173868695005e-02 -2.0030942020709603e+00
    1.5360710621834943e-02 -1.9759525900763513e+00
    1.5283930206906693e-02 -2.0147201298645849e+00
    1.5178255046980112e-02 -2.0001268148482203e+00
    1.5390362009806383e-02 -1.9839044105129895e+00
    1.5525201513737350e-02 -1.8956575849569648e+00
    1.6050578040256974e-02 -1.8279107791147244e+00
    1.7126616196627625e-02 -1.8551737223907487e+00
    1.8379413051569881e-02 -1.9531356441467673e+00
    1.9595362555204322e-02 -2.1111924481143998e+00
    2.0456887633316878e-02 -2.2372113535047871e+00
    2.0002597934915801e-02 -2.5006161033290115e+00
    1.9849916480763938e-02 -2.4337141584137139e+00
    1.9024693891202482e-02 -2.2791739913085896e+00
    1.7904506713464208e-02 -2.1016477799579905e+00
    1.6773299003215079e-02 -1.9259072171832778e+00
    1.6026204644497000e-02 -1.8582429958455069e+00
    1.5840516395383999e-02 -1.8816908294906785e+00
    1.5950286292756580e-02 -1.9117009060277961e+00
    1.6228235461193917e-02 -1.9016069539741198e+00
    1.6653053997258409e-02 -1.8583711416345252e+00
    1.7395727298013579e-02 -1.8413526073458155e+00
    1.8599760259266553e-02 -1.9086016182954029e+00
    1.9813466521516210e-02 -2.0449530244110039e+00
    2.0344644073645834e-02 -2.1540648878038597e+00
    2.0807774526149295e-02 -2.2614519254716554e+00
    2.0305422919963380e-02 -2.4647748542119197e+00
    2.0151042227947620e-02 -2.3534222275211025e+00
    1.9785019767879657e-02 -2.1999087527844403e+00
    1.8838371785982303e-02 -2.0118701024875709e+00
    1.7926311647770109e-02 -1.8615208792030202e+00
    1.7325710431120071e-02 -1.7971776188044928e+00
    1.7277423973142667e-02 -1.8383222875438929e+00
    1.7487553439100138e-02 -1.8833895702446690e+00
    1.7925854698754386e-02 -1.9145017166201652e+00
    1.8331513110368857e-02 -1.9081259226054494e+00
    1.8968683794278015e-02 -1.9250631234842741e+00
    1.9698531035748510e-02 -1.9757664054817192e+00
    2.0021025157588832e-02 -2.0441669558857365e+00
    2.0257987819252872e-02 -2.1479753607743972e+00
    2.0498706919777506e-02 -2.2611995080598266e+00
    2.0581088028330141e-02 -2.4589251663283784e+00
    2.0599293964839133e-02 -2.3576733395868414e+00
    2.0314078136955550e-02 -2.1859054478606588e+00
    1.9813952061525312e-02 -2.0093405330942771e+00
    1.9302687971272343e-02 -1.8750012529105642e+00
    1.8970684252923128e-02 -1.8192754040524919e+00
    1.8861476409445257e-02 -1.8386296212125603e+00
    1.9092744334411906e-02 -1.8920558977019868e+00
    1.9284624354946236e-02 -1.9205360762759027e+00
    1.9335753412128134e-02 -1.9144600080422423e+00
    1.9241391073052869e-02 -1.9012541595945880e+00
    1.9289324531577161e-02 -1.9371722564487539e+00
    1.9349777977186382e-02 -2.0107164315299113e+00
    1.9565845444256880e-02 -2.1339782387765309e+00
    1.9723675223046876e-02 -2.2356767128456734e+00</input_scale>
  <output_scale>
    5.2631578947368418e-01 4.9999999999999994e-01 5.2631578947368418e-01
    4.9999999999999994e-01</output_scale>
  <inv_output_scale>
    1.8999999999999999e+00 -9.4999999999999996e-01
    1.8999999999999999e+00 -9.4999999999999996e-01</inv_output_scale>
  <weights>
    <_>
      3.6707449739101367e-02 2.3788165953493347e-02
      7.9577179343299123e-02 1.2464793612295424e-01
      -4.2079282364414528e-01 -2.3069062182934336e-01
      -8.7941258722117929e-02 2.0734229111524166e-01
      2.1877564989628853e-02 -1.5166195742716607e-01
      -1.3607550927995296e-01 4.0009389393718744e-02
      3.0118197000620309e-02 9.0626151001652791e-02
      -9.5190088115186242e-02 -9.5901406736018713e-02
      -1.4272059474601170e-01 -4.0787509945587788e-02
      -2.3334866238734869e-01 -6.9993937505836393e-02
      -2.0697214019038040e-01 2.6477846716236448e-02
      9.7850080636578546e-02 2.0861533985162016e-02
      2.9619454793307923e-02 -1.0374644643821591e-01
      -2.0433964606619243e-01 6.5782145833622227e-02
      2.0031456922505575e-01 -2.0750920560047476e-02
      2.3039507446790350e-01 -4.5462908776586694e-03
      -4.1437258601830784e-02 1.6000609812574459e-01
      3.1742505851645217e-02 -6.0912808519492257e-03
      -9.6803436921329478e-02 4.9408573203935401e-02
      1.2039435406140865e-01 9.4303305416524832e-02
      3.7997016637507680e-01 -1.6864871145569851e-02
      -1.7150162770622060e-01 2.7402160898343614e-01
      3.3151772162281989e-01 1.1833850588842074e-01
      -2.9841026807626955e-02 9.1109761931664229e-02
      -7.3695634243350475e-02 1.3124046985416413e-01
      4.9796701151706846e-01 -9.9867440133880308e-03
      -1.4983750435603913e-02 2.2363827421383392e-01
      8.0434649804945579e-02 1.8938340377334845e-01
      -4.6492605232501726e-02 3.2764789134772376e-01
      -9.3354283512490616e-02 1.1311404234924233e-01
      1.0658871927167277e-01 1.7729025867034249e-02
      4.1156101312777194e-02 -7.3114646984231788e-03
      2.2088970424370447e-01 9.5703175010070269e-04
      6.5999307886834266e-02 -6.8977060813240454e-02
      3.3621870414886991e-02 1.5103802398249674e-01
      1.3150613443826176e-01 1.7917277985886347e-02
      -1.0668836289268671e-01 3.5317649779689764e-01
      1.8203434935614035e-01 1.1534940815104727e-02
      -6.8668455124826694e-02 1.7275231626200513e-01
      -1.7333370750614671e-01 -4.7465678976114242e-02
      2.2768724190564620e-02 2.3747564685418526e-02
      -2.4663566320670578e-02 3.8790397133469184e-01
      -6.9453906774291113e-02 -2.6209006400682112e-02
      -6.4948191912779812e-02 1.5654931987824894e-01
      1.9529011530776574e-01 -1.7530672512153056e-01
      -5.2672801822076551e-02 4.4510832772210731e-03
      -5.2240804147303269e-02 -4.3456992653791396e-02
      -3.4644633570892589e-03 1.4973049300836644e-01
      -1.7419932006040938e-02 -2.8498612168397619e-01
      -9.5280413514593001e-03 -2.7956379441137352e-01
      -1.4930169481695071e-01 5.6524554492516803e-02
      9.4640069869869115e-02 2.4935970393616352e-01
      2.1671481383623392e-01 -7.8614917358471037e-02
      1.0556818826140943e-01 -3.8339086947733803e-01
      2.5239706264187117e-01 1.0071567246042606e-02
      -1.6085828944426378e-01 5.3746794547597794e-02
      3.4276519285139029e-01 3.1712868880160455e-01
      1.6265648868355542e-01 -1.5524826851091941e-01
      1.9790022983396813e-02 -3.8344602195660010e-01
      1.5617065132590804e-01 9.9773854780293905e-03
      9.1115196687360983e-02 2.1026493130023766e-02
      -6.6404993601284532e-02 -1.4447859667908006e-01
      -1.8545851473862754e-01 3.5385757252415434e-03
      -8.2897869045604700e-02 -3.3034665916234190e-01
      -1.8201240695250220e-01 -2.2760713716154626e-01
      -4.0623838243901961e-01 3.3344552426743460e-02
      1.7659084513649631e-01 1.3764001774661682e-02
      1.6036175103900205e-01 -4.7721321986279465e-02
      -1.0499405622400469e-01 4.8878146710627499e-02
      1.9192205452219138e-02 -1.3422480140986773e-01
      -5.8408502162330656e-01 2.2040400753879735e-02
      3.4355695101986328e-01 6.8050620870447956e-02
      -5.2103152080193053e-02 -1.8024341803194996e-01
      2.4357706423936931e-02 -2.5219378189021679e-01
      -1.2428405064437353e-01 -2.9008428367301910e-02
      -2.5912092823401323e-01 -4.5875110538674086e-03
      7.0228223647627694e-02 1.0220062022483617e-01
      -1.9626238592509906e-01 -1.2882243184313066e-01
      3.2690654921627274e-02 -1.5113253098045729e-01
      3.8164835347026450e-02 1.1397203493773345e-01
      1.0657320769116677e-01 1.0789866371582439e-02
      8.4294438477040642e-02 -1.4151068280063345e-01
      -1.4702334193943584e-01 -7.6532723549759929e-02
      -2.3023511670667369e-02 -2.7057340943237645e-01
      -1.2268380179329830e-01 -3.1645947994467544e-02
      -8.1744153190577758e-03 4.9541461072070796e-02
      2.0050485957468239e-01 1.6588811813022836e-01
      1.5918444221167663e-01 -8.3221132777622515e-03
      -3.0049956611695422e-01 3.4918871219134444e-02
      1.8827416116354803e-01 1.0544750628694475e-02
      1.7162576889508444e-01 3.9983386221380760e-03
      -2.3844186648461389e-02 8.7804073018292919e-02
      3.2228565340732340e-01 4.3319801953143548e-02
      -1.1136374892910100e-01 -7.8524678272486276e-04
      -2.6101357004104525e-01 2.1936856958026854e-01
      3.9852674549368000e-01 -9.6038341046657399e-03
      -2.1881585426660394e-01 1.8635491887329853e-01
      1.5401576490135560e-01 1.2181670440131002e-01
      6.3168033691164610e-02 -2.0762245869702936e-01
      -2.8774094213195317e-01 8.4005281892807190e-02
      2.7098464855929366e-01 1.4910865271910271e-02
      4.6393845190978128e-01 2.0013832001912249e-01
      1.6925057029916818e-01 1.7159303924514001e-02
      1.1954685464944186e-01 -3.5844763753841707e-01
      3.7725415982861027e-02 -5.5188856957875801e-02
      1.9916383012770042e-01 9.2468880896588949e-03
      2.5566859185834645e-01 -3.6645612702957669e-01
      8.0155514495963975e-02 -5.1789842580976291e-02
      1.4821057471816670e-01 -5.7400063180405980e-01
      2.2181106669894124e-01 -1.4423122751261119e-01
      4.9864210914533752e-01 7.3988761068504369e-03
      -3.3717548295683430e-01 -1.3086161931695905e-01
      5.1393498634710981e-02 4.4444054768968136e-02
      -9.0439511923004104e-02 9.2065084860652652e-02
      3.3544514602359077e-02 1.9249255417241876e-01
      2.4402145571749259e-01 6.8886848627246186e-02
      -1.8888973174955559e-01 1.3692949048029582e-01
      -7.9606182732459244e-02 -1.4042035504240439e-02
      -1.3611489440063204e-01 5.9830196291782685e-03
      3.4847680904282835e-02 3.3642768424476116e-01
      -1.3738086982895004e-01 6.3525638251199085e-02
      -4.2458564466638815e-02 8.5011120338605972e-02
      -1.8889521327336156e-01 -1.6938992753064494e-01
      -4.3104441272500543e-02 -1.7587196089446108e-01
      -1.8706559599453956e-01 8.4144455386170547e-02
      -1.9009716245218261e-01 1.7734060804785175e-02
      -3.1363183387801412e-02 1.1387495223556180e-02
      2.6519233022984093e-02 -1.1414128262852251e-01
      -1.4899223713724977e-01 1.8711874900077408e-02
      2.9612417236097040e-02 8.8067167733466151e-02
      -2.0698396153800802e-01 2.0473545803740743e-02
      -4.3427924810131302e-04 -1.1190562419290465e-01
      -5.7283725967374508e-02 -5.3560317931175348e-02
      -2.8930633504664495e-02 2.1297289188494859e-02
      9.0399141858209311e-02 -1.3538393104694152e-01
      -1.7431182276042592e-01 3.4191770645099942e-02
      9.1793319817393110e-02 -3.4661504755428402e-01
      1.6035933784376505e-01 -2.3022767876233446e-02
      -7.3716397764186828e-02 1.9106627355440628e-01
      3.4288328135394862e-02 1.3339068489968481e-01
      -1.3404222215652323e-01 -4.1977475522325738e-03
      -5.3675501903015232e-02 -1.2862831421954413e-01
      -9.6574796438229374e-02 1.2014159317567408e-01
      -1.2516434684272185e-01 6.0094908298543324e-02
      -1.3649453501650305e-02 3.9605048153738553e-02
      -2.8757079016743209e-02 -1.5598914626294659e-02
      8.5746646842647087e-02 -2.0667204019068047e-01
      -1.1666181452794880e-01 6.3398253046129907e-02
      -2.3491536284600661e-01 -5.1673473214923327e-02
      -3.0273555176371314e-01 -1.1920754591823887e-01
      -2.4540645065513472e-01 -2.9406945089672991e-03
      1.9373375983382461e-02 -8.4399104097175062e-02
      -2.7758146493776981e-01 8.6338170940202241e-02
      -5.7127643521280316e-02 -1.9538292649805003e-01
      -1.2951632319880202e-01 -7.9077702963799512e-02
      6.9243878066430425e-02 3.1319293839402275e-02
      -6.9212418817621413e-02 1.3751968999979641e-01
      1.7774874009020638e-02 -1.9138812926381553e-02
      -1.2244720735277881e-01 1.2914795919877473e-01
      -6.2740860855764191e-02 1.0100120324270620e-01
      3.5955007929496491e-02 1.5778585731396705e-02
      1.3097640857368592e-01 6.8804074708211968e-02
      -6.7391501623747713e-02 -2.0297989478802739e-01
      2.4755313537726364e-02 8.6157939622840476e-02
      -1.1649005363651620e-01 -4.0846974294417762e-02
      5.2236139860127762e-01 1.1323213018790830e-02
      -3.2260838642124601e-01 6.0239021158672225e-02
      5.6152908064723374e-02 -1.3864658043519823e-01
      1.2396823347863763e-02 -1.6091473566408712e-01
      2.9723605336847980e-01 2.2659911493355694e-02
      9.5694494340478276e-02 1.3697371717574645e-02
      -1.7962877070808278e-01 3.2649702830527122e-02
      3.1393472840802900e-01 8.6547209642483594e-03
      2.6667304326088489e-02 -9.7031290221737565e-02
      1.3749873917390584e-01 -1.3021046009844880e-01
      2.2322140864627495e-02 6.9674298538151727e-02
      1.5517357529466841e-01 -1.8949598126559497e-01
      2.4764332688836604e-01 9.7273730487076840e-02
      -6.2438712321185974e-02 -7.6156572842270162e-02
      3.7176236645131266e-01 -2.7117682587809128e-01
      1.5896322327816764e-01 2.8724153817722659e-02
      1.7503644008022629e-01 -1.5997777928389331e-01
      1.8561283317612293e-01 2.8829238809511045e-02
      3.8640335126306019e-02 -1.8362401076857113e-01
      4.6061660377742486e-01 -2.2075710000799140e-01
      3.5360453301876527e-01 1.5649888267343485e-02
      -8.0070749354739425e-03 -1.8230995097618349e-01
      1.0376187147191385e-01 9.3384863938119261e-02
      2.0774581811510394e-03 -1.0029818659618381e-01
      2.9561061895261537e-01 1.0894816156823388e-01
      2.8762949176994612e-01 7.3634328353910788e-02
      -1.6520890466455407e-01 -1.6845200549787300e-02
      2.4348194666189534e-02 4.7247359562035636e-02
      -1.7480369914561958e-01 -1.9155707214212647e-01
      -1.5657285458762157e-01 1.1410367796198900e-01
      -1.7447033109499399e-01 2.6554437198513220e-02
      -4.4507842142761866e-01 -3.8784985259280765e-02
      2.8791291238942175e-02 -8.8552771158624158e-02
      -3.9233577618217441e-02 -1.6663054570815744e-01
      3.7642190006498522e-01 2.8284317292002636e-01
      -2.6152640360814777e-01 2.6354145510331800e-02
      -5.5505720201216979e-01 -3.2080861233747232e-02
      -1.7283467789847867e-01 -7.1083347195145336e-02
      1.3825552605891293e-02 -9.4846672124909992e-02
      3.1674227952008603e-02 1.9331145099232433e-01
      -6.7360001133614150e-02 4.0079427291827417e-02
      -7.1182515382237762e-03 7.9743662075792088e-02
      -1.1958093541682413e-01 -6.4906045069660842e-02
      -9.8579484814828991e-02 -2.2085028265246973e-01
      1.9454294900981303e-01 4.2438513404260768e-02
      8.4367040461232265e-02 -8.5456191499772103e-04
      3.1690418841714640e-01 -2.3739583471843509e-01
      -1.4125943303934285e-01 -1.4450592995020078e-01
      -1.5478106580662349e-01 -3.4157639831778547e-01
      -6.5091298530307859e-02 -8.4952448380290008e-02
      -3.9874979613646150e-01 4.1055099596617045e-02
      -6.0289291728301560e-02 3.7769118942686086e-02
      -3.8418915659671496e-02 9.2483110559017576e-02
      -1.0286554894512244e-01 2.7064136525544119e-01
      1.5768898134912362e-01 -4.4778931694647653e-02
      5.6531765077766603e-03 -8.2260233544992692e-03
      6.9383722565873926e-02 2.6410313571591786e-02
      3.3994324742157314e-02 9.8535265919647980e-02
      -1.6622527748367469e-01 2.7425948354843721e-01
      2.3073350510043769e-01 -8.5860772134139715e-02
      -1.4020595150307660e-01 3.5025667525917153e-02
      6.5429844065315212e-02 8.5675420791694643e-02
      2.9009162671829863e-01 1.3363733150814791e-01
      -3.6567490293763147e-02 -7.6648648932793245e-02
      2.8747547871268739e-02 -9.4902604336752447e-02
      1.2032654930089275e-01 -3.0650374725991275e-02
      -4.5237740427924042e-02 3.4100232499526192e-02
      -1.7810944787212252e-02 -1.6795969231590629e-02
      -3.1927906279225711e-02 1.8145700852560739e-01
      1.6852690355587155e-01 -1.2673795355271467e-01
      5.3786337084278601e-02 3.6111161787102844e-02
      -5.2333827347695518e-02 -9.0873231614005096e-02
      2.0798532999176160e-02 -1.4567253577580513e-01
      6.0412353200626295e-02 6.3830317595024680e-02
      7.6273625567364736e-02 -1.6822135655774195e-01
      2.3822040376873810e-01 5.7513751550638308e-02
      -3.2231594322686985e-01 9.0913143183833145e-02
      2.3822342965142535e-02 -2.4313350894209332e-01
      -1.0446840602891645e-02 -1.0341742183981824e-02
      3.2320111467626195e-01 -4.8545117755593656e-02
      1.0436868250683090e-01 2.5631688617164267e-02
      -2.6097825468910951e-01 1.4577938902333898e-01
      -1.1819785303920642e-01 -9.0293905265207891e-02
      -9.3962692486443011e-02 -1.3733573399552951e-01
      4.0650436092173886e-01 -1.4802703420101856e-01
      1.0507119275388417e-01 1.2785656853057385e-02
      -5.5079636041348390e-01 1.6429731650951622e-02
      5.0648406537904055e-02 7.6378293726833246e-02
      -4.3273417732144701e-02 -4.3650335674322949e-01
      2.9258649180448926e-01 -2.3232530792465653e-01
      2.5207231734639723e-01 4.6355659345283615e-02
      -2.5867323841709483e-01 -4.8867547327609012e-01
      1.2187908634904671e-01 -4.0941695893065511e-02
      9.1901161622373675e-02 -1.3094865314046877e-01
      4.4024556137903503e-01 -6.7552271739807698e-02
      5.2559947434829402e-01 -3.4871010970632610e-02
      1.8755211282926620e-01 -6.8413440953172575e-02
      -1.3165167813835430e-02 1.0921031704481748e-01
      1.2272641193736435e-01 -4.1829298775025486e-01
      5.2121541907672586e-01 3.1131797840739384e-01
      4.0241837225044580e-01 8.9045895583801330e-03
      3.2936551219497218e-01 4.9605383937512559e-01
      -5.5594147215695708e-02 -5.2625521143099041e-02
      -3.3749001825423793e-02 -1.6504922743918907e-01
      -5.1883630753069654e-01 1.6152707659332394e-01
      1.4121694198732840e-01 3.7517281233986552e-02
      -8.4812841769286815e-02 7.7917804078728059e-02
      5.0455988879094778e-03 6.8950336601300344e-02
      -2.2979972044193539e-02 -2.0882574387993783e-01
      1.0068939380309934e-01 2.7436743351035991e-01
      -1.4533029517267618e-01 3.1051396886933546e-02
      -3.7410094769794067e-01 8.2281733784218922e-02
      -3.1331277727758462e-02 -2.5167749581642859e-02
      -3.5081534284436916e-02 -1.5535253083123129e-01
      1.5861579943133552e-01 1.1056607269912247e-01
      -8.0137095253797905e-02 3.6114016053234499e-02
      -2.5021941526601260e-01 -1.3640573265244932e-01
      -2.9378930808071441e-01 -1.1078822859883621e-01
      -2.3409162369073023e-02 6.8523227806043946e-02
      -1.5110459075478999e-01 3.4471798400414470e-02
      1.9354272663596567e-01 3.2000178880490032e-02
      3.2296780670159404e-02 -1.0972655160318882e-01
      -1.3325985976003418e-03 5.1527364263380795e-02
      -5.4931418307085922e-02 3.0847841653782255e-02
      2.4558206279677675e-01 1.0444141470233141e-01
      -1.7202636565511220e-01 1.8195494330900144e-02
      2.5633568397717627e-01 3.4887847906746046e-02
      -1.1406567404417371e-01 -1.1897228112831051e-01
      6.0662476893713985e-02 2.5554149577882468e-01
      1.7277794410571598e-01 -1.7961695340839928e-01
      -5.5534265502092936e-02 5.3512583821970086e-03
      -1.2296274174424132e-01 -1.1287247916931009e-01
      -2.5219667598568857e-01 -7.7844848532486865e-03
      -1.0786178954152353e-01 3.4519043826911316e-02
      -3.8884273580016785e-03 5.2202843207749323e-02
      -1.9217936091250165e-01 -2.0720833204500352e-02
      -1.6544193281676733e-02 2.3557839352740900e-01
      2.3892083103827760e-01 7.3442887295847803e-02
      2.4100471847820104e-01 -2.3809097821124689e-01
      -1.2481799727433357e-02 2.5111560509796065e-02
      -1.1667983227858601e-01 -2.6180439102440344e-02
      -3.3977041966390498e-01 -3.4152201053097370e-01
      3.4946517717484865e-01 1.5482542993791937e-01
      -2.9167778791389665e-01 -1.3151845626341929e-01
      3.4949967151230436e-02 -2.9668045388773191e-02
      -4.9716572013101569e-02 1.1316728466620051e-02
      -3.3038720107489200e-01 -2.9188252806186687e-01
      -7.3311050057300459e-02 -1.3610053472988573e-01
      -4.1344920962975262e-02 -2.7474127420037610e-02
      1.2756172461135651e-01 3.2931495609808140e-02
      1.9399221985159648e-01 1.9033632777959414e-02
      -1.9314838020339642e-01 -3.6350850111298141e-02
      1.8743932520396411e-01 1.2102779592331418e-02
      -1.2641887701213733e-01 1.7717135734921837e-02
      2.5454595033537697e-01 2.3138733061906776e-02
      -1.2133661917831257e-01 6.5849116326594112e-02
      -1.3086518966964397e-01 2.0210373682612665e-01
      2.3137298013656247e-02 2.7658108539939242e-03
      -9.7707445027381559e-02 -2.6301300672857775e-01
      4.6762875690158795e-01 1.6418147788663648e-01
      -1.6214193088760415e-01 5.4972947283939595e-02
      -2.7129955079407318e-02 1.2920285650100344e-01
      -2.4865073938017002e-01 9.5645651706652887e-02
      5.2751241980988128e-02 -5.7728660494757766e-01
      6.2406126792755456e-01 1.0604574692966980e-01
      3.7301640751471232e-01 1.9146166154920975e-02
      -6.3502098590214259e-02 4.4075051133668497e-01
      3.2180715432960000e-01 -6.5194722108464123e-02
      1.4277709970152316e-01 -4.6714950803842736e-01
      4.9331670376009268e-01 1.4752434975815157e-01
      3.6804892676189693e-01 -6.4766642604986990e-02
      3.9921368746833752e-01 2.0749392276794640e-01
      4.5486706259911619e-01 1.7057269576185666e-01
      1.0207064380077138e-01 -3.4399207735432991e-01
      9.6758777906152366e-02 -4.6502904361718687e-02
      1.5417938843695914e-01 -8.1876054727662947e-02
      7.2644938780502610e-01 4.1612667241997631e-01
      8.4092605387305411e-02 1.4499892241577228e-01
      -7.0216290780011334e-02 -3.7650916302457782e-01
      -6.0027941586229983e-01 -1.1973800267002219e-01
      5.3624072531498680e-02 -4.6773726185549445e-02
      7.6296375203083178e-01 1.5096514054611959e-01
      2.8169740181997571e-01 1.7180825210436519e-02
      9.4884618720070465e-02 -3.5600853743627020e-01
      -7.0435766836252267e-01 5.1922156972045164e-02
      1.2319753238360777e-01 5.7163954924797582e-02
      5.0432973766359104e-03 -1.8767187904285571e-02
      3.3824827463860715e-02 -4.4080485797525014e-02
      2.6461339908550850e-02 -3.1060868488302240e-01
      4.8306398221292866e-02 2.6270471426043157e-01
      1.9796455710399474e-01 6.8005645942425544e-02
      -3.1176276753158461e-01 -2.9545124547181060e-02
      1.2413986280645997e-01 -2.5592423144968895e-01
      -1.3032976672378738e-02 -9.7439721691481261e-03
      4.0842929472589211e-02 1.2641207064972568e-01
      1.4529537498408138e-01 6.2278361832822475e-02
      -1.3005951755521461e-01 -3.5992061488812682e-01
      3.4141313089921965e-01 1.4507694370286388e-02
      -2.4629500546524186e-02 -4.2681746570954318e-02
      3.9402321053844447e-01 1.5520455042424364e-01
      -9.1957641407086788e-02 1.4126013642068804e-02
      6.5328466622244563e-02 -2.0722011241565014e-01
      -1.5056403954131559e-01 -2.8688039615863908e-01
      7.6762343610093930e-02 -1.2329045717131561e-01
      -3.0028384742275541e-02 -1.6385789037122009e-01
      1.0240533142220905e-01 4.1904125873453324e-02
      1.1679759471177943e-01 2.4581239612416504e-02
      -2.0521600051752610e-02 4.9882914412222916e-02
      -1.7026164077814857e-01 -2.5559308013202886e-01
      1.6304788063712694e-01 -4.2331514076481107e-02
      -1.3967177756153870e-01 -1.5745397490472348e-02
      3.3568254389042165e-02 -1.0795465027199557e-02
      -1.1125053711235860e-03 1.7569517481887051e-01
      -1.0170466558466155e-03 -3.2960515676855739e-01
      -1.1525148127160464e-01 1.4217257236555134e-01
      -5.7631849128595314e-02 1.7600209689125988e-02
      -2.3866134938109598e-01 -3.9160489848494978e-01
      2.5627668488492017e-01 9.5639751641801815e-02
      1.3828619521866525e-01 2.0833299971526087e-01
      3.1922810851128081e-01 1.6787281502632323e-01
      -1.8191524187163743e-01 3.3117018199429540e-02
      7.7102276481652854e-02 5.3946968941500494e-02
      -2.0203021922117287e-01 -1.5719203799123005e-01
      -9.1546705757429153e-03 2.1783500096090108e-01
      1.1179560096402026e-01 1.7695136056697990e-02
      1.6761550125856166e-02 2.9125677098377933e-02
      2.0458681641078363e-02 1.1892048152860723e-02
      4.9961667821249882e-02 -1.1868005390149221e-01
      -4.2058166682283800e-02 -2.9263812406418310e-01
      -1.2910483436656789e-01 2.9821351074616149e-02
      2.7978966449085252e-01 -2.2679129659679588e-03
      -1.1636818087027306e-01 5.8058561326244218e-01
      -1.4360768189384812e-01 8.8778556983204568e-02
      -5.9639292160547003e-02 -2.3376301022226934e-01
      5.3401313500815478e-02 -7.3699469612166821e-02
      2.0238666170793362e-01 -1.7251363645252128e-02
      -8.2522424712130074e-02 3.3376471552170556e-01
      9.9387476607940992e-02 3.6031790627946750e-03
      -5.6698423911887589e-03 -3.2441487464760843e-01
      4.5364883082924118e-01 7.4475646274680660e-02
      3.3834465303819655e-01 -6.5072954080317547e-02
      -3.7326417075990204e-01 6.3142756371753761e-01
      3.8828713585829311e-01 2.9326431508353051e-01
      5.6313711894620491e-02 -4.1246981678556199e-01
      3.8175382775464844e-01 -8.7837497764605643e-02
      1.8297677850312607e-02 -1.2850590688459923e-01
      -3.2173115497050830e-01 2.1238509284250431e-01
      -7.9162454683057937e-02 2.1424656692335572e-01
      1.3006888621421292e-01 -3.6180234099192560e-01
      1.8652194198285460e-01 -3.5833223773817302e-01
      -2.0928501925516169e-01 -9.6753605018588582e-02
      1.8801421830526038e-01 5.7332301357621684e-01
      2.3014327546839994e-01 1.7107206630979174e-01
      -4.8363421971923511e-02 1.9154227191233963e-01
      -6.5122430541010870e-02 -2.8048391480709073e-01
      -1.3812054585645769e-01 -6.8383288059968891e-02
      2.6530872141416151e-01 2.2623018603740580e-01
      2.4743404215729772e-01 4.8491713298987743e-01
      -1.2229477243686729e-01 -9.4939543306327701e-02
      -5.9743908255611478e-01 -3.4854694568971190e-01
      2.3731754851037823e-01 1.0221525899837118e-02
      8.9856808088456894e-03 -1.4915086939809979e-01
      5.0760212198503629e-01 -1.0817739402432365e-01
      7.2120578231834737e-02 -2.6542103936523082e-01
      -3.8954751487411771e-01 5.3675686799206312e-02
      1.5369528030308829e-01 8.8340671083732294e-02
      -3.0503745315091474e-01 -1.9598889151763127e-01
      2.7585138383794838e-01 -1.4519067104337877e-01
      -2.4187861610836298e-01 -3.7395105201993309e-02
      -1.4030523748040714e-03 7.9585223268257260e-02
      2.2110005201966154e-01 1.0720809148229904e-01
      -3.4436920837407570e-01 -2.4601759993505332e-01
      3.9306449376436153e-01 -2.9393964165897102e-01
      -6.7523966630021623e-02 -1.7652304444764200e-01
      5.6035573952451914e-02 2.2119468486746585e-01
      8.2703789677212619e-02 3.9769656577757703e-02
      -2.1452862163614700e-01 -2.7145482457717096e-01
      2.0345580035766156e-01 -2.0437021085733441e-02
      -1.6903388748938089e-01 -3.1204415584468947e-01
      8.2216152111259405e-02 1.3069945198638583e-01
      -8.8189356170849179e-02 5.5510584439448750e-02
      1.6334948847168313e-02 2.6331092328347505e-01
      1.4031480647559572e-01 -3.0043634684890509e-03
      5.9306415263550905e-02 -1.5375816736607575e-01
      2.0524508651712566e-02 9.7973908894209691e-02
      7.1631817226303447e-03 1.3810978835448209e-02
      1.5600878238806012e-01 1.6270581372056056e-01
      1.7976326101662227e-01 8.6335820790650789e-02
      -9.0739918029880157e-02 -1.9672444273683382e-01
      1.4971263575718868e-01 7.1501320201697027e-02
      1.1313612136709406e-01 2.3245090467692575e-03
      1.0701168032456086e-01 3.8375563570462179e-01
      1.6306343448337890e-01 -2.4209888033718915e-02
      -1.0189012289045418e-01 6.7848325212290395e-02
      2.3590788828433798e-01 8.6333957799368949e-02
      2.3176973797575873e-01 2.4691181145699587e-02
      -1.4561422319183825e-01 1.5826455695708325e-01
      -2.9970992167180904e-01 -5.9225124830154421e-02
      -6.2886870957976224e-02 1.2970175230477676e-02
      1.2668820476613196e-01 -5.7192302350570039e-02
      3.4498182394860025e-03 1.1394124053165025e-02
      2.4739374177166959e-01 4.0367121240465065e-01
      -4.5739953172096309e-01 -1.0141700651836830e-01
      -2.4830913391148259e-02 -7.8186037454792759e-03
      -5.3328284669442061e-01 -2.8113672047963372e-02
      1.3136386364193905e-01 -2.4838537938016669e-02
      8.7836734757057677e-01 4.9708243689036441e-01
      -1.7774077745303307e-01 3.8680971620176668e-02
      -1.6757248122805246e-01 -1.9039466630537710e-01
      -1.3176545037699006e-01 -1.7490233949738831e-01
      9.6805254947475355e-02 -2.9984377223582104e-02
      2.8882725865147102e-01 5.0187086680274051e-01
      2.2189131269541099e-01 2.1830390361610802e-01
      -2.3509680279657302e-01 -5.2769932584913792e-01
      8.9758184714127054e-02 2.4211684577509870e-01
      1.1049882179776470e-01 -2.6695008941748613e-03
      -2.2349547170187919e-01 3.2814710474457309e-01
      2.3257716626065641e-01 1.0106195021849881e-01
      5.5558396999228659e-04 -1.0379899207446466e-01
      2.6854272611738439e-01 3.1070228917422050e-02
      2.4129141351250033e-01 -8.6970329419517267e-02
      -7.1246362268581753e-01 3.3186299936708963e-01
      4.9036464785770767e-01 1.9782197174954899e-01
      1.9688643016898641e-01 -2.9794469061871709e-01
      3.5422541745408870e-01 -1.6698319017090260e-01
      1.8840838231044793e-01 -5.2320412837497943e-02
      1.7491305311551519e-02 6.2109917426604522e-01
      3.3785963374306699e-01 1.4217651525348685e-01
      2.3566177896575879e-01 -3.1274714524533570e-01
      2.7554149764260516e-01 -3.7150826086984617e-01
      3.6221133183995258e-01 -4.0932285888196494e-02
      2.4424677784492785e-01 6.2057046351376755e-01
      3.4754252861109591e-01 1.9284567652604642e-01
      -8.1714797220956259e-02 -1.3429232865992460e-01
      1.0865477668379665e-01 -6.7257496121324711e-01
      3.6740672009288949e-01 1.1150951235918683e-02
      2.9702854270132339e-01 1.4360048505409523e-01
      3.9811482047955316e-02 6.6344996794234071e-02
      5.0136577976844232e-02 3.4480306608977426e-02
      1.1803183261162349e-01 -2.1780542129208746e-01
      -3.2411540163492861e-02 7.6960793085770723e-02
      -3.4734112016644164e-01 -1.5022579355307242e-01
      3.6678394073638770e-01 -7.1124239402050413e-02
      -7.6088871780958717e-02 -2.6270770894458007e-01
      1.0093007628398721e-02 4.4725128319100152e-02
      1.4253821884098766e-01 1.2316434955105511e-01
      -2.4019571650455951e-01 -1.5785900583501092e-01
      2.0646519803458363e-01 -3.4060067123281906e-01
      -1.3150035636381238e-01 7.3870242280497198e-02
      2.3073919134823824e-02 4.9033022082502896e-02
      1.2650396498661601e-01 9.4312119133040079e-02
      -3.2239392242368703e-01 -2.1936874393030412e-01
      1.5088222172644317e-01 -8.5205704018040104e-02
      -5.7174607299789425e-02 -6.8628231403389667e-02
      -1.6226461151120808e-01 1.0670892376692118e-01
      1.1656066108940145e-01 5.7778497055861112e-02
      -2.0325412173922838e-01 7.5704834622732309e-02
      1.2897431553257560e-01 5.4946283967009665e-02
      -7.9749126724559284e-03 -8.9665802942618111e-03
      -1.1722728610306152e-01 1.3527290621016158e-01
      -5.5237136841927825e-02 2.9021717747239668e-02
      2.1719313372091476e-01 -6.0594603722501729e-02
      1.3899326429598446e-01 -4.3939586750682637e-02
      -2.1467078397050619e-02 -1.6613919489112722e-01
      1.0209362223691219e-01 -1.9712795714337483e-01
      8.1106951795839766e-02 -1.1167881265753795e-02
      4.8553316904231821e-02 1.0927914392015513e-01
      2.6918608247187037e-01 -2.0335016943038752e-02
      1.6127658330386163e-03 -1.7669566728720687e-01
      4.9481267421262277e-02 -1.1588414262322674e-01
      1.7067629867685929e-01 -4.0603226248364464e-03
      -1.2879429899690861e-01 4.0758011799835786e-01
      -1.3675513436402301e-01 1.0656629374918237e-03
      -1.2645266431108210e-01 -2.5371950024492457e-01
      -7.3682315105443236e-02 -1.4528407436229718e-01
      -1.2740540227500546e-01 -5.6707323254736580e-03
      3.0183975353146852e-01 8.9461994749627261e-01
      -6.1894726378724585e-01 -1.8002029891333321e-01
      1.0611600619356311e-01 -1.2954682340063536e-01
      -6.6078831304953201e-01 1.7045285722502430e-02
      -1.4205537253223832e-01 -3.5924928131679100e-02
      6.7231405408940326e-01 6.0770842147277659e-01
      -3.8085754589589921e-01 -1.6158178890553124e-01
      -4.3248481220879285e-02 -4.1152888872629573e-01
      -3.5916459021460395e-01 1.2404640626495041e-01
      4.3452465631281728e-01 -1.1200473547632518e-02
      3.8785229102134257e-02 -4.4358380555825577e-01
      1.0520996713846760e-01 1.8883798356561704e-01
      -2.3243040620642128e-01 9.6750271329601165e-02
      2.1915724648884560e-01 3.6321831819567857e-01
      2.8539675508331941e-01 6.0307937598224046e-02
      -4.3811775037815959e-01 -3.9992198506073620e-02
      1.9168974791129098e-01 -8.0865613997533115e-02
      1.0322967577405547e-01 -3.0277077122414037e-01
      5.3503412383518789e-01 2.8485718332412818e-01
      3.1126607583105415e-01 3.9851653451970573e-02
      -7.8453924342686809e-01 2.1407673616809335e-03
      3.0331063915022644e-01 8.8880945925734783e-02
      6.3967220952208984e-02 -3.7455255658753944e-01
      3.5262533606317842e-01 -2.4082376024411628e-02
      7.5058073479486842e-02 5.2363939701283599e-02
      -3.5640956962876537e-02 2.3214573406319342e-01
      3.2938811604891371e-01 -1.0731148713093649e-01
      -1.0820376689649980e-01 -9.2117994915209916e-02
      4.5134610267789244e-01 -3.3901807991219507e-01
      2.8051945862998984e-01 3.1120459436727477e-02
      5.7957870199639894e-01 3.5608196287188115e-01
      8.5440072115067295e-02 -2.7500924084016770e-01
      1.4512023768075606e-03 -2.2925635375291814e-01
      3.5669930650013953e-01 -5.6094647516096730e-01
      5.6674405581048704e-01 -9.3725311261171420e-04
      4.2853992622355447e-01 4.7811399805816378e-03
      -3.1367846915136770e-02 -7.2319250301971783e-02
      -1.4159311588106783e-02 6.8745200763240463e-02
      4.0271996588073677e-02 -3.5686622626038733e-01
      -1.1273835382980980e-01 9.0336814089739342e-02
      1.5005632934480673e-01 1.9650860723526728e-01
      1.5695169706498838e-01 9.1178003199077581e-02
      5.9208531852859856e-03 2.3868144343646289e-01
      1.7404699827180456e-01 -3.9821238063639158e-02
      1.8643438624307959e-01 1.1286338881716824e-01
      -1.1868929065271534e-01 -7.8728011227789635e-02
      4.1886425480871202e-02 -2.9306589981227893e-01
      -4.1852887401369922e-02 7.7676780298608555e-02
      1.1479448732360084e-01 -1.2472799263156845e-01
      6.9143035977781139e-02 5.8557541116865848e-02
      -2.1402851633626965e-01 -1.4069587350618018e-01
      -3.1739741011041545e-02 -1.3216689295914183e-01
      -9.6275109381314131e-02 -8.7945935082252031e-03
      -1.0771734702924179e-01 2.5204518366753362e-02
      1.7363399062005083e-01 5.0938167341932870e-02
      -1.1807096313718254e-01 4.2909028511510866e-01
      6.4921216509130311e-02 -3.9591145470644927e-02
      -1.0135728851381308e-02 2.6023753823193113e-01
      -2.6037216553141029e-01 1.8741577791251066e-01
      -3.0557095749722701e-01 5.5781369388944464e-02
      1.5644029916023874e-01 -1.3895092026852648e-01
      -2.7421288342282291e-02 -1.3528935670424205e-01
      7.6205009573529325e-02 -4.0290856290342780e-01
      6.1277977878971664e-02 -4.0021428989497926e-02
      1.2980238517301768e-01 4.7923135147971738e-02
      -1.5441305477659645e-01 -2.6767358069171815e-01
      1.4499089769054905e-02 4.1233692832603648e-02
      -3.4513641262794897e-01 -1.5266313837190978e-01
      -7.5687887185965391e-02 -9.8788298490157328e-02
      -1.1567296818524401e-02 5.2725698873244554e-02
      -1.2081762886078376e-01 1.2653345856787687e-01
      5.8622136596406541e-02 -1.0466797489305139e-01
      3.1738883736276799e-02 -2.9231235968742591e-02
      -2.4865137803377671e-01 -1.9951703243902739e-02
      -4.0318662516469830e-02 -4.2132794165328268e-03
      6.5054910981978652e-03 8.9262093644845575e-01
      -2.3663558986596896e-02 3.2797175183347085e-02
      2.0401391070621541e-02 -3.0036138961069830e-01
      -5.4170803180822269e-01 2.1264613387557679e-02
      -1.1090837519126484e-01 2.8793118706841602e-02
      5.0272901367874834e-01 5.2847202774179058e-01
      1.2328643740355209e-01 2.0518235594842890e-01
      -2.9557405460371122e-01 5.0398586924524473e-02
      -1.1729251297941598e-01 -8.2171002834541776e-02
      1.5706340070698935e-01 2.9679429804128410e-02
      9.8283401241663237e-02 8.1636179763185379e-02
      1.5137027632456651e-01 -1.3095728728859851e-01
      -3.7078029986126110e-02 6.6571488115488965e-03
      3.4287072171747263e-01 -3.9786585061969817e-02
      -1.5942669499093229e-01 5.9452382115823064e-02
      -4.1496024842100643e-01 -8.5540632665044825e-01
      2.3151658057901706e-02 -2.5690907941532942e-01
      1.4069300546728894e-01 1.2676541033874878e-03
      3.5211673007026745e-01 3.5240981560250621e-02
      2.3272119539470934e-01 8.3907800805840468e-02
      -7.3864376371068596e-01 -1.1958374906121343e+00
      1.4669858858625182e-01 -9.4237754957502261e-03
      -1.6539233717666071e-01 -4.2446197903933378e-02
      1.8720582637750877e-01 1.2690637002225505e-01
      1.6736369074992244e-01 6.2178951617376452e-02
      -3.3290088676007695e-01 -2.3799368611151717e-01
      3.0614735234968332e-01 3.6490341390069063e-02
      2.2313225345660373e-03 -2.4541292553888339e-01
      3.5550187980941494e-01 -1.9622283171920998e-01
      -2.6681254428250208e-02 6.6319099490167704e-02
      1.3371189405339218e-01 6.6744567280471498e-02
      -3.3649947773535521e-01 -3.7164061413433987e-02
      1.1831358643594342e-01 2.5688546287939895e-01
      2.6547095194983633e-01 6.8879388432367558e-02
      1.3126671457415959e-01 4.9578475829455473e-02
      3.9858798274747020e-01 1.3770447567835270e-01
      -5.5006895032759295e-01 -1.6544987691969676e-01
      -8.5110475032579291e-02 3.4289492176832484e-02
      6.6366997757551838e-02 -9.2500532672996447e-02
      2.6149668793293716e-02 6.5676050168746239e-02
      5.2447812981758213e-01 1.9336454788972868e-01
      -2.2280499894699607e-01 -2.7022816681372752e-01
      -1.8490840907427739e-01 -2.5890873297402597e-02
      1.7947608136747803e-01 -1.1840694495866842e-01
      -1.2926746003363634e-01 8.7097720479194007e-02
      1.0529349884777253e-01 4.0362985958280112e-02
      -4.7039224995066617e-02 -2.0713444447102128e-01
      -7.7274136445992245e-03 -9.0799501564009288e-02
      -4.3737277930108606e-02 -3.1728819543410322e-02
      2.5445249109832990e-01 1.9021954858440708e-02
      -2.4977801051123458e-01 -7.5331688552672707e-02
      -4.5892617098598251e-02 -2.4287848824765851e-01
      6.6213852632641165e-02 -3.1883341372445745e-01
      2.1178053916647879e-01 7.4286758902025324e-02
      2.6730801085697298e-01 3.3419532059313604e-02
      -2.0607356652544317e-01 1.8868459158135950e-01
      1.9224028666429196e-01 -1.5959042083369367e-02
      9.6468896830150641e-02 3.5568923430167328e-02
      1.9148414845859675e-03 1.0400840445944209e-01
      -5.4267018413650080e-02 7.0759905787418004e-02
      -5.9866475860158301e-02 -4.7218913663703684e-02
      -6.8341632429189073e-02 -7.7636879450069987e-02
      -1.3914520023467108e-01 -2.0313083987202454e-01
      5.1960266066525904e-03 -1.7357983434929744e-01
      -1.3035446334848247e-01 6.0525634071911624e-02
      8.9256386667846965e-02 -1.2595378173271593e-01
      2.0194944292690645e-01 -2.4395470140607123e-01
      5.8827851181303091e-03 -1.5059877698720781e-01
      -1.6558059145346701e-01 2.5481394010401576e-01
      -3.4162250926879040e-03 1.2145235622712415e-01
      -3.1845893428269317e-01 -1.4422728898261583e-01
      -9.7824212757133489e-02 -2.9076804708625531e-01
      -3.5144368847244450e-02 -1.0859435685459480e-01
      -8.8467749896336129e-02 7.1989047277016535e-02
      -1.3171555691946805e-02 -6.4024838011023322e-05
      -6.0339039150253591e-02 6.2216773709956930e-01
      3.9123074201586422e-01 -7.1277364071403143e-02
      -5.0263847552291423e-03 -1.7856391977308897e-01
      -6.2044863404044200e-02 -8.6811090802900726e-03
      2.2191762772944060e-01 4.3217700295254576e-02
      3.5961718944378002e-01 1.7013686012119206e-01
      3.5132969550137283e-02 1.0444821696692690e-01
      -1.1184634728621520e-01 4.9213032906000202e-02
      1.9307275840141735e-01 -1.8004370858912408e-01
      2.2860780851532547e-01 9.0383967781861446e-02
      1.8229039781640041e-01 -1.4454741794622963e-01
      2.3257452374541027e-01 -3.6070474205514208e-01
      2.4870321894860047e-03 -4.9469579121784824e-01
      4.3364384744932699e-01 -1.0456992665778042e-01
      -5.9034127763044904e-02 1.0557152636142167e-01
      -2.1986951181186309e-01 -8.7777400485573587e-01
      1.8249946335582490e-01 -3.0475879628662450e-01
      -2.0337454649661554e-01 -1.0561466468569192e-01
      -5.2061733653076425e-01 -6.6980260391120969e-02
      -8.5365962448371191e-02 8.4821862723976751e-02
      -4.3975406747521079e-01 -8.9586311247753680e-01
      3.8689637333179427e-01 -1.3671761778542671e-01
      6.4742145223420523e-03 1.3700246591224607e-01
      -1.1437146252740041e-01 2.3415350788540645e-01
      2.3983026745396793e-01 6.6690907928056695e-02
      -2.9235593007368132e-01 -2.7495691013034251e-01
      2.4726758715641295e-01 -7.4946836803869335e-02
      5.8878642203467578e-02 -8.1503333018367916e-02
      1.6531379081469444e-01 7.1977896080815063e-02
      -1.0607657627530377e-01 7.9175406050299282e-02
      3.1477060261083073e-02 3.9721947640820371e-01
      8.7859157233693058e-02 -2.9403244513518546e-02
      4.6564580415575624e-02 4.0122980987792761e-01
      1.0502719911778476e-01 -6.1737549329232047e-02
      -7.4146673043018738e-02 4.2499588279645242e-02
      7.3648347536386161e-02 5.2808861384648842e-01
      -3.2101436723393928e-01 6.1854175341794833e-02
      -9.9715293582359879e-02 2.6398769622322088e-01
      -1.1827656428776406e-01 6.1172448633542102e-03
      2.3784935707089211e-01 2.0067768850667009e-02
      2.4084417368552072e-01 5.3969668371334278e-01
      -4.6251045256434953e-01 -3.2381270818025006e-02
      -6.8705997215917552e-02 -1.4766405502019015e-02
      -9.9374312883005730e-02 9.8249946229221792e-03
      1.3921633404287553e-01 1.8219152065841120e-02
      -5.1931592616336286e-02 6.3360379016409132e-02
      -1.6799006515728460e-01 9.3535963597088777e-03
      -2.0852316112448546e-02 2.4347317152493081e-01
      8.5324727842151671e-02 6.5733359816647838e-02
      3.8620670276392394e-01 4.2672661561382205e-02
      1.9475615657481982e-01 1.0936383986889393e-01
      -3.2527810071867704e-02 -4.6109651112682115e-03
      -4.2041251872247429e-02 -1.1543669609432430e-01
      2.0120313831697936e-01 -2.2689478538163072e-02
      3.4109280124465963e-01 2.8798766167759771e-02
      -2.0438028317550619e-01 2.0786126700818064e-01
      7.9572773989181028e-02 -4.7679031563847063e-02
      3.6753479582388830e-02 -1.3016453288480484e-01
      8.8026543389301808e-03 4.0393126258516161e-02
      -2.9599899356710041e-01 8.4514242403126202e-02
      -4.1096993510157873e-02 -2.5670819725182209e-01
      1.1699061608690933e-01 -2.1487516450954699e-02
      -1.4968951722122389e-01 -4.3275990950834786e-02
      1.5823705693455917e-01 -7.8896855139205413e-02
      3.4588670024151551e-02 9.1268078508652803e-02
      -1.6871300147322837e-02 -1.0304734988300486e-02
      -2.5960629589907892e-02 -2.0894972199029846e-01
      -2.4726228447428097e-01 7.2294922718454502e-02
      4.4710117338232859e-02 1.3094149354697093e-01
      2.5246746241480150e-01 8.7832102411646323e-02
      -1.5821533585639477e-01 1.3170309074373346e-01
      2.3164999123762312e-01 -3.7847259783408271e-01
      -2.9718332170857076e-03 -4.1945252594859966e-01
      4.0116053850249811e-01 2.3407498643477198e-01
      1.7052170456135027e-01 4.4558894158839716e-03
      -2.5209026931045286e-01 2.3207506691447025e-01
      -6.0541609401524046e-02 -2.3549941030420199e-02
      -2.1318317332662468e-01 -8.7635544304321467e-02
      2.0433360609070566e-02 -1.6492717000473811e-01
      -2.3407893353415827e-02 2.0963614516031279e-02
      1.3916237303116169e-01 1.3275069164811715e-01
      2.9521036898939382e-02 9.8918354157623387e-02
      -1.4268593658189241e-01 -2.5966519487047729e-02
      8.1407787566696033e-02 -1.2287351203444245e-01
      2.8051931135875178e-02 5.7483240077873803e-02
      4.9482654768463541e-01 1.0809539941785959e-01
      1.9798138867183174e-01 -1.3364185757284142e-01
      -3.2010228087869567e-02 1.0089643570697694e-01
      7.0342694509472925e-01 -5.0693217756124669e-02
      6.9037650302627040e-02 7.5548418170754542e-02
      -8.1191185735670593e-02 -2.6930321466912482e-01
      -1.5506900729466266e-01 -3.0426431828577949e-01
      -9.0399952969572872e-02 1.2866416119383928e-01
      -4.2525441558757537e-01 -7.8980118827116461e-02
      -1.4051866684651912e-01 1.0190009241699591e-01
      7.9898035405220599e-02 -3.0360019054522658e-01
      5.5034327297175356e-01 -1.6721224608031968e-01
      -2.9673190461813853e-01 6.2344974192409947e-02
      -2.3602670324287542e-01 1.8959950935490692e-02
      1.8842049707493751e-02 8.6006628396456800e-02
      -5.4334811985133263e-02 1.2277317042231109e-01
      1.7101210139522457e-01 -1.0164084918084186e-01
      -1.5573376236918968e-01 7.5623826944849967e-02
      -2.6329428134233873e-01 1.5230172040557091e-01
      4.9939439301081162e-03 9.4713743188495451e-03
      5.1899650834934072e-02 2.5843948330864241e-01
      -3.1149933507737243e-01 1.2926432345090524e-01
      -1.0899451223375814e-01 2.0466211533247186e-01
      -1.2778648153173652e-01 1.4092475295454468e-01
      2.0810897210810289e-01 -8.8875819629762442e-03
      -1.8377924269630308e-02 2.0908169605147475e-01
      -1.2190922656473459e-02 -8.9740082964371304e-02
      3.3640357120640285e-02 -1.0285545713661147e-01
      -1.0018693491901368e-01 -9.8548163076647682e-02
      -1.0602303584400685e-01 -1.4649161361541442e-02
      9.7775718570741466e-02 6.4526937874453294e-02
      3.0739139714928834e-02 -4.0811122154508848e-02
      4.3589703617216626e-02 5.2247163140169328e-01
      -9.0901396496510967e-02 -1.0087038561905674e-01
      1.0444683505416449e-01 -2.2335954919430700e-02
      -1.4298869937724645e-01 1.3720764043656863e-01
      -1.0649119143828532e-01 1.1781655302475083e-01
      -1.1111709901838293e-01 5.9421840286869143e-02
      6.5276089818536387e-02 -1.4989243787975215e-01
      -1.8013188815526190e-01 4.0801859258822300e-02
      1.4646959429321739e-02 2.5742035426143239e-01
      -5.7477505864084032e-02 -8.4356346384003841e-02
      -3.7568461473769681e-02 1.8341769505720859e-01
      4.1909250701546899e-02 -7.7903171807685457e-03
      2.0324412905443015e-01 5.8838501422659381e-02
      4.4829679895452168e-02 1.3303302943815029e-01
      -4.7971704481671505e-02 8.1183389891152924e-02
      -1.6016506675120463e-02 -2.5278540301408331e-01
      2.2433446418930708e-01 -3.1051870437572786e-02
      -3.8166769350577867e-01 8.7376474628938744e-02
      -1.3720407084767269e-01 -4.3256543499282651e-01
      1.8095370396035271e-01 4.8213623728596285e-02
      -7.8541261374305060e-02 -1.3534742059171007e-01
      1.2059341032927931e-01 -1.0723856448773472e-01
      -2.0387696490138660e-01 8.0451133916677298e-02
      -3.9875545973876207e-02 -4.2877268974504029e-02
      2.4694313476360452e-01 -2.1426133418185378e-01
      -1.4760352919472836e-01 -2.2323671268982645e-02
      3.5034186249317995e-01 1.4723859676070725e-01
      1.8223174554757327e-01 4.9989381441300419e-02
      -2.2959999483852692e-01 -4.8532686422638562e-02
      1.9734962236767617e-01 3.0068573044388376e-02
      -2.7575842337703244e-01 -1.3694414179633205e-01
      1.5144396245233976e-02 6.0702977462979847e-02
      1.5074367748209466e-01 -2.3193138459024721e-03
      -1.8740531523714232e-01 8.7592180399765684e-02
      -3.3274894036749431e-01 -1.8525841591795708e-01
      -1.8531102127858576e-01 -1.8362635019799144e-02
      8.1770025263509932e-02 -2.9015604053157074e-01
      -1.2067168546126293e-01 1.3792645279084435e-02
      1.5759013672361746e-01 1.7600421097127614e-01
      -2.0796586060105723e-01 -1.3686740525176339e-01
      -7.9773201869055760e-02 1.6073699756734647e-01
      1.4412233526279480e-01 -2.0091852602851629e-01
      3.4910563388178706e-01 -1.1025167884543413e-02
      4.1052122060867446e-02 -2.4471807819849700e-01
      -4.0632192003521894e-01 2.0948564279272486e-02
      -4.6031475465789576e-03 -3.0818219292249860e-01
      2.6502568771001928e-01 -2.4362462401553014e-01
      4.9617629028107686e-02 1.9092703961719713e-02
      2.6985990624434186e-01 1.7986887075569311e-01
      5.6287286682936095e-02 -4.6735963476927253e-02
      1.0965563471209262e-02 1.1202160197198267e-01
      -4.3895558850692677e-03 4.0068682864718701e-02
      2.2854979699317457e-01 5.9367066821167699e-02
      -1.4625441318286286e-01 2.4627308316052926e-01
      3.2550615703464475e-01 9.6861437714236248e-02
      -1.9192862862787866e-01 1.4370506059911528e-01
      -2.9269473968367388e-01 3.8272687152347579e-02
      2.3133460226123427e-02 4.8204256394823210e-02
      1.0596658847466000e-02 8.5372772612567448e-03
      7.3870127341509620e-02 2.0531960986111972e-02
      -1.2993797198460956e-02 5.7421791197842553e-01
      -4.8987181394565771e-01 2.1757212760014014e-01
      -2.3026150948050694e-01 9.5834266821952212e-03
      1.9410045631201017e-01 1.3921814717306347e-01
      -3.2103078249766097e-02 7.2718456469098525e-02
      -6.6658066201468802e-02 4.3927427058168184e-01
      -1.4342610809968268e-01 1.7867566700150303e-01
      6.9612465077727961e-02 -2.9834606294511925e-02
      2.5474191684177466e-01 1.7928052986975843e-01
      5.3029575959315983e-02 -1.7751196598074614e-02
      1.2410043616875244e-01 4.9255019144453521e-01
      -4.3558847270746284e-02 -4.6396120051939382e-02
      1.5652841496354022e-01 -2.5929869306407834e-02
      -3.9082725087610716e-02 -2.2064649717461329e-01
      2.5909038841025672e-01 6.7004108650554645e-02
      1.1238977105777724e-01 2.6028104037598654e-01
      1.0411615765482750e-01 -1.1846423428931784e-01
      1.5178706021763549e-01 1.6028112258769985e-02
      1.3850884012425688e-01 -1.0160161961888419e-02
      1.2216893664876680e-01 -8.3315718450802725e-02
      -1.3590356350513996e-01 -2.2660206984294003e-02
      -1.6462050348834298e-01 -6.6760637167550027e-02
      -4.0084121590951052e-02 5.2368199388248445e-02
      1.1352110002515193e-02 -1.9462330525180503e-02
      -5.7884535929130093e-03 -8.8273145765018629e-02
      -4.3696376426945044e-02 2.4510923822661382e-01
      -5.6443384776652516e-03 -1.6942907225934320e-02
      1.9589624382746978e-01 2.4382400438234222e-02
      1.6116578672253943e-02 8.5868648397454811e-02
      -1.2977734761062476e-01 -8.6859648531215972e-02
      7.7772297277799456e-04 -7.3271000873545947e-02
      1.0569000085321806e-01 6.1077621817166436e-03
      -1.4228362791301932e-01 3.3839253079317247e-02
      -4.2046497172821738e-02 -6.8054218430615501e-02
      2.7238003921699443e-02 -1.5326010714157828e-01
      5.4278994915116854e-02 7.3924246417439443e-02
      -1.4399195388402081e-01 -3.5657606735901855e-02
      7.2567875842927537e-02 2.5946366897422926e-02
      1.5226887471068420e-02 -3.6174771828042390e-01
      4.8674983727130331e-04 -1.1192201026741243e-01
      -1.0014907344414661e-01 -1.2855444652063869e-01
      2.4144850599403653e-01 1.3710982372377711e-01
      2.1198881765098317e-02 4.6776855011211116e-03
      -2.7185864133738841e-01 -1.0456501201160111e-01
      -3.1551587586441443e-01 -1.3966888817540021e-01
      -2.7316327394611616e-02 -2.8769769646737597e-01
      8.1386659952362481e-02 6.7845738119696242e-02
      -2.9869382687598428e-01 3.1123526923675111e-02
      2.0625429691804456e-01 1.6820267969896269e-01
      -3.9495475441954886e-01 -4.5345774675119896e-02
      -2.2211101320714435e-01 7.8817198511078296e-02
      2.9268426718877492e-02 1.1381845296781432e-01
      -1.5416964330451521e-01 6.5270714746998762e-02
      1.8777067047283186e-01 1.5843579459500881e-01
      -1.6859961564280265e-01 -2.5949487548942340e-02
      -3.8824616526532135e-01 -4.0355215384228094e-02
      1.7769315589601362e-02 -2.0675898210662989e-02
      4.2890622778151824e-02 6.8364188300279988e-02
      2.0949526226023482e-01 4.4903251998928617e-03
      -1.5530839602618990e-01 -9.2066500817748226e-02
      -1.3664659245657856e-01 -3.5233704883245037e-01
      -1.2397513318296212e-01 -7.7220746976929183e-02
      -2.7980090912631539e-01 4.5581163436313382e-02
      -3.6294153719430899e-02 4.3384384445657698e-01
      4.0566534146797906e-01 -2.3635707263116734e-01
      2.2940283606514303e-01 2.4131126007884512e-01
      8.4032463296813215e-02 1.0779332909040448e-01
      1.5850240201703106e-01 -4.5196537879036635e-03
      -3.3416547063125457e-01 2.9545073135373700e-02
      1.1123107107636152e-01 7.2840160447981264e-02
      4.9205142663251711e-02 3.6478556420325783e-02
      -1.1237873054176702e-01 -1.6276777988143656e-01
      1.1211729841544885e-01 1.5279308845221924e-02
      -2.7403490347078352e-01 -3.9783139493962630e-02
      2.7003113151403926e-02 -1.1998523653988755e-01
      2.9000572126407678e-02 2.2741745090389415e-01
      -3.9465541909084140e-01 5.9491864008780357e-02
      1.3790580536394095e-01 1.9970506626669070e-02
      -9.0923772675706185e-02 -3.5099207936452553e-01
      1.3801359125854906e-01 -9.2151363867880434e-02
      -6.5411034074924435e-02 2.0435446643370928e-01
      -1.0374613573217606e-01 1.1150954220094006e-01
      1.1218936942621602e-01 1.1221336819822007e-02
      3.4064978938930979e-01 1.8628513491744790e-02
      1.6563079513160722e-01 2.3315526592999686e-01
      -2.4331447416171947e-02 2.0971022752456306e-01
      -2.5204248791248551e-01 -5.0836812369564312e-02
      1.7598577496594328e-01 3.0982560092772470e-02
      2.4440358296255260e-01 3.7565639865672733e-02
      8.6322973988129173e-02 2.3985011330012079e-01
      -1.5670689680585562e-01 -1.5515685099993770e-01
      -2.5861499520384618e-01 1.8581911698755595e-02
      8.0572581649369728e-06 5.4188047363703890e-02
      -1.8098038179616349e-01 -3.0515006302487108e-01
      1.0642226031950668e-01 -1.0318821581605137e-01
      -1.7168033699258348e-01 3.6693424507141037e-01
      -1.6354215918550832e-01 2.4785753803598112e-02
      -2.9321409852234890e-02 6.6583091576687709e-02
      2.0980562590053647e-01 8.9405765466236423e-02
      4.2688340758280291e-02 -1.9686422109557405e-01
      -3.0915695387463606e-02 1.7975575200293681e-01
      2.5551863945302106e-01 -6.2891781907544658e-02
      2.4145648531753333e-01 1.0368933814346644e-02
      -2.2430770219193732e-02 2.5579961425876696e-01
      -3.4253443122584182e-01 -4.6130969664998495e-02
      -2.0660971993843250e-01 1.4276693624025810e-01
      1.4084242680887213e-02 -2.1934117906680403e-01
      -5.5500771338916878e-02 6.7636203969696730e-03
      6.2459922150705387e-02 2.8022161723847394e-01
      -6.3063637105086931e-02 -1.3520641583756829e-01
      5.6563303181828700e-03 2.9637915085309668e-01
      -2.8533539064119690e-01 -2.9835295481265841e-02
      1.5965210936740437e-01 1.8137748746951010e-02
      1.9145566235669615e-02 -5.6435624061756361e-02
      -1.0282379603729311e-01 -1.8219307753300756e-01
      -1.2260591195527172e-01 1.1914845135513667e-02
      -1.3644629040362147e-01 -1.4618534294004518e-03
      4.5029338926408036e-02 2.1613752777427130e-02
      1.3439149575502435e-01 1.0220154827757541e-01
      -2.7643863060467189e-01 -1.9292302336750974e-01
      -3.8245861720014214e-02 -1.5786015820055121e-02
      2.8068627262324258e-01 4.3765955788703619e-02
      -6.5587847055255971e-02 4.8922555447493833e-02
      -4.6400114523515957e-03 -2.2700965000269524e-01
      -4.9133695107319131e-01 -2.4111889019423793e-02
      -1.2279924749200669e-01 -3.0075740509506588e-01
      1.0060884723851742e-01 2.9512207693285979e-02
      -2.5225784480345276e-01 8.2047778470893007e-02
      1.3169688895375392e-01 -8.9807448519010416e-02
      -7.6660582550202180e-02 1.0474364690709092e-02
      -1.0303910264211320e-01 -1.6050483526147008e-01
      1.4768676601969064e-01 3.9775919110972197e-02
      -1.1335178491957296e-01 7.6680219466305655e-02
      -2.7974659274966371e-03 -2.6676653245735270e-02
      2.7999843360955473e-01 7.1436126193289012e-03
      -1.2382890902225575e-01 -1.4765028565199593e-03
      4.0063832001394198e-02 -1.2101178379708374e-01
      -9.0818309580548970e-02 5.4850048807578121e-02
      -1.7199709139580927e-01 -8.7874313675941965e-02
      3.4711115013472960e-01 -1.7308742073443023e-01
      7.1088276458106822e-02 -5.6204330277119033e-03
      -1.6744052629486883e-01 -7.6567596807015539e-02
      -2.3837262221332586e-01 5.6240547071296311e-02
      -7.9610404042448846e-02 7.4818553319366654e-02
      3.3101971171514005e-01 -4.5222204465096179e-02
      1.7789868619298843e-01 9.1324221416626532e-03
      -1.2852965635984259e-01 -1.1858114006552105e-01
      -1.1518228731746176e-01 5.0752582623681944e-02
      9.9268657396087243e-02 1.8178479221917468e-01
      3.7511845895312937e-02 -2.8928397692537400e-02
      5.5886533471458492e-02 9.6475001899139490e-02
      -4.0367470107458403e-01 -4.0364239270920220e-02
      8.4568401074063405e-04 8.4110751842232170e-02
      1.1629166905136101e-01 9.3125673633159643e-05
      -6.6731568214455986e-02 -2.5607432560366067e-01
      -4.2010864906459881e-02 4.0024134739487533e-03
      -2.6241092842970759e-01 -1.1949230627248089e-01
      -1.8638019825472786e-02 5.4869670155172509e-02
      9.5364993536532605e-02 1.8033300861184213e-02
      -1.2006351866097294e-01 -1.0433777142581559e-01
      -8.2700427010450467e-02 1.9984600230014801e-02
      5.3954831759887708e-03 -1.4725366808482618e-02
      1.4561095541969088e-01 4.5236836104951508e-02
      -1.3313916945793664e-02 7.7991664976506031e-02
      7.9490518119154613e-02 3.5806773847255058e-02
      -3.8576401310193553e-01 -2.5984741566864200e-01
      9.9521202127845251e-02 1.8653273771386533e-01
      9.6557907413435382e-02 5.9726597373237877e-02
      -2.1962076487689725e-01 -1.6699261053949799e-01
      8.7063718254500502e-02 -7.1242663841209433e-02
      -2.1466574576800096e-01 3.9862594130316092e-02
      -2.0906330717108229e-01 7.8900940267864400e-02
      -4.0463678791233864e-03 9.2213527536499362e-02
      1.6664603174065798e-01 1.8031413143746905e-01
      2.1806309230682594e-01 -7.0804629773387265e-02
      -2.3879586792318505e-01 1.5729437858412562e-01
      -2.0810002857747942e-01 4.5008701130149278e-03
      1.1430566284637683e-01 1.6076093690288819e-02
      -7.3317436157577187e-02 -5.6087838674156378e-02
      7.6499419894910561e-02 -6.5969206868615959e-02
      -4.4183849552651472e-01 4.6528932457849115e-01
      -7.4939872182130912e-02 -1.5309885733902218e-01
      -3.0197247775646169e-01 -2.0481147105074173e-02
      7.2633052499457729e-02 7.8720687943466802e-02
      -4.1545554969943610e-01 -1.4356457253882288e-02
      -1.5912764566278104e-01 8.0822206494434767e-01
      -3.4613276846747358e-02 -1.1115348918903108e-01
      2.0338666165031405e-01 2.4370181139676799e-03
      2.5485854635573291e-01 1.4377895275063285e-01
      -2.0416210761417702e-01 4.7225971371875529e-02
      -3.2468405484255208e-01 6.0912128890517666e-03
      -7.9220991670349197e-02 -1.9208291736216035e-01
      2.7144074217593243e-02 2.3500930383903130e-04
      5.3443955829408682e-02 -1.1319208934856458e-01
      -2.4284578369213575e-01 6.9936386645063691e-03
      -3.7055210596614485e-01 7.5600561120205186e-03
      -2.5495937281855317e-02 -6.9412508857584820e-02
      5.4422448637738131e-02 5.2376228201990130e-02
      5.3923882848127533e-02 9.7810374419159019e-02
      -2.1898921558984871e-01 -8.0811299182237915e-04
      -3.6050164608520091e-01 2.7086903034638826e-01
      7.0815458443063958e-02 -7.4149262877515928e-02
      -1.9829826255247585e-01 8.8661545851351262e-02
      2.8765364445765573e-01 3.2802790988494401e-01
      3.6199985498080747e-02 7.2880842145840993e-02
      -1.2421332442349971e-01 3.2137803934174830e-01
      4.1415306536279270e-02 2.5739959475264664e-02
      -2.0084348356218268e-01 9.9024916309887037e-02
      5.2979800818232364e-02 2.5759555246660570e-02
      2.2372613544651553e-02 8.4569053328930860e-02
      -6.4443506084107940e-02 6.9675131856362996e-02
      1.3932239149943138e-01 -4.5153847161854284e-02
      -1.1824404148375177e-01 8.4952204636644588e-02
      -1.7577514670786215e-01 -2.8965053351415199e-01
      1.0192691093160200e-01 -3.5433384336985474e-01
      1.3651833544690176e-01 1.0742438270227359e-01
      6.5930723020760973e-02 -9.5178336172630065e-02
      6.6308677721130055e-02 9.7677898719629550e-02
      -1.7338310667867185e-01 -3.3063624671168212e-01
      -1.1067948864168738e-01 -2.1823912581699734e-01
      5.0805853708947787e-02 -5.8237558712447263e-02
      -9.1531459801953499e-02 -8.1730150996455059e-02
      1.2385153259672252e-01 1.1642193666623693e-01
      -2.3925347078892070e-02 -2.0971003035739874e-01
      -1.9640260836782886e-01 -2.5325430384183412e-01
      2.2654593513502463e-02 -7.6112870990092826e-02
      -1.4549972373783118e-01 -5.3496729653080347e-02
      -8.6623289054259367e-02 1.4603952134224432e-01
      1.5879712702873180e-01 2.0256229235181635e-02
      1.4903482725604875e-01 -3.3000688140373413e-01
      -7.8992240684620824e-02 4.3047160790268164e-02
      2.6931440256819811e-01 -1.8369750395873771e-01
      -7.9886234157710373e-02 1.4345506809066150e-01
      5.9859577740017461e-02 1.5468439811107007e-01
      -1.2094608402284625e-01 -2.6025256564246518e-01
      -1.4996996784799663e-01 -1.5531691295675215e-01
      3.1403298171682401e-02 -1.3416282172116750e-01
      -9.1425459958123706e-02 1.2445782972051432e-01
      6.1650386345548140e-02 3.2268815780417365e-01
      1.2806756203874689e-01 -3.1164279586856969e-01
      -8.3793478415439687e-02 -2.7421850054340458e-01
      9.7299308382432725e-02 7.9991360311382431e-02
      7.9936634391249053e-02 1.1798243729360000e-01
      3.0853487862302999e-02 2.6748769486808099e-01
      2.2123649502694706e-01 -2.4312663852175154e-01
      5.1718417369495104e-02 -2.1981895995203043e-01
      -5.9990888370158493e-02 5.8944425356921931e-02
      3.2255801934555622e-01 1.0397683150349793e-01
      1.0044855807596156e-01 2.7509435873182830e-01
      -8.3881556018867320e-02 -1.6272889858653644e-01
      -1.9650723234866996e-01 5.7505352516618917e-02
      1.0710283926506314e-01 -1.8155959863389964e-04
      7.0635882453688917e-02 5.1655677987969280e-02
      -1.4756874058054636e-01 -3.0280342247612894e-02
      -1.7286100311316810e-01 -7.4217481363285431e-02
      -3.3345963957941943e-01 1.4314348665509555e-01
      -4.0678099236829697e-02 2.1045734864211137e-02
      1.6714663312399798e+00 -5.1256206460520710e-02
      2.8805892273475311e+00 -5.3296033134871308e-03
      -4.0954200318483613e-01 -2.0419603790863911e-02
      -3.8802586579750531e-01 -6.7962122829431670e-01
      6.2425555103322283e-01 1.5623679115036255e+00</_>
    <_>
      9.2343271310420749e-01 -9.2141404915447889e-01
      1.1572946751562157e-02 -5.9547186266965028e-02
      -6.0320270667271636e-01 6.0300930710551603e-01
      -7.0465513640995026e-01 7.0518765462546062e-01
      -7.9183929733734149e-01 7.9663127268752354e-01
      7.5911158799855194e-01 -7.9006170856092151e-01
      -7.3627405896683040e-01 7.2653637033691543e-01
      -9.5089259867162124e-01 9.5176838407042430e-01
      -8.4838624372022253e-01 8.4984581986946228e-01
      -5.4316362947015207e-01 5.4419005501064543e-01
      -8.5285349548730405e-01 8.5199787972701957e-01</_></weights></opencv_ml_ann_mlp>
</opencv_storage>
