<?xml version="1.0"?>
<opencv_storage>
<cascade>
  <stageType>BOOST</stageType>
  <featureType>LBP</featureType>
  <height>16</height>
  <width>16</width>
  <stageParams>
    <boostType>GAB</boostType>
    <minHitRate>9.9900001287460327e-01</minHitRate>
    <maxFalseAlarm>5.0000000000000000e-01</maxFalseAlarm>
    <weightTrimRate>9.4999999999999996e-01</weightTrimRate>
    <maxDepth>1</maxDepth>
    <maxWeakCount>100</maxWeakCount></stageParams>
  <featureParams>
    <maxCatCount>256</maxCatCount>
    <featSize>1</featSize></featureParams>
  <stageNum>11</stageNum>
  <stages>
    <!-- stage 0 -->
    <_>
      <maxWeakCount>3</maxWeakCount>
      <stageThreshold>-1.4292620420455933e+00</stageThreshold>
      <weakClassifiers>
        <_>
          <internalNodes>
            0 -1 19 -654578006 -67113025 291701559 -4258881 -38019329
            -1078986817 -339756033 -1</internalNodes>
          <leafValues>
            -9.4078320264816284e-01 5.2951860427856445e-01</leafValues></_>
        <_>
          <internalNodes>
            0 -1 20 -573649208 -48245297 -2134859948 -2121769 -104224001
            -73668181 -70393857 -4194305</internalNodes>
          <leafValues>
            -9.2208003997802734e-01 4.5100623369216919e-01</leafValues></_>
        <_>
          <internalNodes>
            0 -1 3 -292631826 -1440027446 -445714949 1773027583
            -138413057 -25361 -83887105 -8193</internalNodes>
          <leafValues>
            -9.0848797559738159e-01 4.3360111117362976e-01</leafValues></_></weakClassifiers></_>
    <!-- stage 1 -->
    <_>
      <maxWeakCount>5</maxWeakCount>
      <stageThreshold>-1.3814532756805420e+00</stageThreshold>
      <weakClassifiers>
        <_>
          <internalNodes>
            0 -1 48 -69217529 -2131073 -878707201 -4194305 -34209
            -69218561 -269488129 -1</internalNodes>
          <leafValues>
            -8.6344408988952637e-01 5.2145922183990479e-01</leafValues></_>
        <_>
          <internalNodes>
            0 -1 60 -1395655425 -1962958357 400553471 -1929460737
            -1346640929 -1963016453 -1141903361 -1929380865</internalNodes>
          <leafValues>
            -8.1130909919738770e-01 5.1582217216491699e-01</leafValues></_>
        <_>
          <internalNodes>
            0 -1 18 -353457618 -1221 -1411003393 -5553673 -57857
            -67399173 -67372033 -17039361</internalNodes>
          <leafValues>
            -8.5409867763519287e-01 5.5803781747817993e-01</leafValues></_>
        <_>
          <internalNodes>
            0 -1 25 -8454283 -108229 -12783105 -9699521 -80792748
            -74179998 -8455305 -8945801</internalNodes>
          <leafValues>
            -7.3147827386856079e-01 5.9233492612838745e-01</leafValues></_>
        <_>
          <internalNodes>
            0 -1 41 -16640 2139053403 -33595425 -538994689 -88346784
            -69210449 -73400357 -67110145</internalNodes>
          <leafValues>
            -7.7206754684448242e-01 5.7972258329391479e-01</leafValues></_></weakClassifiers></_>
    <!-- stage 2 -->
    <_>
      <maxWeakCount>5</maxWeakCount>
      <stageThreshold>-1.3604935407638550e+00</stageThreshold>
      <weakClassifiers>
        <_>
          <internalNodes>
            0 -1 14 -33921 -8193 -740294693 -33 -298185 -52941 -67110029
            -137</internalNodes>
          <leafValues>
            -8.3960515260696411e-01 3.4999999403953552e-01</leafValues></_>
        <_>
          <internalNodes>
            0 -1 1 -286855425 -14164620 -335675393 -8527499 -2359297
            -2569541 -4612097 -7233</internalNodes>
          <leafValues>
            -7.1347934007644653e-01 5.6071883440017700e-01</leafValues></_>
        <_>
          <internalNodes>
            0 -1 26 -67439745 -58810538 -3474177 -14484386 -76660912
            -1156576 -622806145 -76349582</internalNodes>
          <leafValues>
            -7.4415993690490723e-01 5.2824401855468750e-01</leafValues></_>
        <_>
          <internalNodes>
            0 -1 54 -134262784 -1084997 -234974273 -2097429 -136621430
            -8741 -335552769 -4194497</internalNodes>
          <leafValues>
            -7.1165794134140015e-01 5.4879564046859741e-01</leafValues></_>
        <_>
          <internalNodes>
            0 -1 4 -33619970 -825834244 -508560385 1157425374 -337908737
            -297810805 -3216385 -687883271</internalNodes>
          <leafValues>
            -8.0164986848831177e-01 4.8790162801742554e-01</leafValues></_></weakClassifiers></_>
    <!-- stage 3 -->
    <_>
      <maxWeakCount>5</maxWeakCount>
      <stageThreshold>-1.6443196535110474e+00</stageThreshold>
      <weakClassifiers>
        <_>
          <internalNodes>
            0 -1 60 -134218753 -1361132113 -570556417 -285237249
            -342906689 -1358978833 -20971521 -286261249</internalNodes>
          <leafValues>
            -8.2069832086563110e-01 2.2295390069484711e-01</leafValues></_>
        <_>
          <internalNodes>
            0 -1 49 -637534393 -536891267 1372318719 -10510305 -34082048
            -4484869 -122687297 -67372049</internalNodes>
          <leafValues>
            -7.6477730274200439e-01 4.0529263019561768e-01</leafValues></_>
        <_>
          <internalNodes>
            0 -1 16 -1432161554 -1322812801 -2112001 -1650518563
            -337125377 -6303075 -185074945 -5121</internalNodes>
          <leafValues>
            -7.2378265857696533e-01 4.4402697682380676e-01</leafValues></_>
        <_>
          <internalNodes>
            0 -1 13 -16883945 -134256333 -1626025225 -1195519497
            -86508012 -1099964112 -416008335 -143231214</internalNodes>
          <leafValues>
            -7.5671976804733276e-01 4.0814095735549927e-01</leafValues></_>
        <_>
          <internalNodes>
            0 -1 50 -44306436 -72912893 -536692360 -184377301 -273037424
            -1424381815 -787416304 1026816735</internalNodes>
          <leafValues>
            -7.9206371307373047e-01 4.0065363049507141e-01</leafValues></_></weakClassifiers></_>
    <!-- stage 4 -->
    <_>
      <maxWeakCount>7</maxWeakCount>
      <stageThreshold>-1.9464411735534668e+00</stageThreshold>
      <weakClassifiers>
        <_>
          <internalNodes>
            0 -1 53 -270794753 -1930456948 -651963489 -857744931
            -1076113413 -2001829206 -536871937 -1929380609</internalNodes>
          <leafValues>
            -8.5329437255859375e-01 2.2136089205741882e-01</leafValues></_>
        <_>
          <internalNodes>
            0 -1 5 -2425346 -2295928 -2050178982 -707735416 -1932556849
            -609238833 -930380657 -34284819</internalNodes>
          <leafValues>
            -9.1616129875183105e-01 2.0103073120117188e-01</leafValues></_>
        <_>
          <internalNodes>
            0 -1 15 -136315081 -2664697 -804234822 -206335657
            -1819721643 -188831679 -1409893515 -8930953</internalNodes>
          <leafValues>
            -7.0411992073059082e-01 4.2167335748672485e-01</leafValues></_>
        <_>
          <internalNodes>
            0 -1 33 -170020470 -1075976995 889280851 -1075971951
            -1060443906 -125262965 -1852189441 -68575093</internalNodes>
          <leafValues>
            -7.4306118488311768e-01 4.5507076382637024e-01</leafValues></_>
        <_>
          <internalNodes>
            0 -1 44 1398607872 -73158503 -1963289633 -539129205
            1661920154 -1148788597 638822879 -67392769</internalNodes>
          <leafValues>
            -8.1655472517013550e-01 3.6459162831306458e-01</leafValues></_>
        <_>
          <internalNodes>
            0 -1 35 1541175804 -45327137 -249904197 -539078306
            -2087045144 -92139500 -1431389778 -13476482</internalNodes>
          <leafValues>
            -6.5844357013702393e-01 5.0386840105056763e-01</leafValues></_>
        <_>
          <internalNodes>
            0 -1 2 -896874294 -880140094 -636256111 -1118313967
            -1952201249 -559183735 -1969620065 -957885817</internalNodes>
          <leafValues>
            -6.8235993385314941e-01 4.4685557484626770e-01</leafValues></_></weakClassifiers></_>
    <!-- stage 5 -->
    <_>
      <maxWeakCount>5</maxWeakCount>
      <stageThreshold>-1.2801084518432617e+00</stageThreshold>
      <weakClassifiers>
        <_>
          <internalNodes>
            0 -1 51 -2362881 -40201799 -138675715 -648433439 -74461697
            -1392803585 -108274177 -855639041</internalNodes>
          <leafValues>
            -7.5679540634155273e-01 3.6546185612678528e-01</leafValues></_>
        <_>
          <internalNodes>
            0 -1 34 -2433540 -650059564 -788395300 1565380842
            -1841055270 143163546 -227357494 21954591</internalNodes>
          <leafValues>
            -7.5249296426773071e-01 3.4088942408561707e-01</leafValues></_>
        <_>
          <internalNodes>
            0 -1 46 -7864376 -574120881 -684560124 -586161805 1216937610
            67687180 17318030 1898180927</internalNodes>
          <leafValues>
            -6.6244220733642578e-01 4.1381925344467163e-01</leafValues></_>
        <_>
          <internalNodes>
            0 -1 38 2070469884 1597300124 -788472838 -2229522
            -1364673570 1519692476 -1147360258 989331706</internalNodes>
          <leafValues>
            -6.6513073444366455e-01 4.1645699739456177e-01</leafValues></_>
        <_>
          <internalNodes>
            0 -1 32 -1560110686 -208430105 -83639851 -134495353
            1082354155 -158674303 -1145747009 -1144783893</internalNodes>
          <leafValues>
            -5.9882116317749023e-01 4.8049136996269226e-01</leafValues></_></weakClassifiers></_>
    <!-- stage 6 -->
    <_>
      <maxWeakCount>6</maxWeakCount>
      <stageThreshold>-2.1565320491790771e+00</stageThreshold>
      <weakClassifiers>
        <_>
          <internalNodes>
            0 -1 60 -235931649 -1412069929 -553069605 -319291431
            -292884561 -1365070949 -23069697 -823132161</internalNodes>
          <leafValues>
            -8.2711863517761230e-01 5.2631579339504242e-02</leafValues></_>
        <_>
          <internalNodes>
            0 -1 55 -262418432 -2631473 911823 -33832497 -531504694
            -75259261 -518874421 -210506053</internalNodes>
          <leafValues>
            -7.0500695705413818e-01 2.6823970675468445e-01</leafValues></_>
        <_>
          <internalNodes>
            0 -1 14 1000111363 2147471639 -545730183 -4460161 453134601
            -115128297 2075228950 -13114521</internalNodes>
          <leafValues>
            -7.1238273382186890e-01 3.5962489247322083e-01</leafValues></_>
        <_>
          <internalNodes>
            0 -1 0 -898699538 -376802090 1435615727 -684599311
            -883430465 -1214303761 -352322053 -271586625</internalNodes>
          <leafValues>
            -6.7350924015045166e-01 3.7327271699905396e-01</leafValues></_>
        <_>
          <internalNodes>
            0 -1 43 -703082272 -250767693 -972112424 -548430305
            1074365848 -90636254 1361227995 -680837221</internalNodes>
          <leafValues>
            -6.1667221784591675e-01 4.2437833547592163e-01</leafValues></_>
        <_>
          <internalNodes>
            0 -1 9 -741091846 -787054444 -1726178824 -1647558468
            -907957254 -7633174 -1882398725 -1009978916</internalNodes>
          <leafValues>
            -7.9322361946105957e-01 3.3137571811676025e-01</leafValues></_></weakClassifiers></_>
    <!-- stage 7 -->
    <_>
      <maxWeakCount>7</maxWeakCount>
      <stageThreshold>-1.5502983331680298e+00</stageThreshold>
      <weakClassifiers>
        <_>
          <internalNodes>
            0 -1 12 -637544481 -134745281 -1861681537 -4221509
            -561075525 -336556224 -546862358 -13107601</internalNodes>
          <leafValues>
            -7.3992347717285156e-01 1.6963227093219757e-01</leafValues></_>
        <_>
          <internalNodes>
            0 -1 53 -1493188866 -2063689508 -343452264 -863137835
            -1196958741 -1999455556 -923055105 -1929396737</internalNodes>
          <leafValues>
            -6.7732864618301392e-01 2.8742083907127380e-01</leafValues></_>
        <_>
          <internalNodes>
            0 -1 23 2077162990 -183589308 -1345994674 -1781677428
            1061153470 103449854 -775226385 22005999</internalNodes>
          <leafValues>
            -6.2621730566024780e-01 3.6176833510398865e-01</leafValues></_>
        <_>
          <internalNodes>
            0 -1 21 -1007686168 -1114814329 -719044608 -10645033
            1676409311 -108461545 1368779725 -1680868609</internalNodes>
          <leafValues>
            -7.6717710494995117e-01 3.0836808681488037e-01</leafValues></_>
        <_>
          <internalNodes>
            0 -1 58 -6311168 -786963773 1226328156 -838274409 1779143296
            -233863037 1614821882 1359728623</internalNodes>
          <leafValues>
            -6.3947606086730957e-01 3.7060973048210144e-01</leafValues></_>
        <_>
          <internalNodes>
            0 -1 29 -73729 -2163464 -65538 -675414020 -8454146
            -1896821172 -541925378 -573055745</internalNodes>
          <leafValues>
            -4.1839712858200073e-01 5.6817418336868286e-01</leafValues></_>
        <_>
          <internalNodes>
            0 -1 28 -1610450262 -70535014 -1862077231 -4286249
            -1165776654 -1146941302 1128985227 -671110261</internalNodes>
          <leafValues>
            -5.4406952857971191e-01 4.5349252223968506e-01</leafValues></_></weakClassifiers></_>
    <!-- stage 8 -->
    <_>
      <maxWeakCount>7</maxWeakCount>
      <stageThreshold>-1.7086220979690552e+00</stageThreshold>
      <weakClassifiers>
        <_>
          <internalNodes>
            0 -1 17 -320014337 -237641711 -168698373 -6994087 -4554753
            -8265199 -11535393 -1317</internalNodes>
          <leafValues>
            -7.8848034143447876e-01 4.3627031147480011e-02</leafValues></_>
        <_>
          <internalNodes>
            0 -1 24 -136645829 -1297 285400884 -145827057 -33290207
            -601552640 -1258111882 -80556429</internalNodes>
          <leafValues>
            -7.3396742343902588e-01 2.9476535320281982e-01</leafValues></_>
        <_>
          <internalNodes>
            0 -1 57 -10489086 -11816450 -265643794 1400881631 -96477184
            -93355048 -219511046 -202376197</internalNodes>
          <leafValues>
            -5.6798923015594482e-01 4.1315126419067383e-01</leafValues></_>
        <_>
          <internalNodes>
            0 -1 52 -1376785411 -1897990152 -1522551876 -372268644
            -1109464388 -1435776612 -1074573859 -1929684740</internalNodes>
          <leafValues>
            -6.4075237512588501e-01 3.6152225732803345e-01</leafValues></_>
        <_>
          <internalNodes>
            0 -1 22 -83560450 -141626624 -1054420918 -721304480
            -2096395365 -1581367272 -1267837269 88459131</internalNodes>
          <leafValues>
            -6.1195927858352661e-01 4.1384264826774597e-01</leafValues></_>
        <_>
          <internalNodes>
            0 -1 40 -106253842 -740608772 -549314534 -35561196 -12011122
            1255967402 -1315980325 -716855205</internalNodes>
          <leafValues>
            -5.0434458255767822e-01 4.5758685469627380e-01</leafValues></_>
        <_>
          <internalNodes>
            0 -1 60 -2136526081 -1597192027 -1849179170 -1998679489
            -1572876357 -1398636053 -543953169 -1996493313</internalNodes>
          <leafValues>
            -6.7028540372848511e-01 3.4483236074447632e-01</leafValues></_></weakClassifiers></_>
    <!-- stage 9 -->
    <_>
      <maxWeakCount>9</maxWeakCount>
      <stageThreshold>-1.8798460960388184e+00</stageThreshold>
      <weakClassifiers>
        <_>
          <internalNodes>
            0 -1 31 -111149057 -614541190 -1220623873 -547947553
            -1415431011 -86364014 -345719809 -9207937</internalNodes>
          <leafValues>
            -7.7284592390060425e-01 -3.3955858089029789e-03</leafValues></_>
        <_>
          <internalNodes>
            0 -1 30 -221053641 -73772949 1269010715 -8432873 -91850476
            -100775680 -1153373356 -13477069</internalNodes>
          <leafValues>
            -7.2077661752700806e-01 2.0486684143543243e-01</leafValues></_>
        <_>
          <internalNodes>
            0 -1 48 -67702270 -1142161765 -550710339 -336999441
            -361189157 -536893201 -1179914501 -79697681</internalNodes>
          <leafValues>
            -5.5576795339584351e-01 3.6843138933181763e-01</leafValues></_>
        <_>
          <internalNodes>
            0 -1 6 -1049346 1435385868 1114017000 15503020 -372665861
            -137654165 -156243009 -1779435569</internalNodes>
          <leafValues>
            -6.8236654996871948e-01 3.0472555756568909e-01</leafValues></_>
        <_>
          <internalNodes>
            0 -1 10 -699476002 -18185986 -132606346 -272906566
            -355749650 -975917835 -1627461442 1284959439</internalNodes>
          <leafValues>
            -5.5577987432479858e-01 3.9525303244590759e-01</leafValues></_>
        <_>
          <internalNodes>
            0 -1 11 -134227523 1539254299 67356847 1465620790 -930962985
            -96312768 -110821820 -145653999</internalNodes>
          <leafValues>
            -5.2895218133926392e-01 4.0427336096763611e-01</leafValues></_>
        <_>
          <internalNodes>
            0 -1 8 -372906006 -368392694 -2104438755 -2022218806
            -125113202 -174354999 1116380159 -656018813</internalNodes>
          <leafValues>
            -5.8020597696304321e-01 3.8740241527557373e-01</leafValues></_>
        <_>
          <internalNodes>
            0 -1 47 -816605223 -1193901808 -134116372 -350864616
            -108811276 -2003632075 -1356146180 -1918377488</internalNodes>
          <leafValues>
            -5.7695525884628296e-01 3.5925507545471191e-01</leafValues></_>
        <_>
          <internalNodes>
            0 -1 45 -248676920 -149485810 -1910621888 -62413653
            -875370358 -849770492 1346720778 1427891966</internalNodes>
          <leafValues>
            -6.2547445297241211e-01 3.4199976921081543e-01</leafValues></_></weakClassifiers></_>
    <!-- stage 10 -->
    <_>
      <maxWeakCount>9</maxWeakCount>
      <stageThreshold>-2.0884714126586914e+00</stageThreshold>
      <weakClassifiers>
        <_>
          <internalNodes>
            0 -1 27 -572989441 -554110499 -1056159777 -5047809
            -1433401157 -1098380917 -1619715841 -9220513</internalNodes>
          <leafValues>
            -7.7880793809890747e-01 -1.6366612166166306e-02</leafValues></_>
        <_>
          <internalNodes>
            0 -1 39 -35661231 -707144327 -648971265 -2229601 -1031025674
            -106376486 -24839205 -19149089</internalNodes>
          <leafValues>
            -5.1933217048645020e-01 3.8502451777458191e-01</leafValues></_>
        <_>
          <internalNodes>
            0 -1 15 -593494473 -571031257 -667389286 -6042129 -643484843
            -262258077 -1181648780 -147325833</internalNodes>
          <leafValues>
            -7.0968866348266602e-01 2.8315564990043640e-01</leafValues></_>
        <_>
          <internalNodes>
            0 -1 37 1575808508 1563218396 1880660060 1432482820
            -28771620 -1148394916 -1745048850 290684971</internalNodes>
          <leafValues>
            -6.0567533969879150e-01 3.4926345944404602e-01</leafValues></_>
        <_>
          <internalNodes>
            0 -1 7 -563151906 -537738850 1040093564 -858994596
            -2096422773 -1949425301 -207634501 -589537313</internalNodes>
          <leafValues>
            -8.3704715967178345e-01 2.7816933393478394e-01</leafValues></_>
        <_>
          <internalNodes>
            0 -1 59 -67634191 -130485776 1931019344 -335480939
            -259850507 -1863327616 -746729232 -788661249</internalNodes>
          <leafValues>
            -5.2781343460083008e-01 3.8479876518249512e-01</leafValues></_>
        <_>
          <internalNodes>
            0 -1 42 -1787599902 -607436690 -776677892 2011534994
            -1296702485 1082687616 -965904145 1364675611</internalNodes>
          <leafValues>
            -5.3142803907394409e-01 3.9458465576171875e-01</leafValues></_>
        <_>
          <internalNodes>
            0 -1 36 -207555638 -542258150 -498056888 -678309679
            -1350243860 -2086130020 -981405300 -2128371765</internalNodes>
          <leafValues>
            -5.2804911136627197e-01 3.8134351372718811e-01</leafValues></_>
        <_>
          <internalNodes>
            0 -1 56 1375706626 2079803611 293704187 1367330898
            -1284806144 -1432819509 -91489318 -646194389</internalNodes>
          <leafValues>
            -5.9001445770263672e-01 3.3951717615127563e-01</leafValues></_></weakClassifiers></_></stages>
  <features>
    <_>
      <rect>
        0 0 2 2</rect></_>
    <_>
      <rect>
        0 0 4 1</rect></_>
    <_>
      <rect>
        0 1 1 3</rect></_>
    <_>
      <rect>
        0 1 2 2</rect></_>
    <_>
      <rect>
        0 1 2 4</rect></_>
    <_>
      <rect>
        0 1 2 5</rect></_>
    <_>
      <rect>
        0 2 4 2</rect></_>
    <_>
      <rect>
        0 2 4 4</rect></_>
    <_>
      <rect>
        0 3 1 1</rect></_>
    <_>
      <rect>
        0 7 5 3</rect></_>
    <_>
      <rect>
        0 8 3 2</rect></_>
    <_>
      <rect>
        0 10 1 2</rect></_>
    <_>
      <rect>
        0 10 2 2</rect></_>
    <_>
      <rect>
        0 12 1 1</rect></_>
    <_>
      <rect>
        0 13 1 1</rect></_>
    <_>
      <rect>
        0 13 2 1</rect></_>
    <_>
      <rect>
        1 0 2 2</rect></_>
    <_>
      <rect>
        1 0 3 1</rect></_>
    <_>
      <rect>
        1 0 4 1</rect></_>
    <_>
      <rect>
        1 0 5 2</rect></_>
    <_>
      <rect>
        1 0 5 4</rect></_>
    <_>
      <rect>
        1 2 5 2</rect></_>
    <_>
      <rect>
        1 4 2 2</rect></_>
    <_>
      <rect>
        1 5 2 2</rect></_>
    <_>
      <rect>
        1 12 1 1</rect></_>
    <_>
      <rect>
        1 13 1 1</rect></_>
    <_>
      <rect>
        1 13 2 1</rect></_>
    <_>
      <rect>
        1 13 3 1</rect></_>
    <_>
      <rect>
        2 1 1 1</rect></_>
    <_>
      <rect>
        2 9 2 2</rect></_>
    <_>
      <rect>
        2 13 1 1</rect></_>
    <_>
      <rect>
        2 13 2 1</rect></_>
    <_>
      <rect>
        3 0 1 1</rect></_>
    <_>
      <rect>
        3 0 4 1</rect></_>
    <_>
      <rect>
        3 6 2 2</rect></_>
    <_>
      <rect>
        4 13 1 1</rect></_>
    <_>
      <rect>
        5 2 2 2</rect></_>
    <_>
      <rect>
        5 8 2 2</rect></_>
    <_>
      <rect>
        5 13 2 1</rect></_>
    <_>
      <rect>
        6 0 3 1</rect></_>
    <_>
      <rect>
        6 6 2 2</rect></_>
    <_>
      <rect>
        7 0 3 1</rect></_>
    <_>
      <rect>
        7 4 2 2</rect></_>
    <_>
      <rect>
        8 1 2 2</rect></_>
    <_>
      <rect>
        9 0 2 2</rect></_>
    <_>
      <rect>
        9 3 2 2</rect></_>
    <_>
      <rect>
        9 4 2 2</rect></_>
    <_>
      <rect>
        9 13 2 1</rect></_>
    <_>
      <rect>
        10 0 2 2</rect></_>
    <_>
      <rect>
        10 1 2 1</rect></_>
    <_>
      <rect>
        10 2 2 4</rect></_>
    <_>
      <rect>
        10 13 2 1</rect></_>
    <_>
      <rect>
        11 13 1 1</rect></_>
    <_>
      <rect>
        12 13 1 1</rect></_>
    <_>
      <rect>
        13 1 1 2</rect></_>
    <_>
      <rect>
        13 1 1 3</rect></_>
    <_>
      <rect>
        13 2 1 1</rect></_>
    <_>
      <rect>
        13 3 1 1</rect></_>
    <_>
      <rect>
        13 3 1 3</rect></_>
    <_>
      <rect>
        13 11 1 1</rect></_>
    <_>
      <rect>
        13 13 1 1</rect></_></features></cascade>
</opencv_storage>
