<?xml version="1.0"?>
<opencv_storage>
<cascade>
  <stageType>BOOST</stageType>
  <featureType>LBP</featureType>
  <height>16</height>
  <width>16</width>
  <stageParams>
    <boostType>GAB</boostType>
    <minHitRate>9.9900001287460327e-01</minHitRate>
    <maxFalseAlarm>5.0000000000000000e-01</maxFalseAlarm>
    <weightTrimRate>9.4999999999999996e-01</weightTrimRate>
    <maxDepth>1</maxDepth>
    <maxWeakCount>100</maxWeakCount></stageParams>
  <featureParams>
    <maxCatCount>256</maxCatCount>
    <featSize>1</featSize></featureParams>
  <stageNum>13</stageNum>
  <stages>
    <!-- stage 0 -->
    <_>
      <maxWeakCount>3</maxWeakCount>
      <stageThreshold>-1.1823471784591675e+00</stageThreshold>
      <weakClassifiers>
        <_>
          <internalNodes>
            0 -1 23 -654578006 -67113025 23134992 -4258881 -38019329
            -1078986817 -339756033 -1</internalNodes>
          <leafValues>
            -9.2506462335586548e-01 5.3911203145980835e-01</leafValues></_>
        <_>
          <internalNodes>
            0 -1 73 -806354945 -1359211569 -742400513 -1361641473
            -1409291265 -1459620885 -67109889 -1929379841</internalNodes>
          <leafValues>
            -8.1708860397338867e-01 5.7119345664978027e-01</leafValues></_>
        <_>
          <internalNodes>
            0 -1 38 -216858614 -134262273 -728541933 2139076095
            -1584718849 -69222849 -1614834689 -4161</internalNodes>
          <leafValues>
            -8.2847601175308228e-01 5.6500202417373657e-01</leafValues></_></weakClassifiers></_>
    <!-- stage 1 -->
    <_>
      <maxWeakCount>5</maxWeakCount>
      <stageThreshold>-1.3079043626785278e+00</stageThreshold>
      <weakClassifiers>
        <_>
          <internalNodes>
            0 -1 4 -294654737 -72353801 -1543506433 -44577 -68157441
            -4198977 -2360321 -4609</internalNodes>
          <leafValues>
            -8.3085781335830688e-01 5.2679306268692017e-01</leafValues></_>
        <_>
          <internalNodes>
            0 -1 19 -6455521 -261 -244100231 -3201 -1142990031 -317355
            -1573067 -4718729</internalNodes>
          <leafValues>
            -7.5668537616729736e-01 5.7934057712554932e-01</leafValues></_>
        <_>
          <internalNodes>
            0 -1 7 -286332178 713744586 -504631301 1476856058 -167772161
            -268437377 -201458689 -33</internalNodes>
          <leafValues>
            -7.7399265766143799e-01 5.3683775663375854e-01</leafValues></_>
        <_>
          <internalNodes>
            0 -1 59 -212401920 2147425275 -606085641 -73400465
            1876832257 -536887361 601587579 -4194467</internalNodes>
          <leafValues>
            -8.8642185926437378e-01 4.0626767277717590e-01</leafValues></_>
        <_>
          <internalNodes>
            0 -1 62 -268439553 -385875971 -6 -520093702 -1375732225
            -2063728644 -33563137 -855639553</internalNodes>
          <leafValues>
            -6.0878753662109375e-01 6.4736384153366089e-01</leafValues></_></weakClassifiers></_>
    <!-- stage 2 -->
    <_>
      <maxWeakCount>6</maxWeakCount>
      <stageThreshold>-2.0410733222961426e+00</stageThreshold>
      <weakClassifiers>
        <_>
          <internalNodes>
            0 -1 20 -33554561 -50305 -36503617 -794625 -1208222859
            -60384413 -18613385 -8913037</internalNodes>
          <leafValues>
            -8.4729379415512085e-01 3.7500000000000000e-01</leafValues></_>
        <_>
          <internalNodes>
            0 -1 24 -640884788 -101461041 -2101292208 -536884257
            -108421393 -70547573 -103153666 -67108865</internalNodes>
          <leafValues>
            -8.1862819194793701e-01 4.4438561797142029e-01</leafValues></_>
        <_>
          <internalNodes>
            0 -1 73 -1191198721 -1427197957 -1343227947 -285281639
            -1347425285 -1900625953 -1677721601 -318967873</internalNodes>
          <leafValues>
            -6.7066472768783569e-01 4.8687073588371277e-01</leafValues></_>
        <_>
          <internalNodes>
            0 -1 37 -1566528856 -1288445716 2013263867 -143135873
            -6347265 -6573061 -606076929 -150995237</internalNodes>
          <leafValues>
            -7.1202212572097778e-01 4.8807647824287415e-01</leafValues></_>
        <_>
          <internalNodes>
            0 -1 60 -69206265 -67111593 -255338253 -541746977 -604505600
            -554790661 -659933761 -201359585</internalNodes>
          <leafValues>
            -6.0738360881805420e-01 5.7338607311248779e-01</leafValues></_>
        <_>
          <internalNodes>
            0 -1 5 -393282310 -791886642 -1625372206 -1931209896
            -1377924946 -158400353 -508319553 -137364737</internalNodes>
          <leafValues>
            -8.0060231685638428e-01 4.1482043266296387e-01</leafValues></_></weakClassifiers></_>
    <!-- stage 3 -->
    <_>
      <maxWeakCount>5</maxWeakCount>
      <stageThreshold>-1.4972009658813477e+00</stageThreshold>
      <weakClassifiers>
        <_>
          <internalNodes>
            0 -1 27 -9413 -69211221 -2166097 -1311489 -4513931 -68196505
            -71369867 -8913033</internalNodes>
          <leafValues>
            -8.3883035182952881e-01 2.3233608901500702e-01</leafValues></_>
        <_>
          <internalNodes>
            0 -1 70 -142609920 -811587 -251922186 -75771561 -9747456
            -183765665 -221604613 -201326629</internalNodes>
          <leafValues>
            -6.7042911052703857e-01 4.7745910286903381e-01</leafValues></_>
        <_>
          <internalNodes>
            0 -1 16 -33624065 -1901830 865771258 -39127342 -536952834
            -29034444 -342298374 -592381834</internalNodes>
          <leafValues>
            -7.5018799304962158e-01 3.9964613318443298e-01</leafValues></_>
        <_>
          <internalNodes>
            0 -1 73 -1529382401 -1495890945 -572063817 -856256513
            -1363148881 -1393121025 -1627919426 -855707649</internalNodes>
          <leafValues>
            -7.0593160390853882e-01 4.3193763494491577e-01</leafValues></_>
        <_>
          <internalNodes>
            0 -1 31 1890624174 -556052007 555054585 2137637847
            -762250801 -209522279 -1149108225 -19432567</internalNodes>
          <leafValues>
            -7.4085766077041626e-01 4.8430952429771423e-01</leafValues></_></weakClassifiers></_>
    <!-- stage 4 -->
    <_>
      <maxWeakCount>6</maxWeakCount>
      <stageThreshold>-1.6605811119079590e+00</stageThreshold>
      <weakClassifiers>
        <_>
          <internalNodes>
            0 -1 1 -890568977 -74722918 -680136737 -136317605 -266501
            -282695 -343172613 -268439553</internalNodes>
          <leafValues>
            -7.6117610931396484e-01 3.6895674467086792e-01</leafValues></_>
        <_>
          <internalNodes>
            0 -1 59 -109055485 -14692329 -1785544303 -2634977 -242503478
            -68173329 -1718768661 -8394001</internalNodes>
          <leafValues>
            -5.7068055868148804e-01 5.3588962554931641e-01</leafValues></_>
        <_>
          <internalNodes>
            0 -1 58 -306200579 -1931479823 -115662887 700384605
            -1433666628 -1997829704 -1413490500 -1929380355</internalNodes>
          <leafValues>
            -5.6965541839599609e-01 5.2186077833175659e-01</leafValues></_>
        <_>
          <internalNodes>
            0 -1 0 -525676886 -1051199100 -264011573 -313527585
            -603067473 -142876520 -291775761 -990387721</internalNodes>
          <leafValues>
            -5.5141848325729370e-01 5.2804505825042725e-01</leafValues></_>
        <_>
          <internalNodes>
            0 -1 61 -1152 968842662 -786296832 1369665708 2140913336
            -665188288 -1155812728 18317451</internalNodes>
          <leafValues>
            -6.7282289266586304e-01 4.5025613903999329e-01</leafValues></_>
        <_>
          <internalNodes>
            0 -1 19 -545593037 1071849787 -1848739341 2077997563
            -1954020848 -12582079 -82433483 -8945807</internalNodes>
          <leafValues>
            -7.0580732822418213e-01 4.0592163801193237e-01</leafValues></_></weakClassifiers></_>
    <!-- stage 5 -->
    <_>
      <maxWeakCount>5</maxWeakCount>
      <stageThreshold>-1.5529940128326416e+00</stageThreshold>
      <weakClassifiers>
        <_>
          <internalNodes>
            0 -1 50 -539754751 -8529031 -585581601 -2231847 -610665720
            -10819142 -1366378021 -5251845</internalNodes>
          <leafValues>
            -8.3508139848709106e-01 1.1848884075880051e-01</leafValues></_>
        <_>
          <internalNodes>
            0 -1 2 -33893410 -35077668 1095647246 -706610696 -1315986801
            -1966096177 -357924470 -168436231</internalNodes>
          <leafValues>
            -7.3256582021713257e-01 3.4107258915901184e-01</leafValues></_>
        <_>
          <internalNodes>
            0 -1 35 -201696961 -257605 -110915273 -4293 -218604748
            -15529982 -874579116 -13476041</internalNodes>
          <leafValues>
            -6.7257308959960938e-01 4.1459149122238159e-01</leafValues></_>
        <_>
          <internalNodes>
            0 -1 6 -370366258 -297082802 -116329482 -2797201 731486975
            1870645690 1471870623 -269488149</internalNodes>
          <leafValues>
            -6.6286325454711914e-01 4.2746430635452271e-01</leafValues></_>
        <_>
          <internalNodes>
            0 -1 40 -10854916 -1175830360 -789929324 1566144714
            -1415393860 231245963 -1139627062 17760283</internalNodes>
          <leafValues>
            -6.7711907625198364e-01 4.1980329155921936e-01</leafValues></_></weakClassifiers></_>
    <!-- stage 6 -->
    <_>
      <maxWeakCount>7</maxWeakCount>
      <stageThreshold>-1.4519391059875488e+00</stageThreshold>
      <weakClassifiers>
        <_>
          <internalNodes>
            0 -1 56 -7864338 -67431677 -794701568 -37491773 -83297398
            -207410678 1090564362 -176948261</internalNodes>
          <leafValues>
            -7.4283933639526367e-01 2.1846154332160950e-01</leafValues></_>
        <_>
          <internalNodes>
            0 -1 14 -540214290 -37691190 -930594660 -573848374
            -1551046486 -941456996 -1963212642 1104102927</internalNodes>
          <leafValues>
            -6.2698370218276978e-01 4.1473188996315002e-01</leafValues></_>
        <_>
          <internalNodes>
            0 -1 48 1934202324 965148756 -184421936 1065209880
            -1744246308 -128385000 -291972100 682401964</internalNodes>
          <leafValues>
            -7.0939064025878906e-01 3.8990029692649841e-01</leafValues></_>
        <_>
          <internalNodes>
            0 -1 53 -2273024 2078249035 -58461697 -707931429 -259817028
            -87521654 -784160005 -13632674</internalNodes>
          <leafValues>
            -6.1044520139694214e-01 4.4413942098617554e-01</leafValues></_>
        <_>
          <internalNodes>
            0 -1 18 -568467689 -136613101 -1132408337 -1309429345
            -439365328 -228917240 -517720719 -8916416</internalNodes>
          <leafValues>
            -5.8588248491287231e-01 4.5516431331634521e-01</leafValues></_>
        <_>
          <internalNodes>
            0 -1 12 -387530002 -1438220126 -1065111418 -150665278
            -979525473 -380698165 -1604615749 -1060125989</internalNodes>
          <leafValues>
            -5.8660036325454712e-01 4.3093049526214600e-01</leafValues></_>
        <_>
          <internalNodes>
            0 -1 55 -571868968 -3661420 367038848 -716578560 -243214694
            1581285952 574728638 1157877851</internalNodes>
          <leafValues>
            -5.9194236993789673e-01 4.3137082457542419e-01</leafValues></_></weakClassifiers></_>
    <!-- stage 7 -->
    <_>
      <maxWeakCount>7</maxWeakCount>
      <stageThreshold>-1.5912867784500122e+00</stageThreshold>
      <weakClassifiers>
        <_>
          <internalNodes>
            0 -1 67 -1 -1931701927 -875732709 -857753683 -1280582933
            -1397044566 -74724353 -1929381381</internalNodes>
          <leafValues>
            -7.9524677991867065e-01 4.1080471128225327e-02</leafValues></_>
        <_>
          <internalNodes>
            0 -1 71 -536874496 -3294755 1350113293 -101198849 -116424704
            -1319427958 1346549214 -216269841</internalNodes>
          <leafValues>
            -6.2726205587387085e-01 3.5138565301895142e-01</leafValues></_>
        <_>
          <internalNodes>
            0 -1 36 -1474127448 -778325557 -1139548715 -67111461
            1928272895 -70416141 -1081640017 -470822033</internalNodes>
          <leafValues>
            -5.6719917058944702e-01 3.9041504263877869e-01</leafValues></_>
        <_>
          <internalNodes>
            0 -1 44 -706970114 -36285360 -778403495 -539487370 -74294312
            -94873588 -17370696 -80578794</internalNodes>
          <leafValues>
            -6.0728883743286133e-01 3.8522064685821533e-01</leafValues></_>
        <_>
          <internalNodes>
            0 -1 45 1359007880 -9074438 1074303229 1407676649 93049823
            -328955060 1304558063 -573066321</internalNodes>
          <leafValues>
            -5.0963973999023438e-01 4.6378761529922485e-01</leafValues></_>
        <_>
          <internalNodes>
            0 -1 57 -395428 2002538824 -1044325156 -1244607888
            -350027780 -758903684 1627583674 555874250</internalNodes>
          <leafValues>
            -6.2028932571411133e-01 3.6019510030746460e-01</leafValues></_>
        <_>
          <internalNodes>
            0 -1 72 -678954072 -79391840 302286400 285438928 -754218432
            -854589184 -1203665958 1084478463</internalNodes>
          <leafValues>
            -5.8002352714538574e-01 3.4169766306877136e-01</leafValues></_></weakClassifiers></_>
    <!-- stage 8 -->
    <_>
      <maxWeakCount>8</maxWeakCount>
      <stageThreshold>-1.4724150896072388e+00</stageThreshold>
      <weakClassifiers>
        <_>
          <internalNodes>
            0 -1 21 -286261281 -70327164 -652880515 -2649647 -69353729
            -67271719 -83256837 -9828</internalNodes>
          <leafValues>
            -7.0712321996688843e-01 1.7002417147159576e-01</leafValues></_>
        <_>
          <internalNodes>
            0 -1 27 -78184591 -2131095 -1044790785 -78384745 -98237659
            -71098365 -71615641 -9225613</internalNodes>
          <leafValues>
            -6.5718930959701538e-01 2.9396936297416687e-01</leafValues></_>
        <_>
          <internalNodes>
            0 -1 65 -743243776 -3146825 -482086131 -77597729 -248780371
            -112592453 2132803307 -146801801</internalNodes>
          <leafValues>
            -6.7856442928314209e-01 3.1500700116157532e-01</leafValues></_>
        <_>
          <internalNodes>
            0 -1 26 2145055998 -183844276 -954826680 -985563036
            -1297372225 -2136691508 273195946 17123695</internalNodes>
          <leafValues>
            -6.5409100055694580e-01 3.4505346417427063e-01</leafValues></_>
        <_>
          <internalNodes>
            0 -1 67 -1427137829 -1367728020 -888995408 -857893935
            -1850692711 -1395478264 -658541889 -1929659907</internalNodes>
          <leafValues>
            -6.3977938890457153e-01 3.0693846940994263e-01</leafValues></_>
        <_>
          <internalNodes>
            0 -1 43 -98921988 -654257144 29378720 -116555588 -790056456
            -1968256124 -368273142 21958687</internalNodes>
          <leafValues>
            -6.2188071012496948e-01 3.2130724191665649e-01</leafValues></_>
        <_>
          <internalNodes>
            0 -1 11 -320012340 -368383450 -402468385 -2089098286
            -224418883 2033967235 1266697103 -956307973</internalNodes>
          <leafValues>
            -5.9169381856918335e-01 3.4378990530967712e-01</leafValues></_>
        <_>
          <internalNodes>
            0 -1 51 -618922018 -243072509 -1325301432 923093763
            -351552626 2072707099 -49742180 2138953980</internalNodes>
          <leafValues>
            -6.6003704071044922e-01 3.1855776906013489e-01</leafValues></_></weakClassifiers></_>
    <!-- stage 9 -->
    <_>
      <maxWeakCount>9</maxWeakCount>
      <stageThreshold>-1.8333941698074341e+00</stageThreshold>
      <weakClassifiers>
        <_>
          <internalNodes>
            0 -1 29 1436481535 -63010849 -753494569 -861351 -911729957
            -915005 -67768321 -9208233</internalNodes>
          <leafValues>
            -7.1703559160232544e-01 7.8832119703292847e-02</leafValues></_>
        <_>
          <internalNodes>
            0 -1 54 -757083456 -288305 -1073088295 -1052033 1393299848
            -611375028 1092980891 -177751126</internalNodes>
          <leafValues>
            -6.1665785312652588e-01 2.8462275862693787e-01</leafValues></_>
        <_>
          <internalNodes>
            0 -1 73 -168838145 -1900371929 -1655967369 -1395199235
            1673522863 -2001564997 -1141114113 -1392514053</internalNodes>
          <leafValues>
            -5.8973401784896851e-01 3.3289170265197754e-01</leafValues></_>
        <_>
          <internalNodes>
            0 -1 22 -393548084 -14823015 -1123273091 1527218573 -8303649
            -338132837 -69600341 -53883943</internalNodes>
          <leafValues>
            -6.9961744546890259e-01 3.3453324437141418e-01</leafValues></_>
        <_>
          <internalNodes>
            0 -1 68 -67158014 -2129525 -788016945 -704651017 -1755381094
            -158350709 -486696726 -984876405</internalNodes>
          <leafValues>
            -5.0083130598068237e-01 4.3230575323104858e-01</leafValues></_>
        <_>
          <internalNodes>
            0 -1 33 -709038888 -1646480676 1880285436 -579359602
            -477444904 -1946107194 -1163870722 93799627</internalNodes>
          <leafValues>
            -5.3214949369430542e-01 3.9248332381248474e-01</leafValues></_>
        <_>
          <internalNodes>
            0 -1 34 -69272993 -757710779 275149142 2138964269 -494132736
            -62895584 1863484966 -9280734</internalNodes>
          <leafValues>
            -6.2152808904647827e-01 3.3756360411643982e-01</leafValues></_>
        <_>
          <internalNodes>
            0 -1 1 -902895378 -130877220 -709535349 -544489193 804987867
            -541019838 -204363333 -1350710275</internalNodes>
          <leafValues>
            -5.5185747146606445e-01 3.3933004736900330e-01</leafValues></_>
        <_>
          <internalNodes>
            0 -1 39 -141625860 -23537520 -134217682 -706884366
            -1107239173 -1349743202 -25171318 294350955</internalNodes>
          <leafValues>
            -5.4880803823471069e-01 3.2771220803260803e-01</leafValues></_></weakClassifiers></_>
    <!-- stage 10 -->
    <_>
      <maxWeakCount>8</maxWeakCount>
      <stageThreshold>-1.5976881980895996e+00</stageThreshold>
      <weakClassifiers>
        <_>
          <internalNodes>
            0 -1 28 -545786505 -31538697 -1747828485 -13467009 -81041065
            -578444 -626852993 -9176265</internalNodes>
          <leafValues>
            -7.8378379344940186e-01 -2.1393308416008949e-02</leafValues></_>
        <_>
          <internalNodes>
            0 -1 42 -35654400 -261 -634294061 -549590081 -90637394
            -88440590 -74926435 -907458390</internalNodes>
          <leafValues>
            -7.0149213075637817e-01 2.2824992239475250e-01</leafValues></_>
        <_>
          <internalNodes>
            0 -1 17 -786693 -10610889 -1097018402 -1157955874 -166343632
            -702541212 -85664172 -143272073</internalNodes>
          <leafValues>
            -5.6605368852615356e-01 3.4920427203178406e-01</leafValues></_>
        <_>
          <internalNodes>
            0 -1 8 -33624834 -858995506 556650973 1152185566 -962625381
            -608197894 -40924994 -960119812</internalNodes>
          <leafValues>
            -6.7827075719833374e-01 3.0652365088462830e-01</leafValues></_>
        <_>
          <internalNodes>
            0 -1 19 2010414455 -1210099233 -612590723 -4203681 383655701
            -97058543 -9012364 -1145578665</internalNodes>
          <leafValues>
            -6.2182605266571045e-01 2.8371766209602356e-01</leafValues></_>
        <_>
          <internalNodes>
            0 -1 46 -1514480134 -406802264 432538008 -170835892
            -1157440566 -1884557944 -373882130 -778614385</internalNodes>
          <leafValues>
            -4.7531881928443909e-01 4.1367429494857788e-01</leafValues></_>
        <_>
          <internalNodes>
            0 -1 9 149873390 -1565875538 352416653 -944422635 -651561329
            -301074293 1560804267 -1058807313</internalNodes>
          <leafValues>
            -6.5428674221038818e-01 2.8745147585868835e-01</leafValues></_>
        <_>
          <internalNodes>
            0 -1 64 -1467970051 -1940109031 -1538976355 -931672940
            -1605710868 -1998419560 436419357 -1933870851</internalNodes>
          <leafValues>
            -6.3952004909515381e-01 3.0167919397354126e-01</leafValues></_></weakClassifiers></_>
    <!-- stage 11 -->
    <_>
      <maxWeakCount>8</maxWeakCount>
      <stageThreshold>-2.0106735229492188e+00</stageThreshold>
      <weakClassifiers>
        <_>
          <internalNodes>
            0 -1 63 -537182144 -11669281 -447324161 -111557847 -73743668
            -2373494 -1156908289 -78648613</internalNodes>
          <leafValues>
            -7.6667881011962891e-01 -1.3761468231678009e-02</leafValues></_>
        <_>
          <internalNodes>
            0 -1 3 -465570339 -364068798 -541600419 -297641 1874558719
            -1193295 1938683326 -811906309</internalNodes>
          <leafValues>
            -6.2624180316925049e-01 2.4335667490959167e-01</leafValues></_>
        <_>
          <internalNodes>
            0 -1 18 2010980191 -33661581 -1831284490 -71304433
            -232760012 -733888236 -212665552 -210373801</internalNodes>
          <leafValues>
            -5.8310723304748535e-01 3.0189061164855957e-01</leafValues></_>
        <_>
          <internalNodes>
            0 -1 25 -9580668 -547913445 1841683856 -201487873
            -1682324833 -1448924479 -1723208882 -1084441753</internalNodes>
          <leafValues>
            -6.2910300493240356e-01 3.1455513834953308e-01</leafValues></_>
        <_>
          <internalNodes>
            0 -1 73 -372247297 718719483 -1643579177 -2097686067
            -1970537537 -2010641206 -1080824897 -1933837317</internalNodes>
          <leafValues>
            -6.0445219278335571e-01 3.0468642711639404e-01</leafValues></_>
        <_>
          <internalNodes>
            0 -1 49 -768564324 -1616450100 -183316012 -182857512
            -1010895650 -884963812 -1088688486 1364675423</internalNodes>
          <leafValues>
            -5.0900918245315552e-01 3.9901039004325867e-01</leafValues></_>
        <_>
          <internalNodes>
            0 -1 52 -135404046 2009925646 -1297041438 1910631858
            1039000506 1113108700 641797322 1095974979</internalNodes>
          <leafValues>
            -5.7235634326934814e-01 3.1160813570022583e-01</leafValues></_>
        <_>
          <internalNodes>
            0 -1 15 -555759026 -691625822 -225278754 -423173394
            1661854154 1141518923 1352747006 -143662497</internalNodes>
          <leafValues>
            -4.5648619532585144e-01 4.1097930073738098e-01</leafValues></_></weakClassifiers></_>
    <!-- stage 12 -->
    <_>
      <maxWeakCount>10</maxWeakCount>
      <stageThreshold>-1.6975796222686768e+00</stageThreshold>
      <weakClassifiers>
        <_>
          <internalNodes>
            0 -1 59 -75498749 -605046465 -467545607 -550646053
            -540280117 -608465959 -221257985 -4353</internalNodes>
          <leafValues>
            -7.3097342252731323e-01 -3.7304453551769257e-02</leafValues></_>
        <_>
          <internalNodes>
            0 -1 41 -640140033 -539853731 1363151326 -888482 -353740012
            -126418362 -103384464 -13468878</internalNodes>
          <leafValues>
            -6.6529512405395508e-01 2.1308398246765137e-01</leafValues></_>
        <_>
          <internalNodes>
            0 -1 32 -213060354 -573783444 -1839441540 -572543268
            -174271028 -2012954188 -542860916 1163611359</internalNodes>
          <leafValues>
            -5.5388545989990234e-01 3.1076598167419434e-01</leafValues></_>
        <_>
          <internalNodes>
            0 -1 47 2110840316 -711933200 1931727824 -73619364
            -307726120 1920893612 -73745410 989342458</internalNodes>
          <leafValues>
            -5.5094271898269653e-01 3.2491564750671387e-01</leafValues></_>
        <_>
          <internalNodes>
            0 -1 13 -280038402 -8325430 -2116634386 17657486 -1073206340
            -1592201016 -641602887 913131095</internalNodes>
          <leafValues>
            -5.4243391752243042e-01 3.1063511967658997e-01</leafValues></_>
        <_>
          <internalNodes>
            0 -1 30 -1467822558 1601277381 832248407 -34786442
            -1077740705 -356343768 -12592757 -337120597</internalNodes>
          <leafValues>
            -5.8344513177871704e-01 2.7210569381713867e-01</leafValues></_>
        <_>
          <internalNodes>
            0 -1 19 -640061129 898826781 1972590364 857559519
            -2090643405 -1144960765 -747472046 -13145563</internalNodes>
          <leafValues>
            -5.9360003471374512e-01 2.7869451045989990e-01</leafValues></_>
        <_>
          <internalNodes>
            0 -1 10 -804645666 1400849174 -753528354 -856899332
            -2130474837 -1986854837 -1955873025 -859512836</internalNodes>
          <leafValues>
            -8.1710231304168701e-01 1.9554762542247772e-01</leafValues></_>
        <_>
          <internalNodes>
            0 -1 66 -109593205 -206389388 -26677728 -218890269
            -135412084 70678355 -471294726 -218368258</internalNodes>
          <leafValues>
            -3.5384038090705872e-01 5.3591710329055786e-01</leafValues></_>
        <_>
          <internalNodes>
            0 -1 69 1456730112 -68165283 1076744303 -548449621
            1921630720 -69286997 -770770161 1342349155</internalNodes>
          <leafValues>
            -6.0844063758850098e-01 2.7364629507064819e-01</leafValues></_></weakClassifiers></_></stages>
  <features>
    <_>
      <rect>
        0 0 1 4</rect></_>
    <_>
      <rect>
        0 0 2 2</rect></_>
    <_>
      <rect>
        0 0 2 5</rect></_>
    <_>
      <rect>
        0 0 3 1</rect></_>
    <_>
      <rect>
        0 0 4 1</rect></_>
    <_>
      <rect>
        0 0 4 3</rect></_>
    <_>
      <rect>
        0 1 2 1</rect></_>
    <_>
      <rect>
        0 1 2 2</rect></_>
    <_>
      <rect>
        0 1 2 4</rect></_>
    <_>
      <rect>
        0 2 1 2</rect></_>
    <_>
      <rect>
        0 2 4 4</rect></_>
    <_>
      <rect>
        0 3 1 1</rect></_>
    <_>
      <rect>
        0 3 1 2</rect></_>
    <_>
      <rect>
        0 5 2 2</rect></_>
    <_>
      <rect>
        0 6 2 2</rect></_>
    <_>
      <rect>
        0 7 1 1</rect></_>
    <_>
      <rect>
        0 7 3 3</rect></_>
    <_>
      <rect>
        0 11 1 1</rect></_>
    <_>
      <rect>
        0 12 1 1</rect></_>
    <_>
      <rect>
        0 13 1 1</rect></_>
    <_>
      <rect>
        0 13 2 1</rect></_>
    <_>
      <rect>
        1 0 3 1</rect></_>
    <_>
      <rect>
        1 0 4 1</rect></_>
    <_>
      <rect>
        1 0 5 2</rect></_>
    <_>
      <rect>
        1 0 5 4</rect></_>
    <_>
      <rect>
        1 1 5 3</rect></_>
    <_>
      <rect>
        1 4 2 2</rect></_>
    <_>
      <rect>
        1 13 1 1</rect></_>
    <_>
      <rect>
        1 13 2 1</rect></_>
    <_>
      <rect>
        1 13 3 1</rect></_>
    <_>
      <rect>
        2 0 1 2</rect></_>
    <_>
      <rect>
        2 0 4 1</rect></_>
    <_>
      <rect>
        2 7 2 2</rect></_>
    <_>
      <rect>
        2 8 2 2</rect></_>
    <_>
      <rect>
        2 12 1 1</rect></_>
    <_>
      <rect>
        2 13 1 1</rect></_>
    <_>
      <rect>
        3 0 1 1</rect></_>
    <_>
      <rect>
        3 0 2 1</rect></_>
    <_>
      <rect>
        3 0 4 1</rect></_>
    <_>
      <rect>
        3 5 2 2</rect></_>
    <_>
      <rect>
        3 6 2 2</rect></_>
    <_>
      <rect>
        3 13 1 1</rect></_>
    <_>
      <rect>
        4 0 4 1</rect></_>
    <_>
      <rect>
        4 6 2 2</rect></_>
    <_>
      <rect>
        4 13 1 1</rect></_>
    <_>
      <rect>
        5 0 2 2</rect></_>
    <_>
      <rect>
        5 4 2 2</rect></_>
    <_>
      <rect>
        5 13 2 1</rect></_>
    <_>
      <rect>
        5 13 3 1</rect></_>
    <_>
      <rect>
        6 7 2 2</rect></_>
    <_>
      <rect>
        7 0 3 1</rect></_>
    <_>
      <rect>
        7 1 3 5</rect></_>
    <_>
      <rect>
        7 4 2 2</rect></_>
    <_>
      <rect>
        8 0 2 1</rect></_>
    <_>
      <rect>
        8 1 2 2</rect></_>
    <_>
      <rect>
        8 5 2 2</rect></_>
    <_>
      <rect>
        9 2 2 3</rect></_>
    <_>
      <rect>
        9 8 2 2</rect></_>
    <_>
      <rect>
        9 13 2 1</rect></_>
    <_>
      <rect>
        10 0 2 2</rect></_>
    <_>
      <rect>
        10 1 2 1</rect></_>
    <_>
      <rect>
        10 6 2 2</rect></_>
    <_>
      <rect>
        10 13 2 1</rect></_>
    <_>
      <rect>
        11 1 1 1</rect></_>
    <_>
      <rect>
        11 13 1 1</rect></_>
    <_>
      <rect>
        12 0 1 2</rect></_>
    <_>
      <rect>
        12 5 1 1</rect></_>
    <_>
      <rect>
        12 13 1 1</rect></_>
    <_>
      <rect>
        13 1 1 2</rect></_>
    <_>
      <rect>
        13 2 1 2</rect></_>
    <_>
      <rect>
        13 3 1 1</rect></_>
    <_>
      <rect>
        13 3 1 2</rect></_>
    <_>
      <rect>
        13 5 1 2</rect></_>
    <_>
      <rect>
        13 13 1 1</rect></_></features></cascade>
</opencv_storage>
