<?xml version="1.0"?>
<opencv_storage>
<cascade>
  <stageType>BOOST</stageType>
  <featureType>LBP</featureType>
  <height>32</height>
  <width>32</width>
  <stageParams>
    <boostType>GAB</boostType>
    <minHitRate>9.9900001287460327e-01</minHitRate>
    <maxFalseAlarm>5.0000000000000000e-01</maxFalseAlarm>
    <weightTrimRate>9.4999999999999996e-01</weightTrimRate>
    <maxDepth>1</maxDepth>
    <maxWeakCount>100</maxWeakCount></stageParams>
  <featureParams>
    <maxCatCount>256</maxCatCount>
    <featSize>1</featSize></featureParams>
  <stageNum>13</stageNum>
  <stages>
    <!-- stage 0 -->
    <_>
      <maxWeakCount>3</maxWeakCount>
      <stageThreshold>-1.1953047513961792e+00</stageThreshold>
      <weakClassifiers>
        <_>
          <internalNodes>
            0 -1 3 -787822130 2030256265 67129344 302108823 -888436481
            -1688565557 142773243 -4207889</internalNodes>
          <leafValues>
            -9.7395241260528564e-01 7.1205008029937744e-01</leafValues></_>
        <_>
          <internalNodes>
            0 -1 10 -426849841 -351280989 287683231 -13688049 732662511
            -341066833 -324285445 -4207617</internalNodes>
          <leafValues>
            -9.1561299562454224e-01 7.7541148662567139e-01</leafValues></_>
        <_>
          <internalNodes>
            0 -1 38 -109117437 -106196985 -1992867573 -106986577
            -744275537 -7621729 126823615 -5137</internalNodes>
          <leafValues>
            -9.3700975179672241e-01 6.9426065683364868e-01</leafValues></_></weakClassifiers></_>
    <!-- stage 1 -->
    <_>
      <maxWeakCount>3</maxWeakCount>
      <stageThreshold>-1.1295582056045532e+00</stageThreshold>
      <weakClassifiers>
        <_>
          <internalNodes>
            0 -1 44 -402653185 -1359216933 -376966753 -1363176225
            -1426074881 -88430417 -70255937 -16777281</internalNodes>
          <leafValues>
            -9.0130150318145752e-01 7.0766490697860718e-01</leafValues></_>
        <_>
          <internalNodes>
            0 -1 4 -268435457 -290741202 -270663937 -1241908363
            212859903 -38999109 -19141985 -5252165</internalNodes>
          <leafValues>
            -8.6232084035873413e-01 7.4469482898712158e-01</leafValues></_>
        <_>
          <internalNodes>
            0 -1 16 -168165577 -2785029 140042207 -84814341 -203002346
            -70026693 -67437769 -8979593</internalNodes>
          <leafValues>
            -9.0295594930648804e-01 6.3406419754028320e-01</leafValues></_></weakClassifiers></_>
    <!-- stage 2 -->
    <_>
      <maxWeakCount>3</maxWeakCount>
      <stageThreshold>-1.1272790431976318e+00</stageThreshold>
      <weakClassifiers>
        <_>
          <internalNodes>
            0 -1 41 -1879327745 -1358973953 -577153569 -287475243
            -88342529 -33821781 -67437569 -16777217</internalNodes>
          <leafValues>
            -9.0853315591812134e-01 5.9477126598358154e-01</leafValues></_>
        <_>
          <internalNodes>
            0 -1 11 -544417572 -82852599 1109168148 -14822947
            -1046756657 -1565851640 -408189745 -269493281</internalNodes>
          <leafValues>
            -9.1150665283203125e-01 6.1299765110015869e-01</leafValues></_>
        <_>
          <internalNodes>
            0 -1 25 -67667081 -201456681 -544640769 -4369 -24432014
            -1147264501 -5243019 -66694</internalNodes>
          <leafValues>
            -8.1054365634918213e-01 7.3585855960845947e-01</leafValues></_></weakClassifiers></_>
    <!-- stage 3 -->
    <_>
      <maxWeakCount>3</maxWeakCount>
      <stageThreshold>-1.2706161737442017e+00</stageThreshold>
      <weakClassifiers>
        <_>
          <internalNodes>
            0 -1 14 -178913374 -548159019 1561426193 -644516617
            -402604033 -1098776443 -636826625 -3159665</internalNodes>
          <leafValues>
            -9.6642684936523438e-01 4.7082766890525818e-01</leafValues></_>
        <_>
          <internalNodes>
            0 -1 18 -1434329089 -116015709 1359073755 -545009345
            168557247 -75109753 -1953367153 -3149841</internalNodes>
          <leafValues>
            -8.4816944599151611e-01 6.0989964008331299e-01</leafValues></_>
        <_>
          <internalNodes>
            0 -1 39 -1349000705 -1344941741 1396814841 -293889602
            -1397506818 -1383366481 -1414800387 -1929389575</internalNodes>
          <leafValues>
            -8.9327436685562134e-01 5.7942008972167969e-01</leafValues></_></weakClassifiers></_>
    <!-- stage 4 -->
    <_>
      <maxWeakCount>3</maxWeakCount>
      <stageThreshold>-1.3167555332183838e+00</stageThreshold>
      <weakClassifiers>
        <_>
          <internalNodes>
            0 -1 31 -611060479 -686217799 269091231 -107773797
            -645144353 -1744109393 -98323781 -67110689</internalNodes>
          <leafValues>
            -9.0017211437225342e-01 4.5921450853347778e-01</leafValues></_>
        <_>
          <internalNodes>
            0 -1 0 -2113346902 -1122971517 1090636801 -184057771
            -1700803381 -1414560885 -1064336725 -5937</internalNodes>
          <leafValues>
            -9.2811810970306396e-01 4.8694959282875061e-01</leafValues></_>
        <_>
          <internalNodes>
            0 -1 19 -6602881 -10501673 -520564263 -134262289 -1681698235
            -795738008 -1148470217 -71565721</internalNodes>
          <leafValues>
            -8.4785187244415283e-01 6.6088569164276123e-01</leafValues></_></weakClassifiers></_>
    <!-- stage 5 -->
    <_>
      <maxWeakCount>3</maxWeakCount>
      <stageThreshold>-1.1549329757690430e+00</stageThreshold>
      <weakClassifiers>
        <_>
          <internalNodes>
            0 -1 8 -640617507 -15318757 -1862270677 -2662373 -1333481269
            -914214751 -1744732001 -9231801</internalNodes>
          <leafValues>
            -8.5284638404846191e-01 5.9484344720840454e-01</leafValues></_>
        <_>
          <internalNodes>
            0 -1 40 -217058872 -720691197 65537 -251543293 -754718072
            -486375424 -1023309302 -149687669</internalNodes>
          <leafValues>
            -8.6756002902984619e-01 5.4951399564743042e-01</leafValues></_>
        <_>
          <internalNodes>
            0 -1 21 -606678830 -41942878 -788508536 -711077404
            -1828461432 -1441628152 -2138967378 19100323</internalNodes>
          <leafValues>
            -8.5160064697265625e-01 6.2340492010116577e-01</leafValues></_></weakClassifiers></_>
    <!-- stage 6 -->
    <_>
      <maxWeakCount>3</maxWeakCount>
      <stageThreshold>-1.2694324254989624e+00</stageThreshold>
      <weakClassifiers>
        <_>
          <internalNodes>
            0 -1 29 -638068385 -33961729 -183388705 -2502181 -1736383750
            -1131577206 -905782309 -69223685</internalNodes>
          <leafValues>
            -8.4160506725311279e-01 6.4383560419082642e-01</leafValues></_>
        <_>
          <internalNodes>
            0 -1 23 1359007997 -4698030 -2130701893 1939476958 145239293
            2058356922 1485335035 2066774835</internalNodes>
          <leafValues>
            -8.4828752279281616e-01 4.4500714540481567e-01</leafValues></_>
        <_>
          <internalNodes>
            0 -1 28 -590163142 -40861296 -2146900644 -543317564
            -1156793604 -1081573368 -98973442 470132872</internalNodes>
          <leafValues>
            -8.7283450365066528e-01 4.4190821051597595e-01</leafValues></_></weakClassifiers></_>
    <!-- stage 7 -->
    <_>
      <maxWeakCount>3</maxWeakCount>
      <stageThreshold>-1.1846511363983154e+00</stageThreshold>
      <weakClassifiers>
        <_>
          <internalNodes>
            0 -1 29 -37619369 -551683811 -1684486017 -671115045
            -343148036 -71903047 -605754657 -1064453</internalNodes>
          <leafValues>
            -8.4988963603973389e-01 4.6374368667602539e-01</leafValues></_>
        <_>
          <internalNodes>
            0 -1 17 2110206271 2078225329 -1676425121 -75508801
            1537879831 -207904501 -880117225 -1161</internalNodes>
          <leafValues>
            -8.6447042226791382e-01 4.5606279373168945e-01</leafValues></_>
        <_>
          <internalNodes>
            0 -1 37 -519974913 -1389049583 -1693150765 -136897569
            -343299601 -1969516309 -1613017601 -989873157</internalNodes>
          <leafValues>
            -7.8392434120178223e-01 5.6198811531066895e-01</leafValues></_></weakClassifiers></_>
    <!-- stage 8 -->
    <_>
      <maxWeakCount>5</maxWeakCount>
      <stageThreshold>-1.5080080032348633e+00</stageThreshold>
      <weakClassifiers>
        <_>
          <internalNodes>
            0 -1 2 -454427137 -2928364 1427395551 -2762375 2040633851
            -70594426 -374739717 -2111313</internalNodes>
          <leafValues>
            -8.3537262678146362e-01 3.9044481515884399e-01</leafValues></_>
        <_>
          <internalNodes>
            0 -1 26 -681222145 -2526773 18894303 -1031329 -1982305218
            -103595981 -1413824578 -9276545</internalNodes>
          <leafValues>
            -8.1670337915420532e-01 3.9413976669311523e-01</leafValues></_>
        <_>
          <internalNodes>
            0 -1 43 -538166 -638467941 34000960 -217591785 -267925440
            -1171554297 1627489130 2004350971</internalNodes>
          <leafValues>
            -6.6814976930618286e-01 6.2359386682510376e-01</leafValues></_>
        <_>
          <internalNodes>
            0 -1 1 -53552418 -993738556 1073954951 -673849056
            -1018698853 -1316267896 -1073246069 -178916113</internalNodes>
          <leafValues>
            -8.3365249633789062e-01 4.9507287144660950e-01</leafValues></_>
        <_>
          <internalNodes>
            0 -1 9 -783494891 -619458109 -1856733029 1964081433
            -527339438 -1291841533 -2146784715 -143133901</internalNodes>
          <leafValues>
            -8.7169080972671509e-01 5.0013405084609985e-01</leafValues></_></weakClassifiers></_>
    <!-- stage 9 -->
    <_>
      <maxWeakCount>5</maxWeakCount>
      <stageThreshold>-1.6241904497146606e+00</stageThreshold>
      <weakClassifiers>
        <_>
          <internalNodes>
            0 -1 35 -42468605 -11021857 -715934721 -11546469 -863378789
            -125697862 -1144389637 -1553</internalNodes>
          <leafValues>
            -8.6904764175415039e-01 2.6896551251411438e-01</leafValues></_>
        <_>
          <internalNodes>
            0 -1 15 -678246658 -586215308 271058638 1371873487
            -1433681270 -568383476 -377300838 1402958559</internalNodes>
          <leafValues>
            -7.7201712131500244e-01 5.4050183296203613e-01</leafValues></_>
        <_>
          <internalNodes>
            0 -1 5 -37422082 -44232233 -2079839028 -1110882037
            -1442782209 -73684836 423144091 -5271077</internalNodes>
          <leafValues>
            -7.3482102155685425e-01 5.1215589046478271e-01</leafValues></_>
        <_>
          <internalNodes>
            0 -1 33 -1080962115 -1479540393 454037725 -2238234
            -1434265345 -1492410230 1259051516 -1929926156</internalNodes>
          <leafValues>
            -7.9401236772537231e-01 5.0850611925125122e-01</leafValues></_>
        <_>
          <internalNodes>
            0 -1 22 -638231971 -572897235 272699858 -76666481
            -1176358611 -5767120 -1719100585 -4314281</internalNodes>
          <leafValues>
            -8.3928233385086060e-01 4.5305547118186951e-01</leafValues></_></weakClassifiers></_>
    <!-- stage 10 -->
    <_>
      <maxWeakCount>5</maxWeakCount>
      <stageThreshold>-1.5956284999847412e+00</stageThreshold>
      <weakClassifiers>
        <_>
          <internalNodes>
            0 -1 10 -330694657 -9054451 -544514593 -539766735 -107158791
            -95185775 -1693320193 -17</internalNodes>
          <leafValues>
            -8.2668977975845337e-01 2.4629080295562744e-01</leafValues></_>
        <_>
          <internalNodes>
            0 -1 32 -74974726 -116932389 -1056959680 -104754427
            -415192150 1493733442 -2147037174 1632880523</internalNodes>
          <leafValues>
            -7.6798194646835327e-01 4.5735949277877808e-01</leafValues></_>
        <_>
          <internalNodes>
            0 -1 45 -1420329473 -1373957733 -2026162045 787683219
            -225189157 -7610214 -1288700997 -16794705</internalNodes>
          <leafValues>
            -7.6019757986068726e-01 4.7393533587455750e-01</leafValues></_>
        <_>
          <internalNodes>
            0 -1 7 -723592993 -741686884 1074315660 -576736356
            -2134722357 -913782744 -2137879810 -59703733</internalNodes>
          <leafValues>
            -7.5676023960113525e-01 4.7909709811210632e-01</leafValues></_>
        <_>
          <internalNodes>
            0 -1 12 -121046290 -313892660 1149675726 29458443 -930624881
            2005108883 -1022785137 -572523893</internalNodes>
          <leafValues>
            -7.8631061315536499e-01 4.4302043318748474e-01</leafValues></_></weakClassifiers></_>
    <!-- stage 11 -->
    <_>
      <maxWeakCount>5</maxWeakCount>
      <stageThreshold>-1.5920814275741577e+00</stageThreshold>
      <weakClassifiers>
        <_>
          <internalNodes>
            0 -1 27 -187444737 -70167811 -854423089 -2453029 -937927809
            -1644560373 -1679045633 -8962177</internalNodes>
          <leafValues>
            -8.2883399724960327e-01 2.6807227730751038e-01</leafValues></_>
        <_>
          <internalNodes>
            0 -1 46 -136382497 -1559010403 -385775613 -1512836661
            -522202917 -1744330589 -613686369 -1393906945</internalNodes>
          <leafValues>
            -7.3874443769454956e-01 4.4385138154029846e-01</leafValues></_>
        <_>
          <internalNodes>
            0 -1 36 -101189823 -136717569 -1580730145 -540288945
            -76595191 -67127073 -215291141 -20481</internalNodes>
          <leafValues>
            -8.1606668233871460e-01 4.5373845100402832e-01</leafValues></_>
        <_>
          <internalNodes>
            0 -1 42 1542976000 2107624107 -2143029101 1964757227
            -412892278 -364394487 -932648481 -698356993</internalNodes>
          <leafValues>
            -7.0093917846679688e-01 5.2563649415969849e-01</leafValues></_>
        <_>
          <internalNodes>
            0 -1 30 436650495 284430741 -251342561 861809150 698516218
            -678946034 -1880188483 988946680</internalNodes>
          <leafValues>
            -7.8699916601181030e-01 4.8221969604492188e-01</leafValues></_></weakClassifiers></_>
    <!-- stage 12 -->
    <_>
      <maxWeakCount>5</maxWeakCount>
      <stageThreshold>-1.6818850040435791e+00</stageThreshold>
      <weakClassifiers>
        <_>
          <internalNodes>
            0 -1 34 -448539715 -1458564657 1929425375 -2652323
            -920851457 -1349835849 -912663553 -1916800069</internalNodes>
          <leafValues>
            -8.4893882274627686e-01 1.1830635368824005e-01</leafValues></_>
        <_>
          <internalNodes>
            0 -1 20 -1599611393 1936690527 -380773793 -67297825
            2073631741 -1165835766 -212088065 -5243905</internalNodes>
          <leafValues>
            -7.7136123180389404e-01 3.8544586300849915e-01</leafValues></_>
        <_>
          <internalNodes>
            0 -1 13 2077752683 -49827711 -799751841 -775697717
            -615744653 -1180139509 -233109389 -17</internalNodes>
          <leafValues>
            -6.3078862428665161e-01 5.8282595872879028e-01</leafValues></_>
        <_>
          <internalNodes>
            0 -1 24 -682178328 1397285132 -1072639760 828232263
            1670166938 254690076 -544298513 1105701851</internalNodes>
          <leafValues>
            -6.7162936925888062e-01 5.4891645908355713e-01</leafValues></_>
        <_>
          <internalNodes>
            0 -1 6 -950548786 -639888934 -2147319412 -11763300
            -922124149 -879787895 -1862238069 -573247025</internalNodes>
          <leafValues>
            -8.8321924209594727e-01 3.9574247598648071e-01</leafValues></_></weakClassifiers></_></stages>
  <features>
    <_>
      <rect>
        0 0 3 6</rect></_>
    <_>
      <rect>
        0 0 3 9</rect></_>
    <_>
      <rect>
        0 0 7 2</rect></_>
    <_>
      <rect>
        0 0 10 9</rect></_>
    <_>
      <rect>
        0 1 5 2</rect></_>
    <_>
      <rect>
        0 4 10 3</rect></_>
    <_>
      <rect>
        0 5 6 9</rect></_>
    <_>
      <rect>
        0 17 5 5</rect></_>
    <_>
      <rect>
        0 23 5 3</rect></_>
    <_>
      <rect>
        0 26 3 2</rect></_>
    <_>
      <rect>
        1 0 5 3</rect></_>
    <_>
      <rect>
        1 0 10 10</rect></_>
    <_>
      <rect>
        1 3 5 4</rect></_>
    <_>
      <rect>
        1 29 1 1</rect></_>
    <_>
      <rect>
        2 0 10 3</rect></_>
    <_>
      <rect>
        2 14 4 3</rect></_>
    <_>
      <rect>
        3 28 2 1</rect></_>
    <_>
      <rect>
        3 29 1 1</rect></_>
    <_>
      <rect>
        5 0 3 2</rect></_>
    <_>
      <rect>
        5 29 1 1</rect></_>
    <_>
      <rect>
        6 0 3 2</rect></_>
    <_>
      <rect>
        6 8 4 3</rect></_>
    <_>
      <rect>
        6 29 1 1</rect></_>
    <_>
      <rect>
        6 29 5 1</rect></_>
    <_>
      <rect>
        7 16 4 3</rect></_>
    <_>
      <rect>
        7 29 1 1</rect></_>
    <_>
      <rect>
        7 29 2 1</rect></_>
    <_>
      <rect>
        7 29 3 1</rect></_>
    <_>
      <rect>
        10 23 7 3</rect></_>
    <_>
      <rect>
        11 0 7 2</rect></_>
    <_>
      <rect>
        12 29 3 1</rect></_>
    <_>
      <rect>
        17 0 5 4</rect></_>
    <_>
      <rect>
        17 6 4 5</rect></_>
    <_>
      <rect>
        17 29 3 1</rect></_>
    <_>
      <rect>
        19 29 3 1</rect></_>
    <_>
      <rect>
        20 0 4 4</rect></_>
    <_>
      <rect>
        20 1 4 3</rect></_>
    <_>
      <rect>
        20 29 4 1</rect></_>
    <_>
      <rect>
        21 0 3 4</rect></_>
    <_>
      <rect>
        21 29 2 1</rect></_>
    <_>
      <rect>
        23 0 3 10</rect></_>
    <_>
      <rect>
        25 29 2 1</rect></_>
    <_>
      <rect>
        26 3 2 5</rect></_>
    <_>
      <rect>
        26 7 2 6</rect></_>
    <_>
      <rect>
        26 29 2 1</rect></_>
    <_>
      <rect>
        27 29 1 1</rect></_>
    <_>
      <rect>
        29 23 1 3</rect></_></features></cascade>
</opencv_storage>
