<?xml version="1.0"?>
<opencv_storage>
<cascade>
  <stageType>BOOST</stageType>
  <featureType>LBP</featureType>
  <height>16</height>
  <width>16</width>
  <stageParams>
    <boostType>GAB</boostType>
    <minHitRate>9.9900001287460327e-01</minHitRate>
    <maxFalseAlarm>5.0000000000000000e-01</maxFalseAlarm>
    <weightTrimRate>9.4999999999999996e-01</weightTrimRate>
    <maxDepth>1</maxDepth>
    <maxWeakCount>100</maxWeakCount></stageParams>
  <featureParams>
    <maxCatCount>256</maxCatCount>
    <featSize>1</featSize></featureParams>
  <stageNum>14</stageNum>
  <stages>
    <!-- stage 0 -->
    <_>
      <maxWeakCount>5</maxWeakCount>
      <stageThreshold>-1.2901813983917236e+00</stageThreshold>
      <weakClassifiers>
        <_>
          <internalNodes>
            0 -1 17 -77594740 -749484721 -2012736052 -150760609
            -392451169 -6585974 -905064497 -10486785</internalNodes>
          <leafValues>
            -8.5826772451400757e-01 6.1993771791458130e-01</leafValues></_>
        <_>
          <internalNodes>
            0 -1 9 -67110017 -136318817 -191040517 -86321666 -75536816
            -1095067 -5260684 -9245070</internalNodes>
          <leafValues>
            -8.3231729269027710e-01 5.4939264059066772e-01</leafValues></_>
        <_>
          <internalNodes>
            0 -1 0 -425537814 -1367140474 1148637423 -419597853
            -838870017 -1409840977 -357605889 -1</internalNodes>
          <leafValues>
            -7.3604178428649902e-01 6.6205662488937378e-01</leafValues></_>
        <_>
          <internalNodes>
            0 -1 24 -54419 1609511807 -198314497 -8726401 -5872810
            -76078527 -71845004 -9273484</internalNodes>
          <leafValues>
            -8.8987410068511963e-01 5.4980933666229248e-01</leafValues></_>
        <_>
          <internalNodes>
            0 -1 67 -2107605 790040923 -2051955616 875557247 1072248340
            -227077807 -1160775084 -16777275</internalNodes>
          <leafValues>
            -7.4312943220138550e-01 6.4460963010787964e-01</leafValues></_></weakClassifiers></_>
    <!-- stage 1 -->
    <_>
      <maxWeakCount>3</maxWeakCount>
      <stageThreshold>-1.0140037536621094e+00</stageThreshold>
      <weakClassifiers>
        <_>
          <internalNodes>
            0 -1 15 -103051382 -541112833 1296109881 -139492865
            -910172417 -1412444993 -392434945 -262161</internalNodes>
          <leafValues>
            -8.1193691492080688e-01 5.3160619735717773e-01</leafValues></_>
        <_>
          <internalNodes>
            0 -1 49 -145227777 -1409360840 369957375 -1344342564
            -69501459 -67378257 -1246347 -16843792</internalNodes>
          <leafValues>
            -7.8761345148086548e-01 5.8024758100509644e-01</leafValues></_>
        <_>
          <internalNodes>
            0 -1 57 -805318663 -1348536836 -726927396 -1969241388
            1234123637 -1477465207 -2098315 -285215756</internalNodes>
          <leafValues>
            -7.5799643993377686e-01 6.2648916244506836e-01</leafValues></_></weakClassifiers></_>
    <!-- stage 2 -->
    <_>
      <maxWeakCount>5</maxWeakCount>
      <stageThreshold>-1.3908281326293945e+00</stageThreshold>
      <weakClassifiers>
        <_>
          <internalNodes>
            0 -1 72 -1881168193 -1565544198 -2015369729 -1392602885
            -1413487649 -1462009121 -68171269 -855647553</internalNodes>
          <leafValues>
            -8.0582523345947266e-01 4.8686867952346802e-01</leafValues></_>
        <_>
          <internalNodes>
            0 -1 1 -758579750 273711242 -48186962 1163172414 -791967041
            -638743605 -990211089 1442185215</internalNodes>
          <leafValues>
            -9.0716993808746338e-01 4.2814663052558899e-01</leafValues></_>
        <_>
          <internalNodes>
            0 -1 50 1946153981 -1554071059 -1610884385 -9732 -71708163
            -611347828 -67113996 -16909580</internalNodes>
          <leafValues>
            -7.4535238742828369e-01 5.9961026906967163e-01</leafValues></_>
        <_>
          <internalNodes>
            0 -1 10 -154702209 -67164453 -212655877 -218725917
            1000567092 -74842061 -82843022 -8978574</internalNodes>
          <leafValues>
            -7.6730996370315552e-01 5.6595855951309204e-01</leafValues></_>
        <_>
          <internalNodes>
            0 -1 26 851391487 1457311831 -1853304817 -136658833
            1281827174 -337379199 -349557968 -10322062</internalNodes>
          <leafValues>
            -7.9318118095397949e-01 5.4730862379074097e-01</leafValues></_></weakClassifiers></_>
    <!-- stage 3 -->
    <_>
      <maxWeakCount>6</maxWeakCount>
      <stageThreshold>-1.7712697982788086e+00</stageThreshold>
      <weakClassifiers>
        <_>
          <internalNodes>
            0 -1 48 972553215 -1277197887 -689057281 -76377700
            -1246010379 -69500775 -1092898051 -16778244</internalNodes>
          <leafValues>
            -7.7453732490539551e-01 4.7181627154350281e-01</leafValues></_>
        <_>
          <internalNodes>
            0 -1 68 -1353468419 -2141257576 -733887445 -1929517604
            -1156625417 -1416920901 -19936771 -1929380359</internalNodes>
          <leafValues>
            -7.8882700204849243e-01 4.9990960955619812e-01</leafValues></_>
        <_>
          <internalNodes>
            0 -1 53 -8520705 -1098787364 -174724393 -287444772 -83201639
            -1090930395 -75497867 -16777744</internalNodes>
          <leafValues>
            -6.6503006219863892e-01 6.4809828996658325e-01</leafValues></_>
        <_>
          <internalNodes>
            0 -1 20 -405803025 -1360345874 1221852251 -289610910
            -39144513 -1128275449 -203426061 -687934721</internalNodes>
          <leafValues>
            -6.4544236660003662e-01 6.4632439613342285e-01</leafValues></_>
        <_>
          <internalNodes>
            0 -1 11 -270797825 -721685509 -573376009 -695021189
            2125810215 -19715521 -1895801993 -9241769</internalNodes>
          <leafValues>
            -7.4189871549606323e-01 5.6797182559967041e-01</leafValues></_>
        <_>
          <internalNodes>
            0 -1 64 -2057 -1409330463 1404163040 -932184130 -610534864
            2047586992 -1348482316 -184566793</internalNodes>
          <leafValues>
            -7.5414144992828369e-01 5.6635499000549316e-01</leafValues></_></weakClassifiers></_>
    <!-- stage 4 -->
    <_>
      <maxWeakCount>5</maxWeakCount>
      <stageThreshold>-1.3097199201583862e+00</stageThreshold>
      <weakClassifiers>
        <_>
          <internalNodes>
            0 -1 48 -2098177 -1142998900 -1716270593 -2826532 -71308307
            -71573623 -84151555 -1028</internalNodes>
          <leafValues>
            -7.4156117439270020e-01 5.6449705362319946e-01</leafValues></_>
        <_>
          <internalNodes>
            0 -1 52 1061026815 -2020601636 -791291745 -272661508
            1070295293 -85999444 -202413200 -1342178076</internalNodes>
          <leafValues>
            -7.5674325227737427e-01 5.0814688205718994e-01</leafValues></_>
        <_>
          <internalNodes>
            0 -1 32 -673197312 -40259233 1507500244 -6565637 -1969536565
            -33870389 -1581347857 2013261311</internalNodes>
          <leafValues>
            -7.9655086994171143e-01 4.8865041136741638e-01</leafValues></_>
        <_>
          <internalNodes>
            0 -1 72 -1409304617 117391611 -714278569 -1937776915
            -273952833 -2134005061 -301999691 -1996488961</internalNodes>
          <leafValues>
            -7.3786765336990356e-01 5.5005419254302979e-01</leafValues></_>
        <_>
          <internalNodes>
            0 -1 54 875854333 16430044 -1339510061 -481383176 454360053
            -1077174110 1072511149 -1090639628</internalNodes>
          <leafValues>
            -8.2708829641342163e-01 5.0809216499328613e-01</leafValues></_></weakClassifiers></_>
    <!-- stage 5 -->
    <_>
      <maxWeakCount>5</maxWeakCount>
      <stageThreshold>-1.4133365154266357e+00</stageThreshold>
      <weakClassifiers>
        <_>
          <internalNodes>
            0 -1 14 -536171798 -37403230 -248774433 1475429183 -70284817
            -97547381 -1047553793 -67108865</internalNodes>
          <leafValues>
            -8.1463992595672607e-01 4.3075454235076904e-01</leafValues></_>
        <_>
          <internalNodes>
            0 -1 4 -577775652 -573504662 -1542766116 -281591550
            -520378130 -32929124 -1426002978 -686824529</internalNodes>
          <leafValues>
            -7.5641125440597534e-01 5.2341616153717041e-01</leafValues></_>
        <_>
          <internalNodes>
            0 -1 62 -76549123 -711877883 1124794524 -1135637952
            -1155552340 -1467119994 -1081808662 150986979</internalNodes>
          <leafValues>
            -6.3804173469543457e-01 5.3326988220214844e-01</leafValues></_>
        <_>
          <internalNodes>
            0 -1 16 -619247990 -2129697 1393183760 1430214039
            -1710522194 -73856881 1748619098 1937498011</internalNodes>
          <leafValues>
            -8.4215396642684937e-01 4.3990671634674072e-01</leafValues></_>
        <_>
          <internalNodes>
            0 -1 56 334355453 328893572 65744 -1481916272 -1417999432
            713785474 1251553756 -1158732059</internalNodes>
          <leafValues>
            -7.2886139154434204e-01 4.6659877896308899e-01</leafValues></_></weakClassifiers></_>
    <!-- stage 6 -->
    <_>
      <maxWeakCount>6</maxWeakCount>
      <stageThreshold>-1.6780455112457275e+00</stageThreshold>
      <weakClassifiers>
        <_>
          <internalNodes>
            0 -1 0 -494736658 -69271422 306350879 -716222447 -477580629
            -74739509 2045296607 -69207317</internalNodes>
          <leafValues>
            -8.1376039981842041e-01 4.1990521550178528e-01</leafValues></_>
        <_>
          <internalNodes>
            0 -1 59 -141313136 -618708987 285376541 -1725980395
            -2002524536 -1618075503 136840127 535800827</internalNodes>
          <leafValues>
            -6.8943744897842407e-01 5.5140346288681030e-01</leafValues></_>
        <_>
          <internalNodes>
            0 -1 66 772969437 -1800355712 305353459 -1658994340
            327772365 -1198808695 -2004116807 -1916811011</internalNodes>
          <leafValues>
            -6.8584764003753662e-01 4.8912721872329712e-01</leafValues></_>
        <_>
          <internalNodes>
            0 -1 3 -70331650 -115570624 -1853879656 1197818452
            -611725154 -103480952 -926170929 1603231487</internalNodes>
          <leafValues>
            -6.4672827720642090e-01 5.4240775108337402e-01</leafValues></_>
        <_>
          <internalNodes>
            0 -1 55 -8399742 -33554441 -1073807366 -1073741889
            -989885300 -32945 -1091240244 1006632927</internalNodes>
          <leafValues>
            -5.2721154689788818e-01 6.7270427942276001e-01</leafValues></_>
        <_>
          <internalNodes>
            0 -1 31 1430900991 1502101504 1073779034 1033474196
            1342795935 487587984 -1971306312 1932477050</internalNodes>
          <leafValues>
            -6.9837450981140137e-01 5.0996494293212891e-01</leafValues></_></weakClassifiers></_>
    <!-- stage 7 -->
    <_>
      <maxWeakCount>5</maxWeakCount>
      <stageThreshold>-1.4150540828704834e+00</stageThreshold>
      <weakClassifiers>
        <_>
          <internalNodes>
            0 -1 46 -79432711 -182480503 -1065117232 -587004267
            -343176708 -1152873983 -340804678 1933015895</internalNodes>
          <leafValues>
            -7.5884056091308594e-01 3.7401574850082397e-01</leafValues></_>
        <_>
          <internalNodes>
            0 -1 18 2064637662 -145115141 1359217660 1465725836
            -744756289 990629116 -14500930 1599962047</internalNodes>
          <leafValues>
            -7.5871890783309937e-01 4.2342987656593323e-01</leafValues></_>
        <_>
          <internalNodes>
            0 -1 8 -134242561 -246050481 -803688289 -231718501
            -1582145004 1492910113 -218576284 -143471869</internalNodes>
          <leafValues>
            -7.8316557407379150e-01 4.3926936388015747e-01</leafValues></_>
        <_>
          <internalNodes>
            0 -1 36 -216280579 1597180441 -2145349488 -249749040
            -352283684 692654812 -1556958582 1365230559</internalNodes>
          <leafValues>
            -6.3378655910491943e-01 5.4363620281219482e-01</leafValues></_>
        <_>
          <internalNodes>
            0 -1 63 -148900143 924537013 -2128948800 1035782281
            -1423206052 2075885889 -758322248 614787719</internalNodes>
          <leafValues>
            -7.9554766416549683e-01 4.0923747420310974e-01</leafValues></_></weakClassifiers></_>
    <!-- stage 8 -->
    <_>
      <maxWeakCount>5</maxWeakCount>
      <stageThreshold>-1.2726686000823975e+00</stageThreshold>
      <weakClassifiers>
        <_>
          <internalNodes>
            0 -1 21 -35664929 -640821426 -2147450744 -540028590
            -788489848 -2004041088 -1987788546 1299570127</internalNodes>
          <leafValues>
            -7.2522521018981934e-01 3.7202072143554688e-01</leafValues></_>
        <_>
          <internalNodes>
            0 -1 45 -740297763 -137127521 -1726933616 -251408125
            -78907240 -83001214 -352059430 858217419</internalNodes>
          <leafValues>
            -6.0875898599624634e-01 5.0850892066955566e-01</leafValues></_>
        <_>
          <internalNodes>
            0 -1 6 1213628366 -184188920 -2130662946 -139475522
            -1186297603 793935898 -1597470530 654782946</internalNodes>
          <leafValues>
            -8.2643240690231323e-01 3.7390115857124329e-01</leafValues></_>
        <_>
          <internalNodes>
            0 -1 7 -581254146 1440411868 -2130657062 536041930
            -1731704644 1376694414 -1608903956 2012703059</internalNodes>
          <leafValues>
            -6.4337205886840820e-01 4.5357719063758850e-01</leafValues></_>
        <_>
          <internalNodes>
            0 -1 28 -2111249781 -1082117702 2030164407 -705584943
            1905884075 2076934539 -920935685 1438061303</internalNodes>
          <leafValues>
            -6.6307514905929565e-01 4.7077280282974243e-01</leafValues></_></weakClassifiers></_>
    <!-- stage 9 -->
    <_>
      <maxWeakCount>7</maxWeakCount>
      <stageThreshold>-1.3922322988510132e+00</stageThreshold>
      <weakClassifiers>
        <_>
          <internalNodes>
            0 -1 69 -136332543 2001965157 -1182658047 1966981727
            -618143728 -74774398 -1172190258 -68682753</internalNodes>
          <leafValues>
            -7.0105969905853271e-01 3.4599155187606812e-01</leafValues></_>
        <_>
          <internalNodes>
            0 -1 30 -740822561 -782908072 -1862217412 -74580100
            1498450140 -212225620 -179504130 2132146686</internalNodes>
          <leafValues>
            -6.8486970663070679e-01 3.5981723666191101e-01</leafValues></_>
        <_>
          <internalNodes>
            0 -1 27 1889720448 2098845175 1347255135 -172500073
            -156239105 -6715198 -421348705 929557231</internalNodes>
          <leafValues>
            -6.5304273366928101e-01 4.0831491351127625e-01</leafValues></_>
        <_>
          <internalNodes>
            0 -1 44 857036767 2097463516 554268126 728646292 2037041404
            2046394552 983001596 1021272568</internalNodes>
          <leafValues>
            -7.4202954769134521e-01 3.6899712681770325e-01</leafValues></_>
        <_>
          <internalNodes>
            0 -1 61 -75238404 -83014836 -2143207416 -745701367
            -217715972 -228222190 -81991698 204733119</internalNodes>
          <leafValues>
            -6.0742628574371338e-01 4.8474496603012085e-01</leafValues></_>
        <_>
          <internalNodes>
            0 -1 5 -220203409 -1437958072 70686 -660944886 1502470299
            1133117569 1611059435 -204483373</internalNodes>
          <leafValues>
            -5.5145210027694702e-01 5.2607417106628418e-01</leafValues></_>
        <_>
          <internalNodes>
            0 -1 58 -135023359 1608110551 419600731 -45362041 -70010752
            -73826301 -1555817958 958134927</internalNodes>
          <leafValues>
            -6.5402650833129883e-01 4.4160318374633789e-01</leafValues></_></weakClassifiers></_>
    <!-- stage 10 -->
    <_>
      <maxWeakCount>5</maxWeakCount>
      <stageThreshold>-1.1522889137268066e+00</stageThreshold>
      <weakClassifiers>
        <_>
          <internalNodes>
            0 -1 10 -581312129 -615136933 1548997079 -10493601
            -267621369 -182075383 -82749070 -9178253</internalNodes>
          <leafValues>
            -7.6884424686431885e-01 2.5674498081207275e-01</leafValues></_>
        <_>
          <internalNodes>
            0 -1 42 2078276063 -1688943620 -913620711 -1612786856
            -267842823 -78035121 -336603011 -16842780</internalNodes>
          <leafValues>
            -7.2251611948013306e-01 3.8473454117774963e-01</leafValues></_>
        <_>
          <internalNodes>
            0 -1 51 1069023231 -1282236196 1428001119 -102907656
            982250220 -150240875 -90248195 -83890192</internalNodes>
          <leafValues>
            -5.4547822475433350e-01 5.0992918014526367e-01</leafValues></_>
        <_>
          <internalNodes>
            0 -1 37 1934097405 -1220151916 -1442588720 -110117648
            1568002716 1533968932 -22224950 1995914931</internalNodes>
          <leafValues>
            -6.0960090160369873e-01 5.0390774011611938e-01</leafValues></_>
        <_>
          <internalNodes>
            0 -1 25 -37784833 1857294479 -1727823553 -203644673
            -1031665568 -83687367 -343739602 -76354690</internalNodes>
          <leafValues>
            -5.8684605360031128e-01 5.1937556266784668e-01</leafValues></_></weakClassifiers></_>
    <!-- stage 11 -->
    <_>
      <maxWeakCount>7</maxWeakCount>
      <stageThreshold>-1.6575690507888794e+00</stageThreshold>
      <weakClassifiers>
        <_>
          <internalNodes>
            0 -1 40 -551561217 -1142957628 -687370017 -536887012
            -83680513 -609517396 -67916803 -67110980</internalNodes>
          <leafValues>
            -6.9230771064758301e-01 4.0589568018913269e-01</leafValues></_>
        <_>
          <internalNodes>
            0 -1 35 -752881927 958329022 -620460976 -1077966400
            -96249908 2069211901 -369394978 1068492975</internalNodes>
          <leafValues>
            -6.1063337326049805e-01 4.2555329203605652e-01</leafValues></_>
        <_>
          <internalNodes>
            0 -1 23 -101781153 1602928875 268440478 -1145961698
            -1446694348 1263730764 -301831584 -10028206</internalNodes>
          <leafValues>
            -7.5690835714340210e-01 3.5437172651290894e-01</leafValues></_>
        <_>
          <internalNodes>
            0 -1 71 -746590416 856375966 1007157424 -1148206974
            -545590352 -82673470 -759432476 -991626242</internalNodes>
          <leafValues>
            -7.3085665702819824e-01 3.5135945677757263e-01</leafValues></_>
        <_>
          <internalNodes>
            0 -1 13 581575050 -1276245374 745923551 667773715 2010881791
            -1410948882 -763106917 1610574815</internalNodes>
          <leafValues>
            -8.1357085704803467e-01 3.4626755118370056e-01</leafValues></_>
        <_>
          <internalNodes>
            0 -1 47 1661174303 -74753968 285212676 1073857329 1387430520
            17535136 -1089705014 1178073974</internalNodes>
          <leafValues>
            -6.7797577381134033e-01 4.4122162461280823e-01</leafValues></_>
        <_>
          <internalNodes>
            0 -1 22 -31987969 1783525394 537936316 -27471144 -477605878
            817041850 -125668774 -201987210</internalNodes>
          <leafValues>
            -6.9398587942123413e-01 3.8262912631034851e-01</leafValues></_></weakClassifiers></_>
    <!-- stage 12 -->
    <_>
      <maxWeakCount>7</maxWeakCount>
      <stageThreshold>-1.4968496561050415e+00</stageThreshold>
      <weakClassifiers>
        <_>
          <internalNodes>
            0 -1 33 -1075978855 -547387909 1270844048 -45145909
            -80879666 2069614764 -1348813926 2138046171</internalNodes>
          <leafValues>
            -7.1204817295074463e-01 2.3404255509376526e-01</leafValues></_>
        <_>
          <internalNodes>
            0 -1 65 286913021 354440012 -532561697 -44097064 296838389
            537903561 968711273 -1912614484</internalNodes>
          <leafValues>
            -6.7527240514755249e-01 3.2169541716575623e-01</leafValues></_>
        <_>
          <internalNodes>
            0 -1 34 -787363843 -1877375220 1371604428 -650153028
            302230204 -1742142520 -1148125474 391511807</internalNodes>
          <leafValues>
            -6.2112140655517578e-01 3.8674032688140869e-01</leafValues></_>
        <_>
          <internalNodes>
            0 -1 39 1574754807 -1190883188 -787953037 -875101988
            -476511075 -375848895 -1165416004 -1430455340</internalNodes>
          <leafValues>
            -6.5487533807754517e-01 4.4127908349037170e-01</leafValues></_>
        <_>
          <internalNodes>
            0 -1 29 1901712895 521884376 286820762 -1416628001 394269180
            1032388808 -689343896 654310239</internalNodes>
          <leafValues>
            -5.2423399686813354e-01 5.1658427715301514e-01</leafValues></_>
        <_>
          <internalNodes>
            0 -1 38 -197272192 823702456 277147872 -1413447180
            -620019092 982007841 -488887558 753365555</internalNodes>
          <leafValues>
            -7.3541754484176636e-01 3.6970779299736023e-01</leafValues></_>
        <_>
          <internalNodes>
            0 -1 60 828373937 -83537701 42173196 -1994372183 -1156593000
            -1144583541 -2105295894 1054851066</internalNodes>
          <leafValues>
            -5.6581717729568481e-01 4.7216677665710449e-01</leafValues></_></weakClassifiers></_>
    <!-- stage 13 -->
    <_>
      <maxWeakCount>7</maxWeakCount>
      <stageThreshold>-1.7301633358001709e+00</stageThreshold>
      <weakClassifiers>
        <_>
          <internalNodes>
            0 -1 41 -137629217 -1140965360 -780024841 -807579300
            -226295079 -133496824 -216008040 -83887364</internalNodes>
          <leafValues>
            -7.1764707565307617e-01 2.0426288247108459e-01</leafValues></_>
        <_>
          <internalNodes>
            0 -1 72 -1480347713 -2138320742 -1338937185 149278939
            -494157061 747311562 -132121857 -1998600005</internalNodes>
          <leafValues>
            -6.7891573905944824e-01 3.3384621143341064e-01</leafValues></_>
        <_>
          <internalNodes>
            0 -1 70 -69207262 -176343597 168396438 857460957 -1162872576
            -352116213 -635769976 -229377285</internalNodes>
          <leafValues>
            -5.3261673450469971e-01 4.7367253899574280e-01</leafValues></_>
        <_>
          <internalNodes>
            0 -1 43 928873471 395231572 1929634267 1003772136 -477926932
            2076385321 -225827848 -1162202116</internalNodes>
          <leafValues>
            -6.8702536821365356e-01 3.6345687508583069e-01</leafValues></_>
        <_>
          <internalNodes>
            0 -1 19 -89208610 2134768040 -1733009684 1945318756
            -65365009 2065277058 1754241087 1975468779</internalNodes>
          <leafValues>
            -6.9393628835678101e-01 3.8776049017906189e-01</leafValues></_>
        <_>
          <internalNodes>
            0 -1 12 -1849633638 1494147216 -1660645034 -1625484972
            1502108414 1520436226 -75424196 1999851123</internalNodes>
          <leafValues>
            -7.2105944156646729e-01 3.4206324815750122e-01</leafValues></_>
        <_>
          <internalNodes>
            0 -1 2 -1167424274 -806432122 1394507854 -975832510
            -351671105 -19414579 -1165022769 1860132847</internalNodes>
          <leafValues>
            -7.5305163860321045e-01 3.0947643518447876e-01</leafValues></_></weakClassifiers></_></stages>
  <features>
    <_>
      <rect>
        0 0 2 3</rect></_>
    <_>
      <rect>
        0 0 3 5</rect></_>
    <_>
      <rect>
        0 2 2 3</rect></_>
    <_>
      <rect>
        0 3 2 3</rect></_>
    <_>
      <rect>
        0 4 5 3</rect></_>
    <_>
      <rect>
        0 5 1 1</rect></_>
    <_>
      <rect>
        0 6 4 2</rect></_>
    <_>
      <rect>
        0 7 2 2</rect></_>
    <_>
      <rect>
        0 11 1 1</rect></_>
    <_>
      <rect>
        0 12 1 1</rect></_>
    <_>
      <rect>
        0 13 1 1</rect></_>
    <_>
      <rect>
        0 13 2 1</rect></_>
    <_>
      <rect>
        0 13 4 1</rect></_>
    <_>
      <rect>
        1 0 2 2</rect></_>
    <_>
      <rect>
        1 0 2 3</rect></_>
    <_>
      <rect>
        1 0 5 2</rect></_>
    <_>
      <rect>
        1 0 5 3</rect></_>
    <_>
      <rect>
        1 0 5 4</rect></_>
    <_>
      <rect>
        1 1 4 3</rect></_>
    <_>
      <rect>
        1 2 3 2</rect></_>
    <_>
      <rect>
        1 4 1 1</rect></_>
    <_>
      <rect>
        1 4 2 4</rect></_>
    <_>
      <rect>
        1 7 1 1</rect></_>
    <_>
      <rect>
        1 12 1 1</rect></_>
    <_>
      <rect>
        1 13 1 1</rect></_>
    <_>
      <rect>
        2 12 1 1</rect></_>
    <_>
      <rect>
        2 13 1 1</rect></_>
    <_>
      <rect>
        3 0 3 2</rect></_>
    <_>
      <rect>
        3 1 2 1</rect></_>
    <_>
      <rect>
        3 5 2 2</rect></_>
    <_>
      <rect>
        3 6 3 3</rect></_>
    <_>
      <rect>
        3 13 3 1</rect></_>
    <_>
      <rect>
        4 0 4 2</rect></_>
    <_>
      <rect>
        4 3 4 2</rect></_>
    <_>
      <rect>
        4 6 3 3</rect></_>
    <_>
      <rect>
        5 4 3 2</rect></_>
    <_>
      <rect>
        5 4 3 3</rect></_>
    <_>
      <rect>
        5 7 3 2</rect></_>
    <_>
      <rect>
        6 2 2 2</rect></_>
    <_>
      <rect>
        6 7 1 1</rect></_>
    <_>
      <rect>
        6 8 1 1</rect></_>
    <_>
      <rect>
        6 9 1 1</rect></_>
    <_>
      <rect>
        6 10 1 1</rect></_>
    <_>
      <rect>
        6 12 1 1</rect></_>
    <_>
      <rect>
        6 13 2 1</rect></_>
    <_>
      <rect>
        7 3 3 3</rect></_>
    <_>
      <rect>
        7 5 3 3</rect></_>
    <_>
      <rect>
        7 6 3 3</rect></_>
    <_>
      <rect>
        7 8 1 1</rect></_>
    <_>
      <rect>
        7 9 1 1</rect></_>
    <_>
      <rect>
        7 10 1 1</rect></_>
    <_>
      <rect>
        8 7 1 1</rect></_>
    <_>
      <rect>
        8 10 1 1</rect></_>
    <_>
      <rect>
        8 11 1 1</rect></_>
    <_>
      <rect>
        8 13 1 1</rect></_>
    <_>
      <rect>
        9 1 2 2</rect></_>
    <_>
      <rect>
        9 5 1 2</rect></_>
    <_>
      <rect>
        9 10 1 1</rect></_>
    <_>
      <rect>
        10 1 2 2</rect></_>
    <_>
      <rect>
        10 1 2 3</rect></_>
    <_>
      <rect>
        10 2 2 3</rect></_>
    <_>
      <rect>
        10 3 2 4</rect></_>
    <_>
      <rect>
        10 4 2 4</rect></_>
    <_>
      <rect>
        10 5 2 2</rect></_>
    <_>
      <rect>
        10 7 2 1</rect></_>
    <_>
      <rect>
        10 12 1 1</rect></_>
    <_>
      <rect>
        10 13 1 1</rect></_>
    <_>
      <rect>
        12 4 1 1</rect></_>
    <_>
      <rect>
        12 13 1 1</rect></_>
    <_>
      <rect>
        13 3 1 2</rect></_>
    <_>
      <rect>
        13 4 1 1</rect></_>
    <_>
      <rect>
        13 5 1 2</rect></_>
    <_>
      <rect>
        13 13 1 1</rect></_></features></cascade>
</opencv_storage>
