<?xml version="1.0"?>
<opencv_storage>
<cascade>
  <stageType>BOOST</stageType>
  <featureType>LBP</featureType>
  <height>8</height>
  <width>8</width>
  <stageParams>
    <boostType>GAB</boostType>
    <minHitRate>9.9900001287460327e-01</minHitRate>
    <maxFalseAlarm>5.0000000000000000e-01</maxFalseAlarm>
    <weightTrimRate>9.4999999999999996e-01</weightTrimRate>
    <maxDepth>1</maxDepth>
    <maxWeakCount>100</maxWeakCount></stageParams>
  <featureParams>
    <maxCatCount>256</maxCatCount>
    <featSize>1</featSize></featureParams>
  <stageNum>15</stageNum>
  <stages>
    <!-- stage 0 -->
    <_>
      <maxWeakCount>4</maxWeakCount>
      <stageThreshold>-1.6504877805709839e+00</stageThreshold>
      <weakClassifiers>
        <_>
          <internalNodes>
            0 -1 3 -291049746 -286478898 -751083361 -286001181
            -608183297 -1324805 -261 -5</internalNodes>
          <leafValues>
            -8.3512139320373535e-01 5.6701028347015381e-01</leafValues></_>
        <_>
          <internalNodes>
            0 -1 43 -3 -67265736 -186779011 -553657444 -39847428
            -36176904 -1191281316 -65548</internalNodes>
          <leafValues>
            -7.2162228822708130e-01 6.0225433111190796e-01</leafValues></_>
        <_>
          <internalNodes>
            0 -1 27 -136330496 -541123713 -1816720496 -6327307
            -872687666 -71574337 -1275089938 -134217729</internalNodes>
          <leafValues>
            -6.6848725080490112e-01 6.3752883672714233e-01</leafValues></_>
        <_>
          <internalNodes>
            0 -1 2 -1435596146 -344266945 518508863 1941682636
            -213962753 -4202561 -5242882 -13313</internalNodes>
          <leafValues>
            -7.2752398252487183e-01 5.7474321126937866e-01</leafValues></_></weakClassifiers></_>
    <!-- stage 1 -->
    <_>
      <maxWeakCount>5</maxWeakCount>
      <stageThreshold>-1.4437942504882812e+00</stageThreshold>
      <weakClassifiers>
        <_>
          <internalNodes>
            0 -1 3 -366549266 -286334806 -1126937873 -50472954 -70258949
            -74215249 -889979905 -7169</internalNodes>
          <leafValues>
            -8.2700681686401367e-01 3.5273367166519165e-01</leafValues></_>
        <_>
          <internalNodes>
            0 -1 20 -36700196 -111942660 -150668932 -539119204
            -606347268 -90183540 -6225924 -8519684</internalNodes>
          <leafValues>
            -8.5469245910644531e-01 4.2573979496955872e-01</leafValues></_>
        <_>
          <internalNodes>
            0 -1 16 -1373729144 -1074154049 1442274652 -234883617
            -67376130 -68499221 -308300866 -17441</internalNodes>
          <leafValues>
            -7.0794153213500977e-01 4.8386189341545105e-01</leafValues></_>
        <_>
          <internalNodes>
            0 -1 0 -1901566230 -1362721640 -1203380754 -841108017
            -203688705 -874278703 -237011969 -134253573</internalNodes>
          <leafValues>
            -6.9151979684829712e-01 5.3263998031616211e-01</leafValues></_>
        <_>
          <internalNodes>
            0 -1 13 -218202113 1543172281 -1273963818 -68394796
            1515348082 -234749952 -361598090 -9286798</internalNodes>
          <leafValues>
            -7.3417758941650391e-01 5.2492499351501465e-01</leafValues></_></weakClassifiers></_>
    <!-- stage 2 -->
    <_>
      <maxWeakCount>5</maxWeakCount>
      <stageThreshold>-1.1357789039611816e+00</stageThreshold>
      <weakClassifiers>
        <_>
          <internalNodes>
            0 -1 56 -79691983 -263445 -641209424 -104868641 -272630956
            2145379323 -16908320 -67109889</internalNodes>
          <leafValues>
            -7.0304304361343384e-01 4.9221557378768921e-01</leafValues></_>
        <_>
          <internalNodes>
            0 -1 17 -12060276 -77643267 386423132 2077840251 -2080638465
            -78935314 -1146241025 2136997855</internalNodes>
          <leafValues>
            -7.5460946559906006e-01 4.7547605633735657e-01</leafValues></_>
        <_>
          <internalNodes>
            0 -1 54 -67634395 -618663431 -1415627849 -37768485
            -537151996 -159414335 -1595541020 -1291846657</internalNodes>
          <leafValues>
            -6.1652678251266479e-01 5.7522803544998169e-01</leafValues></_>
        <_>
          <internalNodes>
            0 -1 15 -1432351318 -1090776094 -543196705 -184967341
            -603998209 -70549313 -201331969 -419480577</internalNodes>
          <leafValues>
            -6.7770045995712280e-01 5.2131992578506470e-01</leafValues></_>
        <_>
          <internalNodes>
            0 -1 27 -69253888 -1084499457 -115114508 -610539777
            -572009494 -605314613 -2081890386 805038335</internalNodes>
          <leafValues>
            -7.7091258764266968e-01 4.5031443238258362e-01</leafValues></_></weakClassifiers></_>
    <!-- stage 3 -->
    <_>
      <maxWeakCount>7</maxWeakCount>
      <stageThreshold>-1.8588918447494507e+00</stageThreshold>
      <weakClassifiers>
        <_>
          <internalNodes>
            0 -1 42 -547358723 -1092693536 -41165316 -5255172 -887270467
            -356267792 -21103624 -16777228</internalNodes>
          <leafValues>
            -7.7481842041015625e-01 3.2231405377388000e-01</leafValues></_>
        <_>
          <internalNodes>
            0 -1 44 -235677697 -44699427 -1730161672 -536945672
            -19008519 445977004 -69206020 -1078023436</internalNodes>
          <leafValues>
            -6.3500887155532837e-01 5.3942519426345825e-01</leafValues></_>
        <_>
          <internalNodes>
            0 -1 60 -1879048193 -2134847279 -999438852 83850492
            -237110787 82659581 -5260848 -1929642753</internalNodes>
          <leafValues>
            -5.7082843780517578e-01 5.7914447784423828e-01</leafValues></_>
        <_>
          <internalNodes>
            0 -1 1 -396047138 -459902378 -582046850 -1009394913
            -67132497 -68320145 -106975745 -8396801</internalNodes>
          <leafValues>
            -6.2750929594039917e-01 5.0702106952667236e-01</leafValues></_>
        <_>
          <internalNodes>
            0 -1 34 2147352575 1069350908 -4 -4 -33652748 -536938498
            -229380 -4097</internalNodes>
          <leafValues>
            -3.9228817820549011e-01 7.5374525785446167e-01</leafValues></_>
        <_>
          <internalNodes>
            0 -1 52 1610561029 -1 -67110081 -536870913 -1073761728
            -4196481 -1359020277 -10487905</internalNodes>
          <leafValues>
            -5.3198009729385376e-01 5.9144711494445801e-01</leafValues></_>
        <_>
          <internalNodes>
            0 -1 33 -910558209 904929424 1167183604 -1276179468
            2044224252 -152444734 -271942872 -167806092</internalNodes>
          <leafValues>
            -5.7356399297714233e-01 5.4144066572189331e-01</leafValues></_></weakClassifiers></_>
    <!-- stage 4 -->
    <_>
      <maxWeakCount>5</maxWeakCount>
      <stageThreshold>-1.2763814926147461e+00</stageThreshold>
      <weakClassifiers>
        <_>
          <internalNodes>
            0 -1 42 2069887997 -1212167944 -750142500 -5328936
            2143903933 -289686856 -54945540 -16777228</internalNodes>
          <leafValues>
            -7.9057592153549194e-01 2.3000824451446533e-01</leafValues></_>
        <_>
          <internalNodes>
            0 -1 58 -78512139 823869881 -68447328 -22021656 -145097004
            1834028937 -1073746960 -1527776521</internalNodes>
          <leafValues>
            -6.0179585218429565e-01 4.2618638277053833e-01</leafValues></_>
        <_>
          <internalNodes>
            0 -1 43 -3 -1073807368 -3 -285212676 -35782660 494272508
            -65668 -3</internalNodes>
          <leafValues>
            -4.8857799172401428e-01 5.7263255119323730e-01</leafValues></_>
        <_>
          <internalNodes>
            0 -1 8 -1337280514 2106389898 -224858884 -689714950
            -1726227457 1604123096 -118767681 924826606</internalNodes>
          <leafValues>
            -6.9546735286712646e-01 4.1615149378776550e-01</leafValues></_>
        <_>
          <internalNodes>
            0 -1 13 -613231873 -587279875 1634128382 -206291462
            -115994512 -211787467 -1174259358 -9274528</internalNodes>
          <leafValues>
            -7.4853080511093140e-01 3.9262458682060242e-01</leafValues></_></weakClassifiers></_>
    <!-- stage 5 -->
    <_>
      <maxWeakCount>7</maxWeakCount>
      <stageThreshold>-1.4062627553939819e+00</stageThreshold>
      <weakClassifiers>
        <_>
          <internalNodes>
            0 -1 3 -425267473 -825454878 -437486354 -17302041 -203687457
            -88167453 -624167937 -67109989</internalNodes>
          <leafValues>
            -7.4064838886260986e-01 2.2779244184494019e-01</leafValues></_>
        <_>
          <internalNodes>
            0 -1 40 -134226951 -1700878376 -539494928 -5512208
            2076711260 1598672045 -67239940 -33801</internalNodes>
          <leafValues>
            -5.5661559104919434e-01 4.9294868111610413e-01</leafValues></_>
        <_>
          <internalNodes>
            0 -1 57 -134235139 -771935795 55830972 2029599916 -934916
            -324474400 -472518916 16180215</internalNodes>
          <leafValues>
            -6.8566310405731201e-01 3.7598508596420288e-01</leafValues></_>
        <_>
          <internalNodes>
            0 -1 38 749732352 -69373441 -420125837 -67258405 -472159268
            -69531474 -26021377 -1393069065</internalNodes>
          <leafValues>
            -7.1213728189468384e-01 3.4695461392402649e-01</leafValues></_>
        <_>
          <internalNodes>
            0 -1 49 -2100263 -1240097328 1376346320 -71332532 271252092
            1648085901 -1163104340 -402653452</internalNodes>
          <leafValues>
            -5.0710850954055786e-01 5.3259128332138062e-01</leafValues></_>
        <_>
          <internalNodes>
            0 -1 51 -805380099 -1605004840 1410696065 1489454296
            2018037173 88457333 -40927380 -1644455432</internalNodes>
          <leafValues>
            -5.7946890592575073e-01 4.6814411878585815e-01</leafValues></_>
        <_>
          <internalNodes>
            0 -1 23 1528558013 -1273036394 -1818624016 -576775248
            964897020 -70220402 -1685530408 1676869626</internalNodes>
          <leafValues>
            -6.9440978765487671e-01 3.9357537031173706e-01</leafValues></_></weakClassifiers></_>
    <!-- stage 6 -->
    <_>
      <maxWeakCount>6</maxWeakCount>
      <stageThreshold>-1.1629853248596191e+00</stageThreshold>
      <weakClassifiers>
        <_>
          <internalNodes>
            0 -1 4 -67618 -1125238 -948013366 -571550242 -537155525
            -1295908727 -773864713 1979145975</internalNodes>
          <leafValues>
            -7.8189593553543091e-01 1.2556053698062897e-01</leafValues></_>
        <_>
          <internalNodes>
            0 -1 56 2134898993 1061085405 -1123306080 -1119950853
            -68425776 2107221661 -34800904 -1363558494</internalNodes>
          <leafValues>
            -5.9604769945144653e-01 3.9229676127433777e-01</leafValues></_>
        <_>
          <internalNodes>
            0 -1 39 -12723840 1033894366 -1799959836 -1074794000
            -1192800312 -1611936750 -21037188 -1510573450</internalNodes>
          <leafValues>
            -6.3955867290496826e-01 4.1329205036163330e-01</leafValues></_>
        <_>
          <internalNodes>
            0 -1 45 -134790144 -338722615 -85634852 -40244578 -521717044
            -877919576 -490471538 329249739</internalNodes>
          <leafValues>
            -6.8996691703796387e-01 3.8291049003601074e-01</leafValues></_>
        <_>
          <internalNodes>
            0 -1 0 648832750 -1463314206 373944518 -38579839 601078159
            -102094574 1925775326 -537144641</internalNodes>
          <leafValues>
            -6.4975708723068237e-01 3.7501418590545654e-01</leafValues></_>
        <_>
          <internalNodes>
            0 -1 10 -942055122 -771386044 -1660108290 -1783757330
            1224780798 403426078 -520159810 1729099762</internalNodes>
          <leafValues>
            -7.7443742752075195e-01 3.2798898220062256e-01</leafValues></_></weakClassifiers></_>
    <!-- stage 7 -->
    <_>
      <maxWeakCount>6</maxWeakCount>
      <stageThreshold>-1.4120374917984009e+00</stageThreshold>
      <weakClassifiers>
        <_>
          <internalNodes>
            0 -1 36 -201337857 -3915556 2096616860 -2439172 -805651726
            -155961298 -102855944 -98306</internalNodes>
          <leafValues>
            -6.5038001537322998e-01 2.9922136664390564e-01</leafValues></_>
        <_>
          <internalNodes>
            0 -1 7 -1025 -8978436 -196612 -589826 -73730 -196746 -720906
            -524289</internalNodes>
          <leafValues>
            -4.4469678401947021e-01 5.8678054809570312e-01</leafValues></_>
        <_>
          <internalNodes>
            0 -1 33 1339942911 -1615273736 -620252772 -1381304072
            1017934840 2072609068 -2296900 -1342195852</internalNodes>
          <leafValues>
            -6.4129263162612915e-01 4.0064510703086853e-01</leafValues></_>
        <_>
          <internalNodes>
            0 -1 19 -146829416 -15492865 873914133 -136844172 -623649809
            1012121848 -205898802 1966071471</internalNodes>
          <leafValues>
            -6.5347200632095337e-01 3.9797309041023254e-01</leafValues></_>
        <_>
          <internalNodes>
            0 -1 52 -1207966715 -341867073 -1186268873 -1680221981
            -1475632496 -309843830 -1272270193 1541124747</internalNodes>
          <leafValues>
            -5.2695041894912720e-01 4.7797983884811401e-01</leafValues></_>
        <_>
          <internalNodes>
            0 -1 24 -220235777 -536966154 -217525766 -69799432
            -237227595 2061118202 -69569726 -37804</internalNodes>
          <leafValues>
            -4.8678469657897949e-01 4.9893611669540405e-01</leafValues></_></weakClassifiers></_>
    <!-- stage 8 -->
    <_>
      <maxWeakCount>6</maxWeakCount>
      <stageThreshold>-1.1788058280944824e+00</stageThreshold>
      <weakClassifiers>
        <_>
          <internalNodes>
            0 -1 32 -551562320 -15007443 -2080515280 -67635113
            -1076933812 1393363008 1043311322 2134875083</internalNodes>
          <leafValues>
            -8.0570548772811890e-01 8.0332413315773010e-02</leafValues></_>
        <_>
          <internalNodes>
            0 -1 9 -168101163 1800067422 -1844281110 -87058 2072664508
            1112060823 -101230337 1945598759</internalNodes>
          <leafValues>
            -6.3117510080337524e-01 3.1130352616310120e-01</leafValues></_>
        <_>
          <internalNodes>
            0 -1 55 -739115012 2011144233 822391476 -586571734
            -476972068 -52625405 -115806344 3930871</internalNodes>
          <leafValues>
            -7.1396785974502563e-01 3.0164271593093872e-01</leafValues></_>
        <_>
          <internalNodes>
            0 -1 6 -25252617 -16843166 -1090596914 -285283498 1610604285
            2147319807 -106529 -17334401</internalNodes>
          <leafValues>
            -4.7278687357902527e-01 5.0697785615921021e-01</leafValues></_>
        <_>
          <internalNodes>
            0 -1 60 -1847734057 -2135883683 -1064842019 -1932668707
            1973804269 201693443 -259028340 -1997547074</internalNodes>
          <leafValues>
            -5.4651635885238647e-01 4.3508914113044739e-01</leafValues></_>
        <_>
          <internalNodes>
            0 -1 44 -1758342145 207388736 -805054348 1021979404
            -783683528 1359315008 -1078296840 784219760</internalNodes>
          <leafValues>
            -8.5278123617172241e-01 2.8967866301536560e-01</leafValues></_></weakClassifiers></_>
    <!-- stage 9 -->
    <_>
      <maxWeakCount>8</maxWeakCount>
      <stageThreshold>-1.7126685380935669e+00</stageThreshold>
      <weakClassifiers>
        <_>
          <internalNodes>
            0 -1 5 -15794434 1597446130 278157535 322014504 -1683311717
            1493992632 -1469323025 2013216439</internalNodes>
          <leafValues>
            -7.5549453496932983e-01 1.3307392597198486e-01</leafValues></_>
        <_>
          <internalNodes>
            0 -1 26 -1331639680 -7224905 -258109225 -170407018 -87313669
            -20414264 -20997638 2025266151</internalNodes>
          <leafValues>
            -6.6822242736816406e-01 3.3153274655342102e-01</leafValues></_>
        <_>
          <internalNodes>
            0 -1 53 -1208488016 -16529045 51381391 -272326451 310553228
            -1421233175 -1968657733 997702319</internalNodes>
          <leafValues>
            -5.6833606958389282e-01 3.7987884879112244e-01</leafValues></_>
        <_>
          <internalNodes>
            0 -1 48 -268435457 -4325380 -4 -1610760196 -131076 -34308361
            -69634 1584889591</internalNodes>
          <leafValues>
            -4.0081346035003662e-01 5.5541908740997314e-01</leafValues></_>
        <_>
          <internalNodes>
            0 -1 44 -1 1014951932 -1028 -294916 1073741053 -1218609668
            2130706172 -285266181</internalNodes>
          <leafValues>
            -3.8548550009727478e-01 5.9452205896377563e-01</leafValues></_>
        <_>
          <internalNodes>
            0 -1 29 -20979824 -213581115 -1719575788 1933177309
            -1699149688 958109837 -1820912502 1921234299</internalNodes>
          <leafValues>
            -6.8497699499130249e-01 3.4521332383155823e-01</leafValues></_>
        <_>
          <internalNodes>
            0 -1 15 -1146429302 -78607550 -1873211177 1946015862
            1537397390 -118587254 -242509684 1608503427</internalNodes>
          <leafValues>
            -5.6588673591613770e-01 4.2135730385780334e-01</leafValues></_>
        <_>
          <internalNodes>
            0 -1 30 1412821997 991482748 -1685503656 -1646374444
            1922826392 -1180988776 -591764968 -1241876042</internalNodes>
          <leafValues>
            -5.5042648315429688e-01 4.2318308353424072e-01</leafValues></_></weakClassifiers></_>
    <!-- stage 10 -->
    <_>
      <maxWeakCount>8</maxWeakCount>
      <stageThreshold>-1.5460997819900513e+00</stageThreshold>
      <weakClassifiers>
        <_>
          <internalNodes>
            0 -1 0 -1372658773 -68160039 -75238915 -672385 -353375273
            -91635557 -267130133 -67113477</internalNodes>
          <leafValues>
            -6.3986784219741821e-01 2.5189188122749329e-01</leafValues></_>
        <_>
          <internalNodes>
            0 -1 11 -720701698 1067341257 302026970 -232964 1491093748
            1411433622 -71013792 1937211216</internalNodes>
          <leafValues>
            -7.9353773593902588e-01 2.3759359121322632e-01</leafValues></_>
        <_>
          <internalNodes>
            0 -1 16 2115994250 -136323841 383270975 -204538114
            -732177666 -40512802 1838020863 2013133791</internalNodes>
          <leafValues>
            -6.8833214044570923e-01 2.7511227130889893e-01</leafValues></_>
        <_>
          <internalNodes>
            0 -1 18 -1167422806 -7560280 -527939668 -34244682 1235805919
            -7683857 -119002581 1894742967</internalNodes>
          <leafValues>
            -6.2235283851623535e-01 3.4340906143188477e-01</leafValues></_>
        <_>
          <internalNodes>
            0 -1 47 966522933 370442244 278639440 -72423420 -357618220
            1590583520 -358024264 -407897420</internalNodes>
          <leafValues>
            -5.4731655120849609e-01 3.6670336127281189e-01</leafValues></_>
        <_>
          <internalNodes>
            0 -1 50 -1054873187 -402583160 -1328987904 -1768467060
            -584632015 1367572877 -1136113540 1739256560</internalNodes>
          <leafValues>
            -6.9421750307083130e-01 3.0109876394271851e-01</leafValues></_>
        <_>
          <internalNodes>
            0 -1 25 -778852874 1360723996 1367507932 -1888276244
            -661663324 1883358232 -99811640 2005268180</internalNodes>
          <leafValues>
            -7.3794907331466675e-01 2.6914048194885254e-01</leafValues></_>
        <_>
          <internalNodes>
            0 -1 30 -228787204 858804452 -1866895204 -1444613128
            1338856268 853778456 -91595920 -1560317962</internalNodes>
          <leafValues>
            -6.7284190654754639e-01 2.7246183156967163e-01</leafValues></_></weakClassifiers></_>
    <!-- stage 11 -->
    <_>
      <maxWeakCount>8</maxWeakCount>
      <stageThreshold>-1.6670986413955688e+00</stageThreshold>
      <weakClassifiers>
        <_>
          <internalNodes>
            0 -1 57 -619977807 -48168376 1082655728 -1073118688
            -250631752 -1140293600 -343348578 6595238</internalNodes>
          <leafValues>
            -8.4990620613098145e-01 -1.3731343671679497e-02</leafValues></_>
        <_>
          <internalNodes>
            0 -1 3 -301543698 -17918742 -241683750 -69371581 -564429893
            -1684409725 1469053887 -1608201</internalNodes>
          <leafValues>
            -6.0409939289093018e-01 3.1020134687423706e-01</leafValues></_>
        <_>
          <internalNodes>
            0 -1 41 2147483647 -196612 -65538 -131596 -33751044
            1037885182 -98314 -1</internalNodes>
          <leafValues>
            -3.4813821315765381e-01 6.0456246137619019e-01</leafValues></_>
        <_>
          <internalNodes>
            0 -1 12 -796765746 -49886846 421415660 -540282388
            -2138406402 2030174348 469806314 862839806</internalNodes>
          <leafValues>
            -6.1447238922119141e-01 3.5170567035675049e-01</leafValues></_>
        <_>
          <internalNodes>
            0 -1 21 1598868444 525385872 504644516 -35365120 327699180
            1060747296 -88385014 620689906</internalNodes>
          <leafValues>
            -7.8534877300262451e-01 2.6193112134933472e-01</leafValues></_>
        <_>
          <internalNodes>
            0 -1 52 -537157631 -3108529 -1332177073 1402307787
            -918115700 -1970732920 -1958827317 -83366258</internalNodes>
          <leafValues>
            -4.1242152452468872e-01 4.9304094910621643e-01</leafValues></_>
        <_>
          <internalNodes>
            0 -1 51 -1457273123 234881284 -536655460 105525484
            1343332585 6357032 -41256200 1002418430</internalNodes>
          <leafValues>
            -5.5824518203735352e-01 3.5613536834716797e-01</leafValues></_>
        <_>
          <internalNodes>
            0 -1 59 -16793615 272154480 -285212700 -1984238352 -33554947
            234782204 2147483644 -168823042</internalNodes>
          <leafValues>
            -4.1338741779327393e-01 5.2419382333755493e-01</leafValues></_></weakClassifiers></_>
    <!-- stage 12 -->
    <_>
      <maxWeakCount>8</maxWeakCount>
      <stageThreshold>-1.2470619678497314e+00</stageThreshold>
      <weakClassifiers>
        <_>
          <internalNodes>
            0 -1 42 1415576573 1004271072 -1970187268 -1616129316
            1608119801 2098991528 -151424008 -1050124</internalNodes>
          <leafValues>
            -7.5449568033218384e-01 2.4623803794384003e-02</leafValues></_>
        <_>
          <internalNodes>
            0 -1 54 1071644432 2078249681 599891350 456903543 -80005628
            -547665847 -1536050708 1032552351</internalNodes>
          <leafValues>
            -6.8555253744125366e-01 2.2061675786972046e-01</leafValues></_>
        <_>
          <internalNodes>
            0 -1 36 -6724609 1475631352 307479496 -1714513764 -111350544
            -276557682 -151324104 -1090617350</internalNodes>
          <leafValues>
            -4.9381542205810547e-01 3.8465237617492676e-01</leafValues></_>
        <_>
          <internalNodes>
            0 -1 2 -1440297850 1477054812 1423022165 838850508
            -1084240741 -606435119 -276048246 939508463</internalNodes>
          <leafValues>
            -7.4473911523818970e-01 2.6361942291259766e-01</leafValues></_>
        <_>
          <internalNodes>
            0 -1 49 -757082375 423136472 152119600 -1212182624
            -654194020 844668041 -68634132 804223670</internalNodes>
          <leafValues>
            -5.2795386314392090e-01 3.4354242682456970e-01</leafValues></_>
        <_>
          <internalNodes>
            0 -1 34 1465882751 -1248943980 402661892 -1079275044
            1528567200 411672653 -69555340 -1208222978</internalNodes>
          <leafValues>
            -4.0463343262672424e-01 4.3948945403099060e-01</leafValues></_>
        <_>
          <internalNodes>
            0 -1 40 2069356448 423493968 414356464 -1649684012 437547964
            410632589 -654361682 637430527</internalNodes>
          <leafValues>
            -5.9349614381790161e-01 3.2393458485603333e-01</leafValues></_>
        <_>
          <internalNodes>
            0 -1 0 -939072885 -537931672 -77229995 1710608611 -508888477
            -762715989 -789956357 -671351319</internalNodes>
          <leafValues>
            -4.5098575949668884e-01 4.2854073643684387e-01</leafValues></_></weakClassifiers></_>
    <!-- stage 13 -->
    <_>
      <maxWeakCount>10</maxWeakCount>
      <stageThreshold>-1.8687478303909302e+00</stageThreshold>
      <weakClassifiers>
        <_>
          <internalNodes>
            0 -1 46 1507851025 1540342107 -1849041488 -137367074
            -201698320 -3168020 -1597981716 1056959199</internalNodes>
          <leafValues>
            -7.0153623819351196e-01 2.1834060549736023e-02</leafValues></_>
        <_>
          <internalNodes>
            0 -1 56 -481830095 454525471 -1346745464 -1114980391
            -880591024 2058059145 -70456344 548273910</internalNodes>
          <leafValues>
            -7.5212132930755615e-01 2.1172033250331879e-01</leafValues></_>
        <_>
          <internalNodes>
            0 -1 13 -2424865 -738296739 1762676782 -44246020 -1564466124
            -418242524 -852331146 -9282000</internalNodes>
          <leafValues>
            -7.3738801479339600e-01 1.9713313877582550e-01</leafValues></_>
        <_>
          <internalNodes>
            0 -1 1 -1536900956 -2067381800 569664863 1104482829
            -511376945 -1365663310 703578719 1987537659</internalNodes>
          <leafValues>
            -7.7924966812133789e-01 2.2262856364250183e-01</leafValues></_>
        <_>
          <internalNodes>
            0 -1 9 -149358986 854732946 323154170 -36176290 1108499196
            1696137376 -138541029 1979678077</internalNodes>
          <leafValues>
            -4.8167228698730469e-01 3.5886010527610779e-01</leafValues></_>
        <_>
          <internalNodes>
            0 -1 38 -291192320 -1324359665 1648861240 -291640921
            -1328838500 -87785058 -502117762 -459932813</internalNodes>
          <leafValues>
            -5.6805479526519775e-01 3.2504138350486755e-01</leafValues></_>
        <_>
          <internalNodes>
            0 -1 43 1715991229 -1281752480 7012540 -2087034692
            1107536045 541098232 -124358564 851378036</internalNodes>
          <leafValues>
            -7.7526819705963135e-01 2.1673789620399475e-01</leafValues></_>
        <_>
          <internalNodes>
            0 -1 31 -447806689 -247197436 1107492882 -1816071836
            -1610317288 -1687420400 808483020 2145894319</internalNodes>
          <leafValues>
            -4.4449797272682190e-01 3.9065825939178467e-01</leafValues></_>
        <_>
          <internalNodes>
            0 -1 35 1896027384 -1274478503 -875576544 -1545091792
            -1920329564 -517832176 -1226076182 1933028198</internalNodes>
          <leafValues>
            -5.1002359390258789e-01 3.6481603980064392e-01</leafValues></_>
        <_>
          <internalNodes>
            0 -1 22 -15139874 432816456 1951957400 -1378952206 451431376
            1004192202 -96303058 854884310</internalNodes>
          <leafValues>
            -7.7264887094497681e-01 2.2928850352764130e-01</leafValues></_></weakClassifiers></_>
    <!-- stage 14 -->
    <_>
      <maxWeakCount>10</maxWeakCount>
      <stageThreshold>-1.8100974559783936e+00</stageThreshold>
      <weakClassifiers>
        <_>
          <internalNodes>
            0 -1 47 1526725841 -577617700 366995632 -1348478276
            1498360796 1810614408 -285369652 -1293</internalNodes>
          <leafValues>
            -6.2715899944305420e-01 1.1676082760095596e-01</leafValues></_>
        <_>
          <internalNodes>
            0 -1 42 2011150077 -1165641156 -2123504691 -1412968340
            182282813 -623148356 -88247972 -67245329</internalNodes>
          <leafValues>
            -4.4904056191444397e-01 3.8907670974731445e-01</leafValues></_>
        <_>
          <internalNodes>
            0 -1 28 -1130045800 1067503056 -1878994884 -1160775216
            1788363662 1003078371 -291872262 620232503</internalNodes>
          <leafValues>
            -6.9702786207199097e-01 2.5741976499557495e-01</leafValues></_>
        <_>
          <internalNodes>
            0 -1 14 -452802594 329186588 -209659916 -81044010 949888691
            51643012 2055667574 1968668371</internalNodes>
          <leafValues>
            -6.1575120687484741e-01 2.8919011354446411e-01</leafValues></_>
        <_>
          <internalNodes>
            0 -1 55 -73016356 -1693875635 -1753087604 -1044384125
            -1189772868 -1711215709 -614927618 548466331</internalNodes>
          <leafValues>
            -6.3916724920272827e-01 2.3715750873088837e-01</leafValues></_>
        <_>
          <internalNodes>
            0 -1 34 -256510981 -1559985924 -2121084712 -1409655812
            526352 134218280 -1970638156 616329204</internalNodes>
          <leafValues>
            -8.6885815858840942e-01 1.9789238274097443e-01</leafValues></_>
        <_>
          <internalNodes>
            0 -1 37 -466231298 -1944911481 -1853714416 -1650882372
            -929220452 614307992 -643104818 2086662471</internalNodes>
          <leafValues>
            -5.0922483205795288e-01 3.1932741403579712e-01</leafValues></_>
        <_>
          <internalNodes>
            0 -1 53 -336759920 -347396985 -1644150324 -77246843 26839952
            -342897973 -1958030636 980855646</internalNodes>
          <leafValues>
            -7.2178417444229126e-01 2.0248371362686157e-01</leafValues></_>
        <_>
          <internalNodes>
            0 -1 6 -1975091154 583794948 -1725513526 1336205638
            269975737 1796735082 -41352497 888617847</internalNodes>
          <leafValues>
            -8.2149559259414673e-01 2.1454383432865143e-01</leafValues></_>
        <_>
          <internalNodes>
            0 -1 33 2136462079 1003884764 1885044944 -1547238920
            1264151480 2075795640 -1904600456 771059366</internalNodes>
          <leafValues>
            -5.8732098340988159e-01 2.5052341818809509e-01</leafValues></_></weakClassifiers></_></stages>
  <features>
    <_>
      <rect>
        0 0 1 1</rect></_>
    <_>
      <rect>
        0 0 1 2</rect></_>
    <_>
      <rect>
        0 0 2 1</rect></_>
    <_>
      <rect>
        0 1 1 1</rect></_>
    <_>
      <rect>
        0 1 1 2</rect></_>
    <_>
      <rect>
        0 1 2 1</rect></_>
    <_>
      <rect>
        0 2 1 1</rect></_>
    <_>
      <rect>
        0 2 1 2</rect></_>
    <_>
      <rect>
        0 2 2 1</rect></_>
    <_>
      <rect>
        0 3 1 1</rect></_>
    <_>
      <rect>
        0 3 2 1</rect></_>
    <_>
      <rect>
        0 4 1 1</rect></_>
    <_>
      <rect>
        0 4 2 1</rect></_>
    <_>
      <rect>
        0 5 1 1</rect></_>
    <_>
      <rect>
        0 5 2 1</rect></_>
    <_>
      <rect>
        1 0 1 1</rect></_>
    <_>
      <rect>
        1 0 2 1</rect></_>
    <_>
      <rect>
        1 0 2 2</rect></_>
    <_>
      <rect>
        1 1 1 1</rect></_>
    <_>
      <rect>
        1 1 2 1</rect></_>
    <_>
      <rect>
        1 1 2 2</rect></_>
    <_>
      <rect>
        1 2 1 1</rect></_>
    <_>
      <rect>
        1 3 1 1</rect></_>
    <_>
      <rect>
        1 4 2 1</rect></_>
    <_>
      <rect>
        1 5 1 1</rect></_>
    <_>
      <rect>
        1 5 2 1</rect></_>
    <_>
      <rect>
        2 0 1 1</rect></_>
    <_>
      <rect>
        2 0 2 1</rect></_>
    <_>
      <rect>
        2 1 1 1</rect></_>
    <_>
      <rect>
        2 1 2 1</rect></_>
    <_>
      <rect>
        2 2 1 1</rect></_>
    <_>
      <rect>
        2 2 1 2</rect></_>
    <_>
      <rect>
        2 2 2 1</rect></_>
    <_>
      <rect>
        2 3 1 1</rect></_>
    <_>
      <rect>
        2 4 1 1</rect></_>
    <_>
      <rect>
        2 4 2 1</rect></_>
    <_>
      <rect>
        2 5 1 1</rect></_>
    <_>
      <rect>
        2 5 2 1</rect></_>
    <_>
      <rect>
        3 0 1 1</rect></_>
    <_>
      <rect>
        3 1 1 1</rect></_>
    <_>
      <rect>
        3 2 1 1</rect></_>
    <_>
      <rect>
        3 2 1 2</rect></_>
    <_>
      <rect>
        3 3 1 1</rect></_>
    <_>
      <rect>
        3 4 1 1</rect></_>
    <_>
      <rect>
        3 5 1 1</rect></_>
    <_>
      <rect>
        4 0 1 1</rect></_>
    <_>
      <rect>
        4 1 1 1</rect></_>
    <_>
      <rect>
        4 2 1 1</rect></_>
    <_>
      <rect>
        4 2 1 2</rect></_>
    <_>
      <rect>
        4 3 1 1</rect></_>
    <_>
      <rect>
        4 4 1 1</rect></_>
    <_>
      <rect>
        4 5 1 1</rect></_>
    <_>
      <rect>
        5 0 1 1</rect></_>
    <_>
      <rect>
        5 0 1 2</rect></_>
    <_>
      <rect>
        5 1 1 1</rect></_>
    <_>
      <rect>
        5 1 1 2</rect></_>
    <_>
      <rect>
        5 2 1 1</rect></_>
    <_>
      <rect>
        5 2 1 2</rect></_>
    <_>
      <rect>
        5 3 1 1</rect></_>
    <_>
      <rect>
        5 4 1 1</rect></_>
    <_>
      <rect>
        5 5 1 1</rect></_></features></cascade>
</opencv_storage>
